svm_type c_svc
kernel_type polynomial
degree 6
gamma 5.2056220718375845e-05
coef0 4
nr_class 6
total_sv 12153
rho 0.17094873994728541 0.1918437761668953 -0.69324320871241596 -0.25592117301407258 -0.64573583803227885 -0.052757732337119556 -0.94863997521115073 -0.34507713904743897 -0.62015121474958401 -0.70177047922993141 -0.30233006313253641 -0.65061912363714114 0.52906619039672542 0.29639348793336484 -0.50324908685222292
label 0 2 4 3 1 5
nr_sv 1861 3494 3253 1143 1753 649
SV
0 1 0.10753962832082872 0 0 672:1 787:1 789:2 4957:1 6262:1 8918:1 11844:1 13894:1 14677:1 18871:1 
0 0.092058862086469823 0 0 0 524:1 1077:1 1500:1 2331:1 3206:2 3819:1 4629:1 6193:1 6262:1 8921:1 8956:2 11844:1 16539:1 17014:2 17078:1 17257:1 18979:2 
0 0 0 0.29348965884989703 0 1077:1 2459:1 6000:1 6266:1 7071:1 8675:1 8921:1 10173:1 10487:1 13686:1 15705:1 17021:1 18675:1 
0 0 0 0.060351062935523586 0 699:1 2443:1 4070:1 6262:1 8921:1 9360:1 11174:1 15489:1 15616:1 17014:1 
0.38583784593563919 1 0 0 0 563:1 672:1 6266:1 7423:1 8341:1 9732:1 9986:1 17257:1 
0 0.0076909533153797661 0.023314919065156581 0 0.027468995979061779 421:1 672:1 1402:1 2331:1 2352:1 3504:1 6262:1 6551:1 6617:1 7575:1 8341:1 8431:1 8729:1 11529:1 11705:1 11791:1 11904:1 13429:1 16076:1 16550:1 16657:1 17014:1 17021:3 18064:1 18331:1 
0 0.94077277225253864 0.31482750718724278 0 0 1743:1 6266:1 8341:1 9991:1 11458:1 
0 0.87065918831964184 0 0 0.15299707689075315 591:1 672:1 1077:1 6266:1 6847:1 8305:1 9789:1 9921:1 10493:1 13411:1 18514:1 18863:1 18914:1 18939:1 
0.82524844274152565 1 0.24000934319776107 0 0 591:1 1690:1 4287:1 6102:1 6266:1 6269:1 8225:1 8431:1 11710:1 
0 0 0.3167910044144161 0 0 2352:1 6262:1 8918:1 8956:1 11791:1 
0 0 0 0.11445836563143688 0 672:2 4951:1 6262:1 6857:2 7715:1 7942:1 8034:1 8821:1 9743:1 9909:1 10487:1 14699:1 17309:1 18045:2 18113:1 18953:1 
0.12120334071642201 0.580825037291677 0 0.40529835757057242 0 733:1 3605:1 6031:1 7523:1 7846:2 8956:1 10502:1 11564:1 11705:1 14899:1 15090:1 17014:1 17106:1 17252:1 18022:1 18430:1 18514:1 
0 0.13376153462688706 0 0 0 591:1 653:1 1466:1 4112:1 4115:1 6266:1 8431:1 8956:1 9807:1 10972:1 11174:1 16201:1 16806:1 17001:1 17014:1 17742:1 18863:1 
1 0.11820804326068698 0.046977108946345089 0.45817395978181014 0.2592960495017555 3536:1 5886:1 7715:1 8431:1 14873:1 17105:1 18626:1 
0 0.58123114018205113 0 0.051927842410821656 0.082049198186007685 672:1 699:1 4037:1 6262:1 11174:1 18070:1 18250:1 18863:1 
0 0 0 0 0.10693718230046263 672:1 4856:1 4987:1 6262:1 9429:1 11736:1 13116:1 13682:1 13695:1 15616:2 17014:1 17018:1 17021:1 17257:1 18476:1 18660:1 18751:1 
0 0 0 0 0.13768352301619347 591:1 672:1 1655:1 6266:1 8956:1 9049:1 9305:1 9921:1 10487:1 11179:1 11705:1 11776:1 12253:1 13978:1 16206:1 17021:1 17092:1 17252:1 
0.76684592499018311 0.43501619168404804 0 0.0794464800689067 0.059378322745600426 91:1 591:1 672:2 2352:1 4975:1 5039:1 5300:1 5580:1 5942:1 6031:1 6266:1 6645:1 7209:1 9732:1 11084:1 13686:1 14516:1 15347:1 16735:2 17006:1 17014:1 17021:2 17078:1 17204:3 17252:3 18045:1 18250:1 18550:1 18660:1 
0 1 0 0.62483031373180276 0 4115:1 4626:1 5650:1 6262:1 7071:1 8431:1 11529:1 17252:1 
1 1 0 0.18881591663372077 0 1533:1 4975:1 6262:1 9821:1 11915:1 12196:1 13516:1 16253:1 17021:1 17050:1 18514:2 18677:1 
1 1 0.20729061823611303 0 0.14388181153769181 1655:1 4953:1 6262:1 7715:1 8729:1 9429:1 10487:1 17001:1 17014:2 
0 0 0.058850493058216463 0.39092879133857 0 672:1 2352:1 3505:1 4211:1 6262:1 9784:1 10058:1 12384:1 17030:1 17057:1 17252:2 19025:1 
0 0.42848104311912016 0.12820928278349111 0 0 524:1 672:1 2331:1 4952:1 5942:1 6262:2 6645:1 7071:1 7715:1 7923:1 8134:2 8921:1 8956:1 10487:1 11529:1 12096:1 12718:1 13253:1 14094:1 17014:1 17021:1 17204:1 17252:1 18045:1 18476:1 18493:1 18675:1 
0 0 0 0 0.04473286650112706 5655:1 6266:1 8431:1 9317:1 15090:1 17014:1 17309:1 18514:1 
0.056376546734460214 0.021911603285788995 0 0 0.028624656123627246 672:1 3281:1 4173:1 5388:1 6254:1 6266:1 6427:1 6497:1 7487:1 8098:1 11003:1 11705:1 11706:1 12384:1 12631:1 15862:1 16997:1 17011:1 17021:2 17252:2 17371:1 17585:1 18721:1 18731:1 18943:1 
1 1 0.20133016793565334 1 0.8517196530381782 653:1 4133:1 6091:1 7942:1 18863:1 
0.23987641976682025 0.1800860433362613 0.19123174651902095 0 0 1077:1 1500:1 1524:1 5537:1 6262:1 7446:1 7695:1 8134:1 9561:1 10902:1 11290:1 11705:1 17021:2 17057:1 17076:1 17092:1 17252:1 18590:1 
0.1754462885470415 0.065899874408934037 0 0.22557142699838681 0.062340572858655796 672:1 1466:1 3721:1 4918:1 7773:1 8230:1 8305:1 8431:1 8887:1 10902:1 11529:1 11705:1 12205:1 12421:1 13247:1 14219:1 17021:4 17122:1 17163:1 17209:1 18514:1 18937:1 
0.49855015166602318 0.004580981205202091 0 0.13228523842444082 0 590:1 1524:1 3488:1 6262:1 7126:1 8279:1 8431:1 8977:1 11529:1 14900:1 16740:1 17092:1 
0.21464914459936441 0.36260532721085864 0.036238844905939746 0.11162501608676717 0 899:1 1008:1 3923:1 4969:1 7748:1 8431:1 8921:1 8956:1 11529:1 11705:1 11751:1 12403:1 14103:1 16808:1 17252:2 17784:1 18675:1 18731:1 18905:1 
0 0 0 0.1206308527658571 0 6262:1 7768:1 8431:1 14677:1 15616:1 17105:1 
1 1 0.7528233143883607 0 0 280:1 985:1 2331:1 3605:1 6262:1 7695:1 8887:1 8970:1 9909:1 17014:1 17252:1 17801:1 18626:1 
0.35849909010824194 0.30430398382448837 0.042413461771340435 0.16522198901120874 0 672:2 6262:1 6645:1 6829:2 6899:1 7202:1 8706:1 12260:1 12977:1 13053:1 15616:1 18848:1 19141:1 
0 0.39190587440434405 0 0 0 591:1 672:1 1500:1 2331:1 2433:1 3819:1 4256:1 5845:1 6269:1 7076:1 7695:1 8341:1 8921:1 11174:2 11341:1 11776:1 11915:1 13686:1 15616:1 15758:1 17252:1 18387:1 
0.42922762004658765 0.74550387000039386 0.33162288197260653 0.029110766917601155 0.069423143266777163 2331:1 2352:1 2505:2 2507:1 4975:3 6262:1 6645:1 6957:1 11084:1 11458:1 12676:1 14662:1 17122:1 17291:1 17309:1 19141:1 
0.8821234428178204 0.1028314258981055 0 0.18180880779103736 0 91:1 244:1 591:1 672:1 748:1 1524:1 2042:1 2330:1 2783:1 4179:1 4881:1 6262:1 8431:1 8921:1 11174:1 11310:1 11529:1 11906:1 15713:1 17006:1 17014:2 17092:1 17252:1 18193:1 
0.040619724277951595 0 0 0 0 985:2 1046:1 1989:1 2352:1 5397:2 5824:2 6266:1 7523:1 7695:1 8287:1 8305:1 8431:2 9477:1 10315:1 10487:2 10905:1 10972:1 11705:1 11710:1 12446:1 15281:1 17001:1 17021:1 17060:2 17105:1 18095:1 18547:1 18636:2 18721:1 18731:1 19140:1 
1 0 0.13879376947756869 0.34834743837392551 0 401:1 6262:1 6266:1 8921:1 8956:1 9178:1 10455:1 11542:1 11844:2 17014:2 18661:1 19133:1 19142:1 
0.17492057684627554 0.89958116651342312 0 0 0.078608480101439268 379:1 1296:1 1955:1 2331:1 3146:1 3721:1 6262:1 6313:1 7076:1 8629:1 8821:1 11162:1 11529:1 14676:1 15900:1 16290:1 17014:1 17021:2 17309:1 18514:1 19133:1 19141:1 
0 0 0 0 0.036908376587481376 672:1 776:1 1538:1 1738:1 6262:1 8915:1 17252:1 
0 0 0 0 0.12014087603447872 1131:1 2331:1 4881:1 6262:1 8341:1 12300:1 16149:1 
0 0 0.2211823940879834 0 0.049262778324961259 91:1 2331:1 2719:1 4311:1 6262:1 6266:1 8341:2 8381:1 8956:1 13845:1 17021:1 17252:1 
0 0 0.010134591910991617 0 0 899:1 1077:1 2252:1 2952:1 2978:1 4292:1 6166:1 8431:1 9667:1 9920:1 10896:1 11706:1 11969:1 14919:1 15404:1 16129:1 16149:1 17014:1 17021:2 17122:1 17252:1 18463:1 18595:1 18863:1 
0 0 0 0 0.4315597021556532 672:1 1077:1 5824:1 6266:1 7846:2 8381:1 9821:1 13971:1 16311:1 17209:1 17252:1 18863:1 
0.20325663872251049 0.054303335012725537 0 0.031943204491651785 0 448:1 3146:1 6270:1 6736:1 6829:1 7284:1 8956:1 8970:1 15546:1 17021:2 17252:1 17355:1 
0 1 0 1 0 6266:1 7676:1 9821:1 10806:1 19133:1 
1 1 0.72024425486995824 0.09428033613760943 0 524:1 672:1 1466:1 1500:1 1738:1 4930:1 6262:1 6270:1 8341:1 8956:1 9821:1 11564:1 13662:1 15192:1 15710:1 16253:1 16540:1 17014:1 17021:1 17204:1 17252:1 
0 0 0 0.070755469903214296 0 672:1 1228:1 1562:1 1739:1 4618:1 5039:1 5845:1 6262:1 8276:1 8341:1 8431:1 8708:1 9235:1 9615:1 10000:1 11705:1 11915:2 12631:1 15230:1 15278:1 16104:1 17021:1 17078:1 18447:1 18675:1 18815:1 19142:1 
0 0.032372512605566256 0.004078291018819233 0 0 985:1 1466:1 3579:1 6262:1 7363:1 7438:1 7927:1 11658:1 16601:1 17014:1 17092:1 18788:1 
0 0 0 0.023872221643310106 0 411:1 524:1 672:1 1077:1 4435:1 6266:1 8918:1 9414:1 14599:1 17021:1 17204:1 18514:1 
0.99771975727959827 1 0 0.61051811176753501 0.13680980497523049 672:3 899:1 1296:1 2331:1 2433:1 4179:1 6171:1 6262:1 7234:1 7618:1 7826:1 8034:1 8341:1 8431:1 8977:1 10902:1 11705:1 11964:1 12673:1 12777:1 14676:1 16149:1 16253:1 16857:1 17014:1 17021:3 17050:1 17092:1 17252:1 18675:1 
0.21580769169085345 0.57182576364058302 0 0.035962132016070063 0 985:1 3146:1 3734:1 4953:1 5271:1 6266:1 6829:1 10487:1 11776:1 11781:1 13686:1 16149:1 16652:1 17021:1 18687:1 
0.1731347663052383 0 0 0 0 672:1 985:1 2579:1 2625:1 3331:1 4930:2 6262:1 6645:1 7695:1 8729:1 11844:1 12196:1 12400:1 13641:3 17021:1 17252:1 17275:1 18675:1 18909:1 19133:4 
0.85937287846458055 0.77854351011862377 0.14084009775542991 0.4268388307232272 0.20712183195797287 2396:1 4626:1 7846:1 8431:1 8456:1 10487:1 11220:1 15090:1 17818:1 18714:1 
0.10200974782620502 0.060318847566785232 0 0.13737437343633582 0 227:1 672:1 985:1 2002:1 2352:1 2536:1 5854:1 6262:1 7695:1 8279:1 9490:2 11284:1 11458:1 11705:2 11926:1 12204:1 12902:1 13861:1 14876:1 15715:1 15886:1 16410:1 17092:2 17252:1 18339:1 18626:1 18751:1 
0 0.25351711340921895 0.00051025840157201087 0.1048686066682501 0.030164165303240526 672:1 6033:1 6091:1 7311:1 7846:1 8533:1 9502:1 11564:1 11751:1 12240:1 13368:1 15027:1 17021:1 18281:1 18514:1 18750:1 
0 0 0 0 1 672:1 6266:1 8381:1 14571:1 18514:1 
0.17855355810825277 0 0 0.94134926954697273 0 411:1 1985:1 6262:1 6266:1 7076:1 7220:1 8682:1 11179:1 11844:1 11969:1 13508:1 13971:1 15710:1 17092:1 17252:1 
0 0.6833031481893167 0 0 0 3416:1 5699:1 6262:1 7523:1 9235:1 11705:1 12666:1 14899:1 17021:1 17060:1 
0.63253764744530039 1 0.0032543581828880677 0 0 1466:1 3721:1 6266:1 6645:1 9235:1 11776:1 13686:1 14802:1 15354:1 15616:1 16253:1 18432:1 18514:1 
0 0 0.03300815944346297 0 0 569:1 1500:1 2331:1 6281:1 7715:2 8533:1 9239:1 14261:1 18514:1 18528:1 
0.25308327630322591 1 0.1170517528086817 0.36566179693274986 0 1466:1 5824:1 6262:1 7460:1 9985:1 10687:1 10808:1 11257:1 11705:1 12384:1 14571:1 14930:1 17021:1 17076:1 17252:1 17934:1 18550:1 18731:1 18979:1 19133:1 
1 0.38531962255786623 1 1 0 672:1 6262:2 9821:1 12631:1 15442:1 15616:1 
0.10902596933180642 0.83956593595564577 0.12708932978032264 1 0.20173949510939485 567:1 672:2 694:1 2186:1 2352:1 3438:1 3721:1 5758:1 6202:1 6262:1 8134:1 11174:1 11776:1 12044:1 13968:1 15090:1 17092:1 17252:1 
0.56105315440128678 0.34546890497095945 0 0.044291754339845849 0 1524:1 1738:1 6262:1 7695:1 8431:1 9821:1 11174:1 11646:1 12561:1 12909:1 
1 1 0.36528437893856697 0.40115139508955278 0.39811361609104912 748:1 2352:1 3376:1 6366:1 8431:2 10260:1 11781:2 14055:1 14714:1 18687:1 
0.14256874603395972 0.39401666478772251 0 1 0 411:1 591:1 1077:1 5293:1 5843:1 6266:1 6281:1 7071:1 9659:1 10687:1 11705:2 11777:1 15698:1 16550:1 17014:1 18095:2 18689:1 
0.24916505885794218 0.68543362035153965 0.017288829139109309 0 0.070931384985747872 672:1 693:1 985:1 4916:1 5870:1 6281:1 6645:1 7715:2 7942:3 10058:1 11969:1 13924:1 17028:1 18634:1 18769:1 
0 0.072333174016534191 0.038831782485116893 1 0.10916786665501831 699:1 2157:1 2418:1 3438:1 6266:1 6763:1 11705:1 11776:1 11915:1 14283:1 15513:1 16857:1 17021:1 
1 1 0 0 0 591:1 6266:1 8921:1 9821:1 16253:1 17014:1 17021:1 17252:1 18533:1 
0 0 0 0 0.012606505062601497 591:1 4115:1 6171:1 6226:1 6266:1 6645:1 7894:1 8956:1 9625:1 10972:1 15710:1 17014:1 17080:1 17252:1 17583:1 18660:1 18788:1 
1 0.64184629262811765 0 2.7036095899265501e-05 0 91:1 6262:1 11705:1 11941:1 17075:1 17092:1 17702:1 
0 0.040216730838071507 0 0.055764409856534379 0 653:1 1131:1 3618:1 6262:1 6645:1 8673:1 8821:1 9821:1 11179:2 11844:1 14900:1 15300:1 15818:1 16035:1 17252:2 17603:2 18045:2 18747:1 
0 0.40096629038987996 0 0 0 786:1 5650:1 6266:1 6645:1 6829:1 7854:1 8564:1 8729:1 8938:1 9235:1 9789:1 10487:1 13092:1 16901:1 17014:1 17030:2 18675:1 
1 0 0 0 0 6262:1 7423:1 
0 0 0 1 0 411:1 6262:1 
0.32481164148782093 0 0.0022111179217991694 0 0 850:1 4115:1 6262:1 8970:1 10413:1 11781:1 13086:1 16237:1 17105:1 17252:3 
0.43218107111472981 0.1071605982438117 0.44813017467817734 0.049684111300480657 0 1547:1 6262:1 6899:1 11776:1 19141:1 
0.19507609396782699 0 0 0.12387789513674898 0.0025544919450685411 233:1 653:1 672:1 1305:1 4685:1 7846:1 8431:2 8887:1 9885:1 10000:1 11705:1 13707:1 14827:1 14943:1 18633:1 
0.39346686357886435 0.39702480192725037 0.05226821337724627 0.33031865575470237 0.1923523353237995 1466:1 2023:1 5403:1 6272:1 10619:1 11278:1 13300:1 17021:1 17252:2 18260:1 18453:1 
0 0.65726045959678381 0 0 0.090491551650135241 524:1 672:1 3581:1 4095:1 4987:1 6262:1 6645:1 7209:1 8225:1 11179:1 14900:1 15616:1 17021:1 17204:1 17252:1 
0 0.32244659224632782 0 0 0 307:1 653:1 672:2 1466:1 4200:1 6269:1 8956:1 9821:1 11243:1 11915:1 13614:1 17030:1 17035:1 17252:1 17726:1 18110:1 18223:1 18277:1 18514:1 18863:1 
0.10239115401762676 0.0031373944579928155 0 0.10610639892481327 0 379:1 2268:1 3392:1 3583:1 4553:1 5193:1 6262:1 7523:1 9414:1 10175:1 10487:1 11646:1 11705:1 13645:1 14343:1 17014:1 17021:3 17050:1 17252:1 
0 1 0 0 0 2352:1 6262:1 7676:1 11174:1 12179:1 
0 0.24069029916575535 0.011973606985731513 0 0 524:1 672:1 985:2 1502:1 2331:1 3819:1 4206:1 6266:1 6806:1 7071:1 7695:1 8121:1 8141:1 8146:1 8341:1 8431:1 8942:1 8956:1 9955:1 10261:1 10455:1 11174:1 11179:1 11705:1 11872:1 17080:1 17092:1 17252:1 18022:1 
0.42576123195170062 0 0 0 0 1274:1 1500:1 6266:1 8341:1 11564:1 14287:1 14900:1 17014:1 17204:1 18476:1 
0.41413334961907022 0.10206247453411513 0.098454891202928163 0.67274571710563158 0.23526702586055659 672:1 7942:1 12261:1 12349:1 15531:1 18250:1 18514:1 
1 1 1 1 1 2835:1 16149:1 18514:1 18675:1 
0 0.54860616299671083 0 1 0.61070149144438657 4626:1 6262:1 9821:1 9909:1 13912:1 14516:1 14873:1 17028:1 17105:1 
0 0.47385955954236125 0 0 0 81:1 91:1 524:2 636:2 778:1 789:1 804:1 1077:1 1500:1 1562:1 2459:1 3361:1 5845:1 6262:1 6266:1 6857:1 7580:1 10228:1 10487:1 11003:1 11529:1 11705:1 11776:1 15616:1 16252:1 16253:1 17021:2 17204:2 17252:1 18045:1 
0.7118233495294205 0.38181354971351417 0.077982393532931626 0 0.3419050305952796 5885:1 6988:1 7447:1 7715:1 9909:1 11705:1 
0 1 0 0 0.59025663593617594 985:1 6262:1 8305:1 11705:1 11781:1 11783:1 16317:1 17021:1 
0 1 0.74376039494328661 0.94695898736414741 0 558:1 1562:1 6262:1 6645:1 7677:1 11179:1 11705:1 
0 0 0 1 0 411:1 672:1 1500:1 1533:1 1538:1 2345:1 5868:1 6262:1 6633:1 9675:1 10523:1 15698:1 17252:2 18478:1 
0 0.20170074851211287 0 1 0.073865223845935052 91:1 672:2 1077:1 1500:1 1738:1 1751:1 4020:1 4930:1 5246:1 6266:1 7209:1 7220:1 8431:1 8956:2 9789:2 11174:2 11705:2 11776:1 12658:1 16071:1 17021:1 17252:1 18015:1 18514:4 18660:1 18863:1 
0 0.0097574101070810517 0.19483875545429205 0.02556031545576435 0 672:3 1500:1 1818:1 2352:1 2454:1 4769:1 4796:1 4808:1 5990:1 6002:1 6262:1 6269:1 6847:1 7695:1 8431:2 9429:1 9921:1 11174:3 11821:1 12658:1 13429:1 15705:1 17030:1 17034:1 17050:1 17060:1 17603:1 18660:1 
0.10202527693957933 0.081448846350071033 0.33557909101041483 0 0 591:1 672:1 2331:1 2459:2 6262:1 7122:1 8431:1 8956:1 9235:1 9821:1 11162:1 16317:1 17252:1 18808:1 
0.25591545057334442 0.078353531709606017 0.2399397215296151 0 0 819:1 1466:1 1500:1 1643:1 2316:1 4975:1 5824:1 6262:2 7674:1 8431:1 8729:1 8775:1 8956:1 9821:1 10224:1 10487:2 11174:1 12446:1 13394:1 15300:1 17014:2 17021:1 17105:1 17252:2 18476:1 18863:1 18979:2 
0.60485673074843727 1 0.17428669548731035 0.74198321223431207 0.016596908306157548 672:1 699:1 5824:1 6262:1 7379:1 10456:1 11054:1 11290:1 12240:1 17021:1 17252:1 
0 0.24548828985728691 0 0 0 672:1 1466:1 1514:1 2433:1 3721:1 4115:1 6262:1 6645:1 6809:1 9663:1 9821:1 11003:1 11174:1 11529:1 12196:1 14863:1 17021:1 
0 0 0 0 0.007924901013401783 899:1 1533:1 5824:1 6152:1 6262:1 7363:1 7695:1 8134:1 9429:1 10566:1 11751:1 11776:1 12220:1 12384:1 16334:1 16735:1 17028:1 17060:2 17252:1 17606:1 18675:1 18731:1 
1 0.68316948725876347 0.70613435414153158 0.87483929431926288 0.035817201506619829 91:1 3923:1 7074:1 16439:1 
1 0.17711908847204666 0.65034848401964462 0 0 1466:1 2002:1 2459:1 6262:1 6266:1 8341:1 9235:1 9429:1 11705:1 12831:1 16550:1 17021:1 19133:1 
0 0 0 0.74663912594608162 0 411:1 591:1 672:1 5605:1 6262:1 7206:1 11174:1 11844:1 13419:1 15347:1 16149:1 17252:1 17747:1 
0 0.034739591887258829 0.01952433199809487 0 0 389:1 672:1 1524:1 4881:1 6262:1 6598:1 8977:1 9821:1 11174:1 11290:1 13846:1 15733:1 17252:1 
0.29251450649920535 0.36266245734709524 0.12000361681109997 0.23687581494534424 0 590:1 672:2 985:1 3576:1 5258:1 5824:1 6262:1 6645:1 7202:1 7234:1 8189:1 8431:2 9087:1 10000:1 10077:1 11162:1 11710:1 11904:1 14868:1 17014:2 17021:1 17078:1 17252:3 18447:1 18448:1 18547:1 18550:2 
0.021098413306130284 0.04377892579204045 0 0.18289156107184817 0.058245042456523316 91:1 934:1 1347:1 2352:1 4109:1 4881:1 6262:1 6458:1 7628:1 12412:1 17021:1 17092:1 17309:1 
1 0.69301996463041682 0.14730435136615197 0 0 672:1 786:1 1572:1 1985:1 6262:1 6266:1 7768:1 8431:1 10058:1 11529:1 11564:1 
0.20459227098922037 0.31721033674038324 0.090794059164482965 0 0.047198830799152922 1077:1 6269:1 6645:1 8225:1 8226:1 9889:1 11905:1 13845:1 15587:1 15898:1 17028:2 17252:2 
0 0.13614787611723397 0 0 0.027251019023614629 524:1 672:3 1010:1 1500:1 1562:1 2154:1 2394:1 2433:1 2488:1 4070:2 4690:1 6152:1 6262:1 7122:1 7695:1 7846:3 8341:2 8431:1 9305:1 9821:1 11174:3 11299:1 14407:1 14476:1 15090:2 15616:1 17014:1 17021:1 17252:2 18660:1 18863:1 
0 0.13261527188948039 0 0 0 672:1 1500:2 1837:1 2331:1 2418:1 4957:1 5636:1 5824:1 6262:1 6633:1 6829:1 7675:1 8728:1 8921:1 8956:3 9821:1 10058:1 11162:1 11458:1 12526:1 14476:1 14676:1 17021:2 17092:2 17252:1 
0.9929195837961271 1 0.12614595215240335 0.56228054114145876 0.1362717052519411 591:1 672:2 1589:1 3218:1 4881:1 6266:3 7854:1 8225:1 10832:1 15355:1 17092:1 17708:1 18677:1 18914:1 
0 0.15592316899114453 0 0.16145997265824372 0 672:1 757:1 1562:1 1679:1 1681:1 4957:1 6102:1 6262:1 6829:1 8305:1 8341:1 8729:1 8745:1 8921:2 9235:1 9821:1 11174:2 17014:1 17021:1 17032:1 17092:1 18909:1 
0.64077172587652476 0.38641511528122002 0 0.30528561472040527 0 91:1 672:1 1562:1 2331:1 4780:1 4987:1 6266:1 6645:1 7677:1 8056:1 8341:1 8956:1 9116:1 9565:1 10029:1 11174:1 13686:1 16550:1 
0.41883601454456393 0.878114971309778 0.092228309857138188 0.048692674986423386 0 591:1 672:2 5450:1 6262:1 6645:1 6847:1 7508:1 7626:1 7701:1 9743:1 9986:1 10565:1 11174:1 11705:1 11844:1 11904:1 13846:1 15858:1 16247:1 16550:1 17021:1 17078:1 17204:1 17272:1 19133:1 
0 0 0 0.35414140040402969 0 672:1 1466:1 2002:1 2459:1 6266:1 7218:1 7854:1 8341:1 8431:1 11855:1 13435:1 13466:1 15616:1 17057:1 
0.019470088132075177 0 0.0065103838364673951 0 0 672:1 3819:1 6262:1 14177:1 16056:1 17057:1 17235:1 17252:1 18022:1 18045:1 18352:1 18863:1 
0 0.12656887686598947 0 0 0 170:1 985:2 1466:1 1500:1 4930:1 6262:1 11564:1 11710:1 15266:1 17021:1 18979:1 18980:1 
0 0.28211513745171934 0 0 0 672:2 1228:1 4115:1 6266:1 6645:2 6903:2 7202:1 7695:1 8305:1 8970:1 11736:2 11791:1 17014:2 17060:1 17076:2 17252:1 18429:2 19133:1 
0.41295600746516387 0.92747809050671692 0.10410462848104879 0.018189225062140803 0.0092890788742494498 4951:1 6645:1 7715:1 8532:1 10487:1 11371:1 15565:1 17583:1 18939:1 
0.50296364138944272 0.1080193997139442 0.23837713285435516 0 0.0093898355238246998 91:1 591:1 899:1 1466:2 3146:1 6262:1 6404:2 6645:1 6809:1 7695:1 8134:1 8956:1 9435:1 10175:1 11529:1 12718:2 13667:1 17078:1 17252:1 18550:1 18570:1 18835:1 
0 0 0.0046080701738101431 0.055286662509953108 0 390:1 2189:1 2352:1 3773:1 4035:1 4092:1 4477:1 6645:1 8732:1 8785:1 8887:1 8921:1 13279:1 16470:1 17021:1 17252:1 
0.37331284055108788 0.42648470246636944 0 0.14942358165928779 0 569:1 591:1 1077:1 2614:1 6266:1 6645:1 6672:1 7923:1 8305:1 8956:1 9429:1 10173:1 10456:1 11705:2 11844:1 12415:1 16937:1 17014:2 17204:1 17851:1 18979:1 
0.33689119632314479 0.09091860772836971 0.055850060000675911 0.25600056270922628 0.043730948227936516 367:1 653:1 2318:1 4930:1 5116:1 5723:1 7202:1 9818:1 14571:1 17252:1 18155:1 18550:1 
0 0.68098910481699604 0.011132774605264588 1 0 672:1 912:1 2569:1 3438:1 6266:1 6645:1 6847:1 9675:1 9890:1 10487:1 11847:1 17014:1 17252:1 
0 0.51238269480619991 0 0 0 91:1 591:1 1562:1 1751:1 2331:1 6262:1 9821:1 10487:1 11529:1 13686:1 17035:1 17092:1 
0 0.68421364321363265 0.084097626818448956 0.2489218700102592 0.007742947613592675 899:1 1236:1 1274:1 2331:1 3226:1 6171:1 6262:1 6270:1 8431:1 8956:2 9301:1 10074:1 10315:1 10487:1 11304:1 11705:1 12889:1 14900:1 15616:1 17001:1 17050:1 17092:2 17252:2 18675:1 18965:1 
0.20954606540460063 0.24615497280928819 0.19805266546137928 0.16565234009302451 0 524:1 1751:1 1754:1 2331:1 5982:1 6266:2 8341:1 8921:2 14676:1 17092:1 17252:1 18250:1 18514:1 
0.1596827694084309 0.062752603838316059 0.16655645433164837 0.10857007102841693 0.017594436146859332 591:1 5683:1 5939:1 6262:1 8729:1 9235:1 11174:1 11738:3 11969:1 15616:1 17252:1 17349:1 19133:1 
0.48538790694315215 0 0 0 0 91:2 379:1 672:1 1524:1 2331:1 4783:1 6266:1 7120:1 7523:2 8134:1 8230:1 10487:1 11174:1 11179:2 11705:1 11904:1 13296:1 13686:2 16755:2 17252:1 18514:1 
0.33803233074573125 0.76730982124156399 0.26942164468252267 0 0.051625114680152254 672:2 3841:1 6262:2 10032:1 11179:1 12260:1 15489:1 18324:1 
0 0 0 0.13640050561254313 0 91:1 212:1 269:1 390:1 590:1 985:2 1466:1 6262:1 6645:1 7942:1 8233:1 8276:1 9166:1 9221:1 10455:1 11084:1 11174:1 11367:1 11705:1 12491:1 15616:1 16687:1 17106:1 17111:1 17152:1 18045:1 18294:1 18661:1 18739:1 
0.43437149959448368 0.5389468632380009 0.064886170401426552 0 0.50409368423258782 653:1 1008:1 1162:1 4930:1 7715:1 8533:1 17057:1 19133:1 
0.30869461174493779 0.049983584947768424 0 0 0 590:1 986:1 2331:1 4987:1 5229:1 5481:1 5773:1 6262:1 9821:1 14516:1 17057:1 18687:1 
0 0 0 0.072567714175731671 0 672:1 1228:1 3206:1 4856:1 5824:1 6266:1 6712:1 6829:1 8431:1 8775:1 8977:2 11174:1 11705:1 12872:1 13912:1 15698:1 17028:1 18474:1 
0 0.14054302332676435 0.047298663775113804 0 0 672:1 1500:1 1524:1 2002:1 2785:1 3217:1 4930:1 5305:1 6266:1 6633:1 7697:1 8341:1 8956:1 8977:1 9429:1 9960:2 11003:1 11174:1 11458:1 11705:2 11776:1 12777:1 14469:1 15616:1 15698:1 16149:1 17014:1 17056:1 17252:1 19084:1 19133:1 
0.62057204194576021 0.22141801880482703 0.054293205008500128 0 0.071130476564302908 5887:1 7942:1 8431:1 9429:1 11532:1 11705:1 12743:1 17252:1 18362:1 18478:1 
0 0.22082735251827795 0 0.0012725722542003372 0.19471411613191258 584:1 672:2 1274:1 1466:1 1533:1 3392:1 5655:1 7689:1 7846:1 8134:1 8431:2 8956:2 11162:1 15090:1 15192:1 15206:1 15347:1 16486:1 17021:1 17035:1 17252:1 18045:1 18514:2 18853:1 
0.042675277378393862 0.12836707884174048 0 0 0 699:1 1882:2 2331:1 6262:1 10175:1 10487:1 11076:1 11777:1 13686:1 15294:1 18250:1 
0.083343173145618552 0.15475742692224537 0 0 0 81:1 591:1 653:1 672:1 787:1 2593:1 3945:1 4057:1 5445:1 5749:1 6266:1 7854:1 8431:1 8921:1 8956:1 10726:1 10774:1 11256:1 11458:1 11694:1 11705:4 11781:1 11855:1 11915:1 12993:1 13429:1 14876:1 17021:3 17034:1 17252:2 17385:1 17606:1 18045:1 18277:1 18278:1 18863:1 
0 1 0 0 0 1466:1 6266:1 8341:1 8956:1 11646:1 18979:1 
0.45830673991764287 0.13110177422670924 0 0 0 672:1 899:1 985:1 1466:1 5977:1 6262:1 6809:1 7677:1 7695:1 8793:1 8954:1 9821:1 10487:1 10491:1 11174:1 11776:1 11789:1 11844:1 11915:1 12384:1 17014:1 17021:1 17030:1 17035:1 17050:2 17252:2 18626:1 18863:1 
0.28949872452708714 0.18317479466945238 0 0 0 91:1 567:1 672:1 934:1 4628:1 5039:1 5831:1 6262:1 6266:1 6427:1 6645:1 6806:1 6988:1 7202:1 7846:2 8431:1 8915:1 10175:1 10487:1 10972:1 11174:1 11776:1 12071:1 12658:1 15358:1 16753:1 17021:1 17235:1 17252:4 17606:1 18045:1 18429:1 18476:1 18514:2 
0.16493712270832009 0 0 0.10250379850715938 0 91:1 672:1 934:1 2331:1 4930:1 4981:1 5845:1 6266:1 6523:1 7071:2 7446:1 8956:1 9898:1 9909:1 11174:1 11299:1 11564:1 13667:1 14386:1 15449:1 15698:1 17014:1 17080:1 17092:1 17252:4 18045:1 18514:1 18545:1 18626:1 18939:1 19013:1 
0.16929679371790188 0 0 0.068002907503306134 0 582:1 672:1 1524:1 1562:1 1655:1 1738:1 2352:1 3719:1 6262:1 8921:1 9821:1 11969:1 12205:1 13965:1 14501:1 15818:1 16149:1 16317:1 17021:1 17078:1 17252:1 17257:1 17576:1 17603:1 18193:1 18675:1 
0 0.02209134794402445 0.028516059061118402 0 0 615:1 5293:1 6262:1 7363:1 9821:1 12030:1 12931:1 
0.07829996436612062 0 0.038028371891310822 0 0 591:1 672:1 6262:1 6645:1 14116:1 16317:1 17049:1 17309:1 
1 1 0.48863591724802646 0.73732956813109829 0.33705200907398691 4626:1 6262:1 9581:1 11707:1 
0 0.24662262492769846 0 0 0 6262:1 8551:1 14899:1 14900:1 15616:2 
0 0 0.59543066184009164 0 0 91:1 3819:1 4628:1 5824:1 6262:1 8956:1 
1 1 0.26849169426916653 0.76347692334957717 0.40555563310777654 1503:1 2332:1 8454:1 17021:1 
0.036526511049829062 0 0 0 0 672:1 2186:1 2331:1 3213:1 4881:1 6262:1 6640:1 7569:1 7923:1 8956:1 9235:1 9821:1 11174:1 11751:1 11776:1 15090:1 15113:1 15616:1 17252:1 18434:1 18675:1 19085:1 
0.20768334675856634 0.77988723728175269 0.012479866399247388 0.14367899499256095 0.11690247003807541 367:1 672:1 1077:1 3571:1 3924:1 6035:1 6091:1 7715:1 8320:1 8923:1 13899:1 14635:1 17014:1 17021:1 17092:1 
0.47995832358804208 1 0 0.66581950895896502 0.10810883062830907 524:1 1235:1 5793:1 6281:1 8431:1 8956:1 11776:1 12384:1 14674:1 14863:1 16067:1 16426:1 16445:1 17021:1 17252:1 17666:1 18675:1 
0.18776458471884463 0.17011097544437329 0 0.22785747804573414 0.0070514499531352994 390:1 985:1 1490:1 2331:1 2958:1 3721:1 4628:1 5411:1 5683:1 6266:1 6847:1 7036:1 7718:1 8956:1 9661:1 10487:1 11174:1 11705:1 12777:1 13791:1 17021:2 17252:2 18453:1 
0 1 0 0 0.18833126839638653 672:1 2331:1 4952:1 6262:1 7676:1 8225:1 8942:1 8956:1 
0.021738733262616751 0.10125827041381039 0 0 0 2331:1 2352:1 2927:1 4783:1 6262:1 8431:1 8938:1 9429:1 9677:1 10755:1 11493:1 11705:1 11915:1 13086:1 13251:1 13350:1 17014:2 17021:3 17642:1 19133:1 
1 0 0.11843246824851858 0.72709915316350004 0 2352:1 4783:1 4975:1 6262:1 8956:2 14564:1 17035:1 17252:1 17603:1 18863:1 19018:1 
0.14476787782933018 0.22586888843135966 0.071554666245999529 0 0.0081046850945909847 672:1 934:1 2390:1 3721:1 3812:1 6262:1 7071:1 7423:1 7523:1 11142:1 11174:2 14264:1 16059:1 17252:1 
0.12680075488881415 1 0 0.004040619755621859 0.023099684123466746 672:1 4166:1 4713:1 5885:1 7846:1 9414:1 15090:2 15774:1 16546:1 18250:1 18514:1 
0.23767462240987661 0.36212021032212688 0.11511090997329888 0.095517524675866508 0.041275391298799917 99:1 524:1 672:1 826:1 1077:1 1466:1 2331:1 2433:1 5701:1 6266:1 7695:1 8134:1 8431:1 9429:1 9911:1 10905:1 11174:1 11705:1 12384:1 12809:1 15187:1 15531:1 17021:1 18538:1 18550:1 
0 0.72839111363352671 0 0 0 6266:1 10173:1 18514:1 
0.32063685309210282 0 0.036939811523556861 0 0.11780050113575655 524:1 672:1 1077:1 1274:1 3476:1 3721:1 4173:1 5837:1 6100:1 6136:1 6262:1 7695:1 8341:1 8431:2 9428:1 9909:2 11141:1 11174:2 11425:1 11705:1 13288:1 13723:1 15489:1 17021:2 17060:1 17499:1 17934:1 18045:1 19107:2 
1 1 0 0 0 1466:1 4713:1 6266:1 8956:1 10173:1 11844:1 12312:1 14552:1 18514:1 18686:1 
0 0 0 0.42346346853095507 0 209:1 985:1 1524:1 2352:1 4772:1 6262:1 6829:1 7923:2 8276:1 8305:1 17014:1 18675:1 19025:1 
1 0.69481697594714942 0 0 0 6262:1 6645:1 8956:1 14900:1 
0 0 0 0 0.094777866678249653 1466:1 3226:1 5758:1 6262:1 7846:1 7942:1 8381:1 8403:1 9909:1 10487:1 11705:1 11776:1 14774:1 17021:1 17028:1 17080:1 17252:1 18731:1 18788:2 
1 0 0.40181823370970149 0 0 6262:2 6772:1 7284:1 10487:1 11392:1 14476:1 14836:1 17021:1 17252:2 
0 0.35762764739959929 0 0 0 401:1 569:1 591:1 1500:1 4987:1 5300:1 6262:1 6266:1 7675:1 8134:1 9429:1 11736:1 15773:1 16540:1 17014:2 17252:1 18545:2 18675:2 
1 0.26947595774078581 0.59492807494546607 0 0.032528401770305825 524:1 591:1 672:1 1077:1 1466:1 4856:1 4975:2 5549:1 6262:3 6869:1 7618:1 9492:1 9789:1 11537:1 11705:1 11844:1 15616:1 15710:1 17252:3 18476:3 18979:1 
0.52420112792567075 0 0 0 0 91:1 1466:1 2001:1 2002:1 2433:1 4975:1 6262:1 6617:1 6829:1 7071:1 9821:1 10224:1 10487:2 10493:1 12691:1 15192:1 17014:2 17076:1 18626:1 
0.56428557754705821 0 0 0 0 225:1 524:1 1524:3 3854:1 4173:2 4202:1 4881:1 6262:2 6328:1 9821:2 9928:1 10972:1 11285:1 11844:1 17001:1 17021:1 17035:1 18193:2 18523:1 18863:1 18939:1 
0.014434129002781982 0 0 0 0 672:1 1124:1 1502:1 3628:1 6262:1 7822:1 8134:1 9739:1 10487:1 11529:1 11705:1 11905:2 14094:1 15192:1 17030:1 17060:2 17078:1 17252:1 17583:1 18660:1 18675:1 18788:1 
0 0.059340588657791626 0 0.091286922284790836 0 415:1 1524:1 4930:1 6102:1 6262:1 6645:1 7071:1 7697:1 8138:1 8431:2 11564:1 11736:1 11941:1 13495:1 13618:1 14891:1 15238:2 15310:1 15544:1 15616:1 17014:2 17021:1 17080:1 18250:1 18675:1 18835:1 19093:1 
1 0.027926932999353293 0.34822046595873962 0 0.22039053033924344 91:1 672:1 5650:1 6262:1 7846:1 8729:1 8956:1 10058:1 11564:1 13086:1 13632:1 17078:1 17252:1 
1 1 1 0 0 985:1 6262:1 8341:1 9821:1 11529:1 16317:1 
0.50659052843364316 0.41360279884944123 0.16703040515743997 0.1378523832577371 0 934:1 1131:1 1466:1 2046:1 2051:2 4930:2 5580:1 6262:1 6389:1 6525:1 6829:1 7076:1 7942:1 8326:2 8431:1 8683:1 9821:1 9909:1 11179:1 11705:1 11844:2 11905:1 13053:1 13686:1 15710:1 15759:1 16059:1 17014:1 17035:1 17252:1 18031:1 18045:1 18476:1 18863:3 
0.34112411487813105 0 0 0 0.11942425110606236 672:1 1104:1 1743:1 5518:1 6266:1 8341:1 9235:1 
0.17167731470130213 0.54350938096868562 0.61099908650030399 0.27957237657648309 0 636:1 1524:1 1847:1 3751:1 6266:1 6317:1 8276:1 8341:1 8977:2 9561:1 10072:1 10808:1 11705:1 11776:1 13712:1 13728:1 15067:1 15616:1 17014:1 17021:1 17106:1 17691:1 17692:1 
0 0.17728261792120611 0 0 0 1077:1 4115:1 6266:1 18763:1 18805:1 
0.26717061379529833 0.28620863061981183 0.44215902073977947 0.54791123427990018 0 672:1 1165:1 5845:1 6262:1 6645:1 7363:1 7569:1 9235:1 9821:1 10923:1 11243:1 11290:1 11529:1 11564:1 11969:1 13686:1 14287:1 15698:1 17021:1 17252:1 18480:1 
0 0 9.079360627256306e-05 0.015543838320400037 0 377:1 617:1 672:1 2454:1 6262:1 7505:1 7677:1 7770:1 8343:1 8349:1 8675:1 14863:1 16426:1 17028:1 17060:1 18660:1 18675:1 
0 0.21906654653870383 0 0.081096341728063862 0 699:1 1077:1 1500:1 2048:1 2331:1 3206:1 4626:1 5825:1 7523:1 7715:1 7942:1 10487:1 11174:1 11529:1 12127:1 13234:1 14863:1 15862:1 17021:1 17252:2 18514:1 18731:1 18863:1 
0 0.22248376950216819 0.050628553992345303 0 0 591:1 672:4 1500:1 4173:1 5300:1 6266:1 6847:1 7071:1 7523:1 7906:1 8004:1 9235:1 9889:1 9988:1 11151:1 11174:1 15210:1 15558:1 15698:1 16735:1 17252:2 18478:1 18941:1 
0.26876305148262708 0 0 0.13636099326020737 0.41736060966374955 3083:1 5885:1 7942:1 10699:1 17298:1 17714:1 18863:1 
0.59685147884751522 0.7854688287992756 0 0 0 591:1 735:1 6262:1 7220:1 11179:1 17252:1 18863:1 
1 0 0 0 0 1524:1 6266:1 7695:1 11162:1 13086:1 14676:1 17105:1 18324:1 
0 0 0.08734883742115572 0 0 6262:1 8918:1 11290:1 11776:1 13822:1 17252:1 18751:1 
0.7509728453968173 0.53655327582621459 0.10083454013277016 0.87140481822029459 0.045307548036240389 2638:1 6582:1 15345:1 18259:1 18514:1 18863:1 
1 0 0 0 0 591:1 1542:1 5580:1 6266:1 6829:1 7234:1 8708:1 11705:1 12658:1 13712:1 16055:2 17021:2 17252:1 18250:1 18788:1 
0 0.0025553554227340553 0.010266517907513217 0 0 751:1 2459:1 4038:1 4891:1 6262:1 6645:1 6847:1 11844:1 13478:1 17014:1 
0.11178472468063731 0.011019643233704317 0 0 0.55428726248852467 91:1 420:1 569:1 595:1 693:1 1555:1 2331:1 2352:1 2400:1 3052:1 4375:1 6031:1 7366:1 7846:1 7942:2 10224:1 11529:1 11776:1 11791:1 11915:1 13429:1 15021:1 15090:1 16056:2 17021:1 17035:1 17252:2 18514:1 18675:1 18769:1 
0 0 0 1 0.17835376188805571 653:1 672:1 985:2 1466:1 2892:1 4132:1 4846:1 5580:1 6266:1 7262:1 11529:1 11844:1 11971:1 14476:1 16089:1 17021:1 17252:2 17781:1 18022:1 18550:1 
0.043835396330212321 0 0 0 0 672:2 1466:1 1562:1 2331:1 2877:1 4518:1 6262:1 7234:1 8063:1 8921:1 9360:1 9429:1 9821:1 10487:1 10687:1 11179:1 11537:1 14563:1 14900:1 15489:1 15696:1 17021:1 
0.21111646701029066 0.11883615594131368 0 0 0 3146:1 6262:1 8290:1 9821:1 11458:1 11633:1 18863:1 
0 0.95190444768600335 0 0 0 1077:1 2331:1 4957:1 6167:1 6266:1 6645:1 8341:1 9235:1 11179:1 11706:1 12631:1 14976:1 15710:1 16353:1 18126:1 
0 0 0 0.34704663077076547 0 524:1 614:1 1077:1 2331:1 2454:1 2844:1 5766:1 6262:1 7695:1 7822:1 8431:1 11458:1 11941:1 13752:1 14294:1 17014:1 17252:1 
0 0.57170550089100924 0 0 0 4629:1 6262:1 7550:1 7676:1 9235:1 9821:1 10487:1 11174:1 14408:1 17021:1 17204:1 18852:1 
1 1 0.25352653600444169 1 0.33920669852810942 11458:1 11529:1 15090:1 18193:1 
0.49281826374728999 0.19689867722690022 0 0 0 524:1 591:1 672:3 782:1 1077:2 1228:1 1466:1 2433:1 2512:1 5699:1 6092:1 6262:1 6645:2 6809:1 6880:1 7202:1 7701:1 8431:1 8921:1 9429:1 9789:1 10000:1 10487:1 10900:1 11174:3 11705:1 11777:1 11791:1 11915:1 12547:1 13198:1 14147:1 14871:1 16071:1 16735:1 17014:1 17021:3 17204:1 17252:1 18045:1 18592:1 18677:1 18731:1 18863:1 18979:1 
0.76379755415611816 0.83840238594200045 0.19963234055425305 0.38450794355527557 0.12995891441914909 5244:1 6262:1 8608:1 10083:1 10435:1 10972:1 11705:1 11776:1 15616:1 17014:1 17021:1 17092:1 17106:1 
0 0.044941909418181922 0.081767591588349356 0.028364398882076199 0 1502:1 1752:1 2000:1 6049:1 8533:1 8590:1 9523:1 10260:1 11458:1 11705:1 11776:1 11915:1 12783:1 14751:1 15247:1 15705:1 16426:1 17252:1 18675:1 
1 0.92323099337787484 0.23854665268503142 0.63562023288874181 0.14891933892676121 1466:1 2046:2 6636:1 7245:1 7715:2 8921:1 10487:2 11746:1 15206:1 15616:1 17014:1 17252:2 17534:1 17606:1 18675:1 18979:1 
1 1 0.78593852532578368 0.41113819115199102 0.21533695242610251 91:1 6262:1 8956:1 10972:1 12349:1 13496:1 13685:1 16149:1 17001:1 17014:1 18626:1 
0.29575306499021942 1 0 0 0 6052:1 6262:1 7676:1 9235:1 9675:1 11915:1 
0 0.6883267898938219 0 0 0 6262:1 8341:1 9821:1 11007:1 18324:1 
0.002325640100449155 0.50109322896918218 0 0.13155910551387776 0.13622219891343876 1077:1 5881:1 6621:1 7586:1 7846:2 8608:1 9502:1 10382:1 11705:1 13614:1 16442:1 17001:1 17021:1 
0.022687718946804509 0 0 0 0 1077:1 1817:1 2716:1 2835:1 4115:1 4975:1 5829:1 6262:1 6912:1 8341:1 8921:1 9821:1 10357:1 11174:1 11776:1 11844:1 13369:1 13502:1 14518:1 17014:2 17021:1 17056:1 17092:1 18814:1 
1 0 0.84542232611335522 0 0.22003840383971288 524:1 672:1 1077:2 5699:1 6262:2 8305:1 8921:1 8956:1 11705:1 12902:1 13296:1 14599:1 15616:1 17014:1 17021:1 17204:1 17252:1 18545:1 19133:1 
0 0.039059202436677182 0 0.12404406254263464 0 591:1 2331:1 3600:1 3604:1 5650:1 6266:1 8319:1 9235:1 9429:1 11174:1 12491:1 16417:1 17103:1 17252:2 17257:1 19133:1 
0.29494746567070051 0 0 0.1228678987654976 0 672:1 3721:1 4626:1 4881:1 4930:1 6266:1 6437:1 6645:1 7071:1 7854:1 8956:1 9429:1 10487:1 11529:3 13614:1 13686:1 14676:1 14871:1 15779:1 17092:1 17252:2 18660:1 
0 0 0 1 0 411:1 4930:1 6262:1 6692:1 7697:1 9235:1 14863:1 17014:1 17103:1 18250:1 19110:1 
1 1 0.8390169291947166 1 0.623918148444215 4466:1 11458:1 
0.48466016167828474 0.52510100998359732 0.21532983697095051 0.32100272993016082 0 699:1 5522:1 6262:1 7202:1 8921:1 9821:1 11174:1 17252:1 
0.28184833936821058 0.24144611130552901 0.14749621424519554 0 0 693:1 1331:1 7311:1 7942:2 9821:1 11705:2 11915:1 12044:1 15616:1 15698:1 16158:1 17021:1 17310:1 18991:1 
0 0 0 0 0.17309736543656987 1008:1 4626:1 7846:2 8230:1 8321:1 8533:1 10491:1 11007:1 13519:1 15489:1 18660:1 19133:1 
0.31063982019165914 0 0 0.04285288385243724 0 653:1 985:2 1751:1 2443:1 6262:1 8401:1 10535:1 11174:1 11778:1 13927:1 15705:1 17014:1 17252:2 17957:1 18514:1 18863:1 
0 0 0 0.78139403491455572 0 672:1 1077:1 2352:1 5895:1 6262:1 6645:1 7220:1 7985:1 8431:1 8921:1 9665:1 10003:1 11174:1 11535:1 11537:1 12676:1 15616:2 17021:1 17338:1 
0.1905373789131847 0.74459930923074358 0.020888026089001175 0 0 379:1 653:1 985:1 1533:1 4734:1 5655:1 5723:1 6262:1 7695:2 8082:1 9821:1 10487:1 11705:1 11844:1 12482:1 12904:1 13007:1 15698:1 15710:1 15759:1 17092:1 17252:1 
0.091972770511955806 0 0 0 0 91:1 590:1 672:3 1274:1 1743:1 2111:1 2331:1 4930:1 4975:1 5039:1 5845:1 6266:1 6645:1 7338:1 8305:1 9177:1 10902:1 11776:1 13971:1 14879:1 16191:1 16735:1 17021:2 17078:1 17092:1 17252:2 18675:1 18953:1 
1 1 1 1 1 985:1 8431:1 14563:1 
0 0 0 0.39301720975671567 0 218:1 899:1 4115:1 6262:1 6942:1 11844:1 17050:1 
0 0.018233702327277092 0 0 0 646:1 672:1 699:1 2051:1 4626:1 6712:1 7262:1 7523:1 7715:1 8197:1 11458:1 11705:1 11736:1 11904:1 12577:1 14930:1 17076:1 18250:1 18675:1 
0.034725839262118849 0 0 0.15035289285785719 0.018108233784487403 899:1 900:1 1502:1 1925:1 4579:1 6266:1 7664:1 7695:1 7999:1 8431:2 10037:1 10937:1 11705:1 11706:1 11863:1 12384:1 12631:1 14752:1 14819:1 15437:1 17014:1 17021:1 17050:1 18410:1 18677:1 18913:1 
0 1 0 1 0 672:1 6262:1 7826:1 8918:1 
0.22652211117590018 0 0 0 0.072773910311650508 672:1 2719:1 5559:1 5655:1 6262:1 8408:1 9235:1 14863:1 14875:1 17021:1 17252:2 17747:1 18476:1 
0.13803584181742759 0 0 0 0.0083748292332402694 672:1 2008:1 2433:1 3146:1 3226:1 5758:1 6262:1 6272:1 6781:1 8269:1 8431:1 8677:1 11174:2 11590:1 11705:1 16063:1 17021:3 17143:1 18533:1 
0 1 0 0.41020332336282345 0.12738633637752828 2352:1 6262:1 6847:1 8504:1 8956:1 16149:1 
0 0.045177952323660828 0 0 0 653:1 672:1 1764:1 3910:1 5585:1 5833:1 5886:1 9851:1 11201:1 11705:1 13438:1 13473:1 17021:1 17084:1 17416:1 18296:1 18633:1 18660:1 18991:1 
0 0.12968397217269936 0 0.032861611959653703 0 91:1 672:2 1466:1 1965:1 5160:1 6163:1 6266:1 6645:1 6899:1 6990:1 8305:1 8956:1 10175:1 10491:1 11174:2 13662:1 14676:1 15355:1 15705:1 17050:1 18308:1 19029:1 
0 0 0.11734953712166239 0 0 985:1 1274:1 2352:2 3207:1 5411:1 5824:3 6262:1 7071:1 7128:1 8305:1 8363:1 8729:1 9235:1 9732:1 9821:1 10224:1 11290:1 11781:2 11844:1 11915:1 17076:2 17252:1 18110:1 18514:1 
0.17849728955185978 0.30511383142670429 0.34069631494191238 0 0 315:1 389:1 672:1 1524:1 5655:1 6262:1 7664:1 9235:1 9789:1 10972:1 11174:1 11705:1 16738:1 17014:1 19110:1 
0 0.058995649670152292 0 0.077391182332459105 0 672:4 1837:1 2301:1 3260:1 6262:1 6281:1 6809:1 7331:1 7476:1 8321:1 9821:1 9830:1 9866:1 10487:1 11174:1 12528:1 12909:1 13916:1 14900:1 16149:1 17014:1 17028:1 17030:1 17050:2 18050:1 18113:1 18514:2 18731:1 18863:2 18871:1 18979:1 
0 0.16646027127653687 0.11020820964440749 0.0019071056328484805 0 672:1 735:1 1466:1 3235:1 6262:1 9369:1 11705:1 11776:1 12384:1 12510:1 13941:1 15616:1 17028:1 17092:1 17252:1 17603:1 18250:1 18731:1 18863:1 
0 0 0 0.14263631073511462 0 2314:1 6266:1 8341:1 8381:1 8431:1 11174:1 13555:1 13614:1 17057:1 18210:1 18863:1 
1 0 0.26918968320309511 0 0 91:1 207:2 590:1 672:2 899:1 5824:1 6262:2 7446:1 7618:1 8341:1 10972:1 11290:1 12715:1 15616:1 16055:1 16149:1 17014:1 17021:1 17035:1 17078:1 17252:3 18476:1 18545:2 18675:1 18788:1 
0.091154662849253582 0 0 0.099754600547453456 0.089115145078621283 91:1 212:1 748:1 1077:1 3482:1 5655:1 6266:1 7695:1 8341:1 8431:1 8466:1 10905:1 12456:1 13132:1 17021:2 17080:1 17252:2 18514:1 18660:1 
0.12964470004634102 0 0 0 0.19171726392653901 672:1 985:1 2835:1 4629:1 6266:1 6712:1 7120:1 8431:1 11393:1 11915:1 11941:1 12694:1 13971:1 14689:1 17014:1 17021:1 17349:1 18675:1 
0 0.81854264088213391 0.32303135849725612 0 0 672:2 2352:1 2505:1 3317:1 4499:1 4541:1 6266:1 6645:1 7675:1 10058:1 15616:1 15705:1 17583:1 18731:1 
0 0 0.15828361909691524 0.67712540049036518 0 91:1 3819:1 4304:1 6266:1 8341:2 8956:1 18250:1 
0.21656576861714963 0.85315391942225294 0.073714887486361222 0.01028182521671484 0 169:1 590:1 672:1 1498:1 1562:1 1916:1 4078:1 5476:1 6197:1 6266:1 6847:1 7523:1 8431:1 8502:1 11705:2 15062:1 17021:1 18863:1 
0 0 0 1.5355181077006245e-05 0 207:1 524:1 591:1 1013:1 1466:1 2331:1 3317:1 6262:1 11458:1 12094:1 14599:1 17014:1 17021:1 17932:1 18324:1 18979:2 
0.28615287885001356 1 0.053769918159643257 0.27861181358573106 0.0048769956326581501 672:1 2921:1 6262:1 7202:1 7676:1 8341:2 9429:1 9821:1 11529:2 11781:1 11791:1 14987:1 17021:2 17252:1 19147:1 
0.375812180351972 0 0 0 0 91:1 591:1 672:1 2331:1 4987:1 6227:1 6262:1 7618:1 7846:1 11705:1 11844:1 13166:1 14094:1 15616:1 17014:1 17092:1 18979:1 
0.20549728766478176 0.18219569299594182 0.060375699816080715 0.38401495789382561 0 389:1 672:3 783:1 1500:1 1739:1 4930:1 6266:1 6389:1 7607:1 7664:1 7675:1 7715:1 7923:2 8341:1 8921:1 8956:2 9732:1 11170:1 11461:1 11537:1 11646:1 11705:2 11777:1 13086:1 17021:1 17082:2 17252:1 18660:1 18863:1 
0.036352972531518563 0 0.033136400321579683 0.33206446859696825 0 64:1 3023:1 5501:1 6270:1 6899:1 8956:1 9821:1 11564:1 17252:1 19013:1 
0.14500040089594823 0 0.35491610033465071 0.18550205139111642 0 411:1 485:1 524:1 1557:1 1738:1 2331:1 2615:1 3854:1 4879:1 4930:1 6262:1 6313:1 6648:1 7071:1 8431:1 8956:2 9235:1 9824:1 9893:1 9909:1 10037:1 10487:2 11776:1 11781:1 13670:1 14086:1 14599:1 14993:1 15721:1 16735:1 17021:3 17056:1 17092:2 17252:2 18028:1 18660:1 18687:1 18788:1 
0 0.36152591526771982 0 0.31740468513877662 0 904:1 5824:1 6262:2 6503:1 6587:1 9235:1 9369:1 9821:1 11705:1 11915:1 12491:1 13670:1 15192:1 17021:1 17057:1 17092:1 17105:1 17111:3 
1 0.58039331351784462 0.60740941918031555 0.76408070167299469 0.61253909290498076 826:1 6262:1 11564:1 14287:1 
0.17084440893992869 0 0 0 0.1767521925152972 6266:1 7262:1 8956:1 14516:1 17014:1 17252:1 18514:1 
0 0.020381498636296916 0 0 0 91:1 672:2 1136:1 1498:1 2831:1 3309:1 3502:1 6307:1 7715:2 8533:1 10191:1 14571:1 15030:1 17021:1 18687:1 18979:1 
0 0.1688900372111263 0 0 0.14350506481292313 524:1 672:3 899:2 1738:1 2433:1 4957:1 5636:1 6262:1 6809:1 7071:1 7220:1 8956:1 9049:1 9430:1 11174:1 11529:1 11705:1 11844:1 11915:1 12560:1 12909:1 14863:1 15710:1 16087:1 17060:2 18050:1 18660:1 18677:1 
0.03911822312741884 0.11295082940201737 0 0 0 672:1 899:1 928:1 985:1 1077:1 1228:1 1562:1 2336:1 6262:1 7220:1 11529:1 11844:1 13612:1 14599:1 16181:1 16317:1 17014:1 17021:2 17073:1 
0 0.083963253863653026 0.0019751228920007135 0.27675099115982549 0 672:3 4240:1 6266:1 6343:1 6382:1 7705:1 7833:1 8956:3 9675:1 10487:1 11705:1 11941:1 11969:1 15310:1 15616:1 17021:1 17106:1 17252:1 17931:1 
0 0 0 0 0.01323013595490998 284:1 524:1 591:1 672:2 1077:1 3819:1 3822:1 4173:1 5843:1 6262:1 9235:1 9821:1 15440:1 15616:1 17252:2 18476:2 19096:1 
0.20405174570087106 1 0 0.19061929321210586 0.072128533736292674 567:1 1296:1 4930:1 6269:1 8225:1 8305:1 8821:1 9429:1 9625:1 10455:2 11529:1 11921:1 13651:1 17028:2 17252:1 17653:1 18324:1 18687:1 
0.69873856947752744 0.7484968168417393 0.3204166207875237 0.58630223362144107 0 591:1 2844:1 6262:1 7446:1 11174:1 11844:1 15175:1 18769:1 18863:1 
0 0 0 0 0.091837753512461165 653:1 1410:1 2509:1 4495:1 6262:1 6645:1 7363:1 7505:1 7846:1 8431:1 8504:1 8921:1 9498:1 11073:1 11776:1 14827:1 15418:1 16149:1 18005:1 
0 0.87261695919107596 0 0 0.040245747092149516 985:1 1077:1 5039:1 6270:1 7147:1 7715:1 7846:2 8956:1 9429:1 9821:1 10972:1 11795:1 15090:1 15620:1 15917:1 15982:1 16253:1 18660:1 
0 1 0 0 0 672:1 6266:1 8341:1 11564:1 12631:1 14287:1 14552:1 
0.36277623264190784 0.033359139798940125 0.13931402345040644 0 0.048340450309540185 426:1 1228:1 1300:1 1508:1 4050:1 4115:1 6266:2 7071:1 7122:1 7262:2 8956:1 11738:1 18045:1 
1 0.82395279487450757 0 1 0 6266:1 6857:1 8341:1 9561:1 10972:1 11425:1 17001:1 18045:1 
0.087185627442702959 0.086350902444135347 0.07748746716928917 0 0 109:1 1466:1 1643:1 2331:1 2459:1 2529:1 3892:1 4159:1 4975:1 4987:1 5521:1 6262:1 6645:1 7459:1 7822:1 8305:1 8357:1 8921:1 9750:1 11174:1 12114:1 13159:1 14462:1 14631:1 15531:1 15992:1 16475:1 17078:1 17605:1 17819:1 18078:1 18660:1 
0.7772558184290127 1 0.3056636860338221 1 0 81:1 375:1 735:1 1466:1 1500:1 2331:1 6262:1 8341:1 8970:1 9235:1 9821:1 15818:1 17030:1 17252:1 18626:1 18919:1 
0 0 0.37612614128882632 0.46768620875582834 0 672:1 2352:1 2433:1 2505:1 6262:1 9235:1 11179:1 11705:1 15206:1 16091:1 16735:1 17014:1 17030:2 17252:1 18476:1 18863:1 19025:1 
1 1 0.30335320632973856 0.47421713592043097 0.2390367784024251 4761:1 6806:1 7234:1 7523:1 9784:1 10487:1 17252:1 
0 1 0.029916759218771561 0 0 712:1 899:1 2352:1 4951:1 5205:1 6262:1 8134:1 8729:1 8956:1 13203:1 17078:1 17092:1 18550:1 
0.18971079319314241 1 0 0 0 6262:1 6791:1 16253:1 
0.07447875627033422 0.1094304294651444 0 0.010480531108622237 0 355:1 543:1 633:1 672:1 985:1 1136:1 3390:1 6262:1 7438:1 8056:1 10487:1 11174:1 11705:1 11710:1 12677:1 13054:1 13971:1 16426:1 16493:1 17014:1 17021:1 17252:1 18788:1 
0 0.65346350913216378 0 0 0 672:1 1500:1 4783:1 5837:1 6262:1 6762:1 7507:1 9388:1 11367:1 11915:1 17204:1 17603:1 
0 0 0 0 0.061713321928832707 1077:1 6262:1 7262:1 8921:1 10173:1 10900:1 15090:1 16438:1 17014:1 18751:1 
0.18129181661952476 1 0 1 0 4225:1 6266:1 8341:1 9821:1 11844:1 12973:1 14699:1 16253:1 17252:1 18676:1 
0.16999435247663083 0.20000614748001069 0.06776361816927591 0.060320293641392679 0.087677825842620669 568:1 591:1 672:2 818:1 1367:1 1552:1 2331:1 2898:2 4975:1 5636:1 5837:1 6078:1 6266:1 6645:1 7923:1 8956:1 9429:1 9956:1 10487:1 11174:2 13496:1 14631:1 14876:1 14996:1 15616:1 16903:1 17204:1 17252:1 17303:1 18751:1 18863:1 
0.043781323344721491 0 0 0 0 672:1 2402:1 2454:1 3576:1 6262:1 6847:1 7664:1 7846:1 8431:1 8921:1 9429:1 9739:1 10487:1 15090:2 16059:1 17014:1 17092:1 17252:2 17275:1 18545:2 18550:1 18675:1 
0.49005246361763216 0 0 0 0 2505:1 2845:1 5824:1 6262:1 7209:1 7214:1 9049:1 11705:1 12179:1 12963:1 14863:1 16742:1 17028:1 17105:1 18911:1 
0 0 0 0.59347208617604619 0 91:1 591:2 1466:1 5827:1 6266:1 8729:1 9821:1 12240:1 12909:1 15192:1 18677:1 
0 0.14229649230158148 0.13887154382174369 0 0 591:1 985:2 1228:1 1500:1 1524:1 2331:1 4881:1 5824:1 5833:1 5837:1 6171:1 6262:1 7664:1 7846:2 8921:1 9821:2 10806:2 10902:1 10972:1 11084:1 11564:1 15090:2 15616:2 
0 0.25834460789039515 0 0 0.033123021542645702 985:1 7715:2 7923:1 8921:1 10006:1 10260:1 11710:1 12390:1 16901:1 18675:1 
0 0.0084266916212861892 0.13226726226218063 0.0039662256800137912 0 672:1 700:1 1562:1 3456:1 5150:1 5518:1 6266:1 7695:2 8629:1 8675:1 9369:1 9991:1 10487:1 11174:1 11458:1 11705:2 11844:1 12234:1 17014:2 17021:1 17252:1 18660:1 19025:1 19101:1 19133:1 
0.27975437224457272 0 0 0.42291833599401885 0 699:1 2331:1 6262:1 6645:1 11529:1 14571:1 17252:1 18514:2 18660:1 19024:2 
1 0 0 0.29614417562118367 0.072619094102777892 91:1 524:1 1466:1 2331:1 5910:1 6266:1 8341:2 8708:1 8921:1 11174:1 11706:1 12631:1 16540:1 16821:1 17252:1 17257:1 
0 0 0.092707893451666912 0 0 91:1 672:1 741:1 1007:1 2569:1 6270:1 7715:1 7942:1 8918:1 8921:1 8956:1 9317:1 10487:1 11776:2 13166:1 15616:1 16902:1 17021:1 18769:1 
0.28487574151922496 0 0 0 0.10833030627548157 672:1 732:1 5843:1 6262:1 8341:1 11084:2 11646:1 17014:1 17309:1 18675:1 19084:1 
0 1 0 0 0 524:1 6262:1 6645:1 7071:1 13667:1 14516:1 17252:1 17291:1 
0.20713937848752498 0.26347485213445643 0 0 0.20071571305017788 237:1 1965:1 2002:1 2331:1 4626:2 4981:1 6262:1 6645:1 7695:2 8305:1 8956:1 10487:1 11060:1 11179:1 11367:1 11529:2 13656:1 14863:1 15698:1 17014:2 17021:2 17076:1 18979:2 
0 0.25037093567990049 0 0 0 920:1 1552:1 2352:1 2844:1 4713:1 4773:1 4783:1 6262:2 8956:1 9821:1 9928:1 10318:1 11174:2 11290:1 11392:1 11795:1 11844:1 12351:1 13508:1 14863:1 15616:1 16821:1 17014:1 17204:1 17252:1 
0.13035915209251783 0 0.1793760104529479 0.071930477004549201 0 6262:1 7286:1 7363:1 8341:1 10765:1 12904:1 17252:1 19024:1 
0.19107031071270994 0 0 0 0 1466:1 2877:1 3721:1 5100:1 5824:1 6266:1 11710:1 13971:1 15090:1 15616:1 16426:1 17014:1 17075:1 18356:1 18979:1 
0.43937077062528324 1 0 0.037088992351801284 0.069680776909869291 693:1 1274:1 3536:1 5140:1 7846:1 8431:1 9301:1 10263:1 15090:1 17252:1 
0 1 0.13603313809523987 0.25339833280027807 0.0054502415050721861 672:1 907:1 2352:1 5523:1 5611:1 6262:1 7523:1 7695:1 7718:1 8431:1 8918:1 10590:1 11174:1 11367:2 11844:1 12914:1 13656:1 15862:1 17021:2 17030:2 17252:1 18863:1 18979:1 
0 0.27757965208915414 0 0 0 672:2 3605:2 4014:1 6266:1 6281:2 6645:2 7262:1 7676:3 7682:1 7709:1 8431:1 8956:3 9235:2 10972:1 11179:2 11529:1 11705:2 11776:1 11915:2 12290:1 17014:1 17021:1 17035:1 17252:2 17606:1 18022:1 18045:1 18450:1 18514:1 18939:1 18965:1 
0 0 0.00082429982734452461 0 0 3819:1 4958:1 5408:1 6266:1 8141:1 8146:1 8341:1 
0.020807092423739806 0.60839515480039241 0.054257785498200616 0.13706361643502052 0 899:1 985:2 1466:1 1563:2 3505:1 6262:1 7783:1 8168:2 9821:1 11131:1 11278:1 11904:1 12491:1 13391:1 15144:1 15191:1 17252:1 18731:1 
0.96283936820319915 0.50329283051860607 0.25324547879392489 0 0.17330987387086733 330:1 672:1 985:1 1490:1 1524:1 2048:1 2418:1 6645:1 6809:1 7234:1 7523:1 7645:1 7846:3 7951:1 10487:1 11174:1 11705:1 11781:1 13496:1 17252:1 18250:1 
0.16604073037455822 0.20549566429506966 0.22326543607424543 0 0 524:1 672:1 1820:1 2331:1 2459:1 2719:4 3206:1 3822:1 4246:1 6266:1 6389:1 7122:3 7768:1 8341:1 8431:1 8956:1 9739:1 9821:2 10037:3 10487:1 11529:1 11705:3 11781:1 12446:1 17057:1 17124:1 17252:2 19133:5 19141:1 
0.4314999188362299 0.42196297161080903 0.04514670343172187 0.14668707113975185 0.10907542356669635 1466:2 1738:1 2331:1 4179:2 4629:1 4981:1 6266:1 6506:1 6649:1 6847:1 7071:1 8341:2 9675:1 9909:1 10037:1 10972:3 11705:1 11912:1 13919:1 16925:1 17014:1 17252:2 17263:1 18863:2 
0 0 0 0.62343721305469602 0 672:1 6266:1 9369:1 9909:1 11174:1 11705:1 11776:1 12904:1 13712:1 17021:1 18514:2 
0 0 0 1 0 411:1 2352:1 5837:1 6262:1 9379:1 10487:1 11705:2 12196:1 13679:1 16753:1 17021:3 18447:1 
0 0 0.28548518888849927 0 0 91:2 524:1 672:1 1524:1 2352:1 3350:1 4881:1 6262:1 8134:1 8977:1 11705:1 11776:1 12216:1 15616:1 15859:1 17021:3 17204:1 18962:1 
1 1 0.38208965504582476 1 0.62244419410838181 5314:1 8606:1 17021:1 18514:1 
0.26907583657525619 0.11003793822548393 1 0 0 591:4 672:2 899:1 1274:1 2454:1 4287:1 6266:1 6645:2 6809:1 7478:1 7854:1 8004:1 10061:2 11174:2 11705:2 11783:2 12384:1 14553:1 14567:1 14599:1 14676:1 14900:1 15616:1 17006:1 17014:1 17021:3 17050:1 18731:1 
0 0.15219998040299271 0.035641577561335062 0 0 177:1 672:1 4856:1 6262:1 7740:1 10972:1 17252:1 
0 0 0 0.30890894715108397 0.011772303642517318 653:1 672:1 751:1 1008:1 2331:1 2614:1 4930:1 6266:1 6645:1 8381:1 8431:1 9429:1 10732:1 13473:1 18432:1 19133:2 
0.032039843506756149 0.047711038151561198 0 0.0091125183345329257 0.087200724929942991 672:1 2477:1 3146:1 6262:1 8270:1 9988:1 11705:1 14926:1 15335:1 16735:1 17021:2 
1 0 0 0 0 6262:1 8918:1 10972:1 12312:1 17001:1 
0.059202629504461056 0 0.15771469573078853 0.56340275509361903 0 672:1 4008:1 6266:2 8977:1 11705:1 14094:1 14096:1 15862:1 17014:1 17252:1 17606:1 19093:1 
0 0 0.074426870979121207 0.1255404316921217 0.028882366928412402 6266:1 9235:1 12631:1 13325:1 15048:1 15440:1 
0 1 0 0 0 1751:1 6266:1 7675:1 
0 1 0 0 0 2331:1 5650:1 6262:1 6645:1 7071:1 7675:1 7923:1 8970:1 10173:1 10487:1 11529:1 11844:1 15702:1 17252:2 17583:1 
0.032519750655686658 0 0 0 0 1744:1 2433:1 6262:1 6860:1 9960:1 11706:2 12631:1 15616:1 17014:1 17504:1 
0 0 0.064195099746969561 0 0.74250275412544586 6262:1 12631:1 15192:1 
0.25825207496058006 0.56988352752730442 0.18838698781019844 0 0.033755593932025207 91:1 672:2 2002:1 4626:1 5335:1 5580:1 5824:1 6262:1 6343:1 7262:1 7816:1 8956:2 9821:1 11529:1 11776:1 12777:1 17021:1 17092:1 17252:2 18514:1 18520:1 18677:1 18686:1 18731:1 18788:1 18833:1 18863:1 
0.25421410633879832 0.095916882472796616 0 0.16192686088828645 0 672:1 4499:1 4626:1 6262:1 6645:1 7715:1 8431:1 8503:1 9414:1 9808:1 9909:1 10487:1 11174:1 11209:1 11325:1 11504:1 11564:1 15886:1 16354:1 17014:2 18508:1 
0 0 0.28874344653094475 0.3103733154486884 0.17708249796917142 4038:1 6091:1 6270:1 8887:1 8956:1 9429:1 9821:1 17252:1 18660:1 
0 0.18613920080527316 0.011761896827642006 0 0 591:1 672:1 1557:1 6170:1 6262:1 6847:1 11174:1 11559:1 11776:1 17021:1 18250:1 18545:1 18863:1 18939:1 
0.078490165160705352 0 0 0.26455403116301252 0 672:3 899:1 1533:1 4173:1 4538:1 4630:1 4930:2 5626:1 5699:1 5845:1 6119:1 6266:1 8056:1 8421:1 10456:1 11781:1 11912:1 15288:1 15710:1 17092:1 17106:1 17252:2 18170:1 18250:1 18532:1 
0.35747516919913136 0 0 0.050876121248051881 0 672:1 985:1 1562:1 4930:1 6262:1 7076:1 7664:1 7846:1 8305:1 8341:1 8821:1 8873:1 9821:1 10487:1 11084:1 11537:1 11646:1 15708:1 17014:1 17252:2 17309:1 18863:1 
0.63163210634654221 0.43977861224305465 0 0 0 985:1 1500:1 6152:1 6266:1 7608:1 11705:1 13712:1 17252:1 18095:1 18514:2 18660:1 
0.1050190282959492 0.29325441268624181 0 0.19708863807186922 0 227:1 524:1 672:3 1296:1 1466:1 1500:1 1572:1 2331:1 2352:1 4094:1 4975:2 6266:1 6427:1 7071:1 8004:1 8431:1 8921:1 10319:1 11016:1 11174:1 11291:1 13686:1 15710:1 16194:1 16317:1 17014:1 17021:1 17078:1 17143:1 17252:2 18448:1 18450:1 18478:1 18514:1 18533:1 
0 0 0 0.22882205606040321 0 91:1 1440:1 6262:1 7220:1 8431:1 14476:1 15090:1 17021:1 17050:1 17252:1 18675:1 
0.035797890878660907 0.030333081118207681 0.13565154883040625 0.94949516409383339 0.023234830512973214 1500:1 1760:1 3967:1 4975:1 5300:1 5411:1 6262:1 7701:1 9429:1 9928:1 11705:1 12196:1 14267:1 15090:1 17021:2 17078:1 17252:2 17338:1 18476:1 
0.0304044149816157 0.79192032194122919 0 1 0.22951892953478761 672:1 1077:1 1500:1 6262:1 8341:1 8695:1 9116:1 11736:1 13086:1 16274:1 17021:1 17338:1 18689:1 18939:2 
1 0.61761008516621585 0.35078676571312412 0.66884607137750129 0.32137055023051792 591:1 826:1 6266:1 19018:1 
0 0.79702938342251961 0 0.26348050557137787 0 389:1 672:1 1077:1 2331:1 3721:1 3751:1 4930:1 4957:1 4981:1 6262:1 7676:1 7696:1 8431:1 8956:4 9821:1 11564:1 12658:1 18514:1 18675:1 18677:1 18852:1 19093:1 
0 0 0 0 0.22611105458479419 2352:1 5845:1 6262:1 8918:1 
0 0 0 0.025785073052130944 0.063896983725641773 348:1 1466:1 2331:1 2352:1 4653:1 6266:1 8134:1 10487:1 11705:1 12491:1 15243:1 17021:1 17080:1 17106:1 18919:1 19133:1 19142:1 
0.33725216761565108 0.20981992945361533 0 0.13094109364609846 0 672:2 4115:1 6266:1 6354:1 7816:1 8326:1 8341:1 8969:1 9235:1 10487:1 11915:1 16735:1 17021:1 18677:1 19013:1 
0.97461631569920992 1 0.31317195006713477 0 0.041452907865810157 672:1 1743:1 3317:1 6266:1 8341:1 9235:1 11705:1 17235:1 18973:1 
0.53520856979756992 0.74892416448527299 0.21570671149982873 0.43249218949080032 0.099930924233357643 591:1 733:1 8686:1 9082:1 12953:1 15698:1 18863:1 
0 0.014765409330686232 0 0 0 415:1 1500:1 1524:1 1738:1 2331:1 4154:1 4953:1 6262:1 7715:1 7923:1 9049:1 9988:1 10487:1 17204:1 17252:1 17606:1 18476:1 
0 1 0.072688023526583587 0 0 672:1 735:1 5077:1 6266:1 8341:1 11705:1 17235:1 
0.048105888442535674 0 0 0 0.31196076142433304 672:1 1008:1 1077:1 1509:1 2712:1 4211:1 4783:1 6266:1 13971:1 17021:1 17252:1 17253:1 18514:1 18863:1 
1 1 0.58345551459232059 1 1 366:1 11529:1 17021:1 18514:1 18901:1 
0.0026444205900585569 0 0.11808943783807792 0.11947587448385207 0 1500:1 1751:1 2980:2 6262:1 8431:2 9235:1 9821:1 12384:1 15090:1 17060:1 17379:1 18065:2 18514:1 18636:2 18731:1 
1 1 0.59155727147112624 0.0081152066222111956 0.16993111714627004 4951:1 6262:1 6270:1 7715:1 7923:1 8134:1 8921:1 8956:1 9235:1 11646:1 14863:1 15710:1 17014:1 17252:1 18476:1 18675:1 
0.12788734588116565 0 0 0.31693909393119596 0 1562:1 6262:1 7008:1 8305:1 8341:1 9235:1 9821:1 10228:1 11174:1 12384:1 14900:1 14930:1 17014:1 17078:1 18863:1 
0.63492870987571992 1 1 0 0 4783:1 4930:1 6262:1 6266:1 6645:1 11179:1 15616:1 17021:1 18545:1 18863:1 
0.51136152333500029 1 0 0 0 5580:1 6266:1 7262:1 7676:1 10487:1 11776:1 11904:1 12446:1 17014:1 17021:3 
0 0.022417287478338561 0.038954947134469703 0 0 91:1 672:1 693:1 722:1 985:2 2569:1 2681:1 3169:1 3725:1 4930:2 5332:1 6262:2 8970:1 9369:1 9821:1 11003:1 11705:2 11844:1 11940:1 11941:1 12384:1 13686:1 14744:1 16404:1 17014:2 17021:2 17028:2 17060:1 17078:1 17233:1 18296:1 18686:1 
1 0 0 0.19763121213874982 0 91:1 590:1 3332:1 6262:1 6829:1 9049:1 11003:1 13723:1 15698:1 16338:1 17060:1 17076:1 17252:2 18102:1 18157:1 
0 0.79524070401581481 0 0 0 91:1 672:2 1500:1 5843:1 6262:1 7676:1 10487:4 11791:1 12643:1 13674:1 14677:1 15710:1 16056:1 16753:1 17060:1 17076:1 17252:3 18478:1 18514:2 18675:1 19024:1 
0 0 0.33228403149336494 0 0 401:1 653:1 672:2 1008:1 1136:1 1466:1 4930:1 4951:2 5837:1 6262:1 6645:2 8921:1 8956:1 9821:1 10487:1 11781:2 11791:1 17021:1 17252:1 18731:1 18863:1 
0 0 0 0.10559247395864745 0 672:1 2433:1 2680:1 4930:1 6266:1 7695:1 8341:1 9821:1 9991:1 11458:1 12673:1 14516:1 15192:1 16480:1 17014:1 17076:1 17092:1 
0.29967094193844257 0 0.55835347627131349 0.11243075691416002 0 4115:1 5683:1 6262:1 8921:1 10972:1 
0.53364552861829617 1 0 0 0 699:1 4160:1 6266:1 7822:1 8921:1 11174:1 15090:1 18675:1 
0 0 0 0.7601121006524526 0 411:1 3721:1 6262:1 6272:1 7076:1 7262:1 10650:1 11174:1 11777:1 12291:1 17021:1 17252:1 
0.20948685208727519 0 0.26873861478326838 0 0 591:1 1466:1 4930:1 6114:1 6262:1 8105:1 9235:1 9821:1 11400:1 11529:1 11905:1 17014:1 17030:1 17252:2 17378:1 
0 0.50821621927670957 0 0.1742227937898494 0.0061878856572776626 558:1 2331:1 5824:1 5831:1 6270:1 7363:1 8326:1 8349:1 10487:1 10672:1 10691:1 17014:1 17021:1 17252:2 
0.57143437298451216 1 0.1692798587562668 0.42038224398340479 0 672:2 782:1 1208:1 1913:1 3060:1 4629:1 6806:1 7117:1 7523:1 7695:1 7715:1 8814:1 10487:2 10972:1 13912:1 16056:1 16753:1 17252:3 18250:2 18476:1 18675:1 18739:1 18863:1 
0.28233405321324362 0.26110501946262027 0 0 0 421:1 782:1 1274:1 1296:1 1524:1 2877:1 3213:1 4707:1 4952:1 4981:1 5833:1 5837:3 6091:1 6270:1 6672:1 7695:1 8431:3 9789:1 9821:1 11174:2 11844:1 12838:1 14791:1 15090:3 15324:1 15698:1 17014:3 17075:2 17204:1 18193:1 18545:1 18550:1 18863:1 19025:1 
0 0.19537904425828637 0 0.043466988285163197 0 555:1 672:1 1077:1 1480:1 2459:1 6262:1 8956:1 9049:1 10000:1 15358:1 15616:2 17014:1 17028:1 
0.15932898871035284 0 0.19205036416331286 0 0.16974534364619503 672:2 2433:1 3721:1 5699:1 6262:2 8778:1 9301:1 12914:1 13875:1 17014:2 17028:1 17060:1 17092:1 17252:1 18545:1 18852:1 
0.29393791929921748 0.14331094648625137 0.092723747428403391 0.31737960057933334 0 653:1 672:1 934:1 985:1 1509:1 1533:2 2459:1 2980:2 4105:1 4112:1 4646:1 5273:1 5300:2 5403:1 5783:1 6262:1 6645:2 6872:1 7071:3 7076:1 7695:1 8004:1 8118:1 8276:1 8305:1 8341:1 8925:1 10101:1 10228:1 10487:1 11443:1 15347:1 15440:1 16924:1 17021:1 17035:1 17252:4 17603:1 17956:1 18045:1 18304:1 18675:1 
0 0 0 0.21723896253502697 0 1466:1 2352:1 4981:1 6266:1 6389:1 7202:1 7209:1 7830:1 8381:1 8431:1 8956:1 9739:2 10732:1 11174:1 11529:2 11705:1 11844:1 12205:1 14677:1 14899:1 17204:2 17252:1 18675:1 18788:2 19141:1 
1 1 0 1 0.0179082958358916 1466:1 3629:1 7523:1 11174:1 12179:1 13460:1 14287:1 17252:1 18514:1 18863:1 
0 0 0 0.015380499970222127 0.021034869667739584 672:2 1246:1 4325:1 5626:1 5767:1 6220:1 6709:1 6899:1 7233:1 7523:1 7749:1 8325:1 9520:1 10344:1 10566:1 11323:1 11904:1 12061:1 12502:1 13015:1 13787:1 14419:1 14897:1 17014:1 17021:2 17060:1 18636:1 18675:1 
0 0 0 1 0 411:1 6262:1 15616:1 16149:1 
0 0.050337570749396321 0 1 0 91:1 735:1 5845:1 6266:1 9235:1 15616:1 18514:1 
0.50840542189204529 0.6587976773323001 0.565344564482818 0.41515585672499178 0.077633897775592431 789:1 985:2 1533:1 2331:1 4629:2 4957:1 6262:2 9821:1 11646:1 16474:1 18675:1 
0.49156644709151598 1 0 0.04189711435163028 0 389:1 672:1 1274:2 1466:2 2352:1 2459:1 3721:1 5411:1 5527:2 5650:1 5756:1 6262:1 6266:1 7695:2 7854:1 7894:1 8305:1 9821:1 9988:1 11174:3 11844:1 11915:1 12384:1 14564:1 14738:1 15616:1 16253:1 16531:1 17014:2 17021:1 18129:1 18514:1 18871:1 18939:1 18979:3 
0.18013059545266466 0 0 0 0.055201014196886909 91:1 653:1 909:1 2402:1 4037:1 7942:1 8887:1 10661:1 16107:1 17252:1 17606:1 18010:1 18514:2 18731:1 
0 0.032860600889257401 0 0 0.0037032049183190292 899:1 4115:1 6262:1 7770:1 11912:1 16961:1 17487:1 
0 0.0028021936040188173 0 0 0 672:1 2394:1 2896:1 2898:1 2921:1 4732:1 5824:1 6102:1 6262:1 7267:1 7696:1 8381:1 8970:1 10290:1 10315:1 11705:2 11969:1 15460:1 17014:1 17021:3 18688:1 18863:1 19110:1 
1 0 0 0.048671509601692156 0 653:1 672:1 735:1 899:1 1077:1 1466:2 3721:1 5837:1 6262:1 6281:1 8504:1 9317:1 9821:1 11529:1 11594:1 13423:1 13686:1 14677:1 15461:1 16295:3 17021:1 17075:1 17076:1 17204:1 18731:1 18901:1 19133:1 
0.55584211603915357 0 0 0 0.28669495123663802 789:1 6262:1 8305:1 8956:1 9235:1 10000:1 10228:1 10487:1 12491:1 14676:1 
0 0.091426547506093137 0 0 0 1466:1 1524:1 2002:1 2459:1 6266:1 7695:1 7715:1 7923:1 9821:1 10487:1 13686:1 17014:1 17275:1 18863:1 
0 0.082569037324349129 0 0.18943912493160192 0.036148219703597405 672:1 2074:1 3226:1 5885:1 6193:1 6839:1 7523:2 7715:2 7846:1 9414:1 11529:1 14877:1 15079:1 15090:2 15616:1 17014:1 17252:1 18514:1 18863:1 
0 0 0 1 0 411:1 6262:1 9909:1 11564:1 11791:1 14287:1 
0 1 0.185177285240894 0.31144426666545999 0.099905308716394858 672:1 899:1 1648:1 6266:1 8225:1 10173:1 13686:1 19133:1 
0 0.02874464514728484 0 0.039732704780626064 0 591:1 672:2 2416:1 3130:1 6266:1 7695:1 11705:1 11706:1 11710:1 12290:1 13979:1 14317:1 17014:1 17030:1 17060:1 18871:1 19078:1 19158:1 
0.32327960776957965 0.12596019007266732 0 0 0.039405293823245917 672:1 1466:1 3340:1 6078:1 6262:1 7770:1 10730:1 11529:1 11710:1 12973:1 13656:1 17014:4 17021:3 17092:3 18788:1 
0 0 0 0.31586829731900035 0 672:4 817:1 1837:1 2352:1 2847:1 6270:1 6829:1 6859:1 7116:1 7715:1 7846:1 7901:1 8305:1 8729:1 9414:1 9821:1 10487:1 11710:1 13086:1 14678:1 14738:1 15758:1 17014:2 17021:2 17119:1 17252:1 18979:1 19029:1 
1 0.92443436379923172 0.2730570175162324 0.46796030391490212 0.17703284527340779 734:1 6712:1 7356:1 9048:1 11174:1 11179:1 17252:1 
0.48182284787599106 0 0 0 0 3819:1 6266:1 7220:1 8341:2 9781:1 11529:1 17252:1 
0 0.1078029761904144 0 0.18911231554340421 0 4115:1 6262:1 8431:1 8853:1 8921:1 8956:1 10350:1 16426:1 17252:1 17309:1 
1 1 0.1463728321993728 0.9491088394342696 0.29244598554922291 379:1 2278:1 4940:1 9230:1 14198:1 17030:1 17252:1 18675:1 18939:1 
0.27743466034270131 0 0 0 0.037401375419468912 2002:1 2331:1 6262:1 15090:1 15192:1 15967:1 17014:1 18514:1 18520:1 
1 0.68547710196491318 0.31097931177692767 0.6818639164800635 0.068022701678518274 389:1 672:1 3951:1 4499:1 6262:2 8921:1 10487:1 11795:1 15616:1 17092:1 18953:1 
0.22166861542484839 1 0 0.67573742831131667 0 1296:1 4173:1 6266:1 7701:1 8341:1 11844:2 14501:1 16253:1 16735:1 18447:1 
0.073551600566151759 0.77413542742947095 0.17414767662103259 0 0 1524:1 2331:1 2459:1 3721:1 6262:1 6266:1 6829:1 7523:1 7525:1 7695:1 7822:1 8305:1 11564:1 14900:1 15105:1 15616:1 17014:1 17035:1 17092:1 18545:1 19133:1 
0 0 0.19755938738381565 0.015874088333000542 0 672:1 6266:1 8381:1 12594:1 17310:1 18514:1 
0.58110958515807143 0.75506144089707872 0.26425361840807565 0.035094249882865108 0 91:1 1562:1 5833:1 6262:1 9821:2 11152:1 11174:1 11915:1 13367:1 15593:1 16812:1 17252:1 18675:1 
1 1 0.50405979266551659 1 0.3661677597799961 3794:1 6270:1 8230:1 11174:1 16149:1 18250:1 
0.037027187906198029 0 0.015951843103918416 0 0 1077:1 6067:1 6262:1 11174:1 15648:1 17628:1 18324:1 
0.42876137577482276 0.42674999482236109 0 0.14608749342977023 0 1500:1 2980:1 5625:1 6266:1 8341:2 8921:1 11174:1 11564:1 13086:1 13712:1 14287:1 17092:1 19018:1 
0 0 0.03204168233325342 0 0 524:1 672:2 4179:1 4957:1 6262:1 7076:1 11529:1 11537:1 11776:1 13712:1 15210:1 15461:1 16165:1 16925:1 17103:1 17252:1 
1 1 0 0 0.081074490317370407 6262:1 8504:1 11564:1 14287:1 14631:1 
0.060147056860176268 1 0.032905780152630154 0.35692145890837224 0.037390109733347367 672:1 2737:1 6262:1 6645:1 7676:1 7846:1 8121:1 8431:1 11003:1 11174:1 11301:1 11425:1 11705:1 12094:1 13961:1 17021:1 17820:1 
0.48153566662191244 0.33324245843745437 0.0076741245851706906 0.18314924924406137 0 1502:1 5884:1 7523:1 10711:1 11458:1 16507:1 18909:1 
0.3363612684369352 0.1639880247842691 0.070559800875277537 0.20415766091401089 0.049711558969653943 5885:1 8206:1 8431:1 8892:1 18045:1 
0 0.051592822806095624 0 0 0 672:2 1077:1 1502:1 4864:1 4930:1 5886:1 6115:1 7715:1 8134:1 8305:1 8821:1 10487:2 11705:1 11915:1 14515:1 15202:1 15616:1 16055:1 16353:1 16857:1 16902:1 17021:1 17252:1 18514:1 18683:1 18979:2 
0.46387294746306812 0.12053015449840966 0 0 0 559:1 2330:1 6262:1 11179:1 11529:1 11844:2 11905:1 14516:1 17014:1 17092:1 17252:1 17603:1 18788:1 18863:2 
0.18302738633790006 0.11489953457056586 0 0.16687030279915022 0.02984649002749374 1274:1 1708:1 4626:1 6262:1 8105:1 8921:1 8971:1 9383:1 9429:1 10497:1 11038:1 11262:1 11844:1 17014:1 17021:1 19133:1 
0.54064940214536439 0.70693538924824262 0.14961175804304372 0.33620336183087451 0.26208853045024783 5738:1 6640:1 7846:1 8431:1 16032:1 18259:1 
0.71012855748552794 0 0 0 0 672:1 4202:1 4930:1 5650:1 6102:1 6266:1 7523:1 8248:1 8341:2 8915:1 8956:1 11529:1 13086:1 15440:1 16550:1 17014:1 17021:1 17252:1 18863:2 
0 0 0.056074448677853571 0 0.0082765681134312243 591:1 6262:1 9049:1 16059:1 17078:1 17252:1 
0.43196744798628195 0 0 0 0.069624536522720104 672:1 1077:1 1466:1 2331:1 2433:1 6262:1 7220:1 8317:1 9301:1 14599:1 15616:1 16317:1 17014:1 17021:1 17204:1 17252:1 17606:1 
0 0.96360349315862603 0 0.62447451898047757 0.10196835048222712 1738:1 6262:1 7423:1 9235:1 
0 1 0 0 0 591:1 1777:1 2331:2 6266:1 7695:1 9909:1 11179:1 11458:1 11537:1 11781:1 11844:1 14976:1 16253:1 17252:1 
1 1 0.15468446322394819 0.82764176059219063 0.28537687324569216 91:1 1900:1 3070:1 7846:1 9893:1 11174:1 11373:1 14407:1 17252:1 
0 0 0 0.76283445942669614 0.18446350630507108 401:1 6262:1 15616:1 17252:1 19024:1 
0.36115142901386482 0.4628928487815166 0.058686165269608015 0.238458448151534 0.061331265952022117 672:1 985:1 1585:1 4674:2 6262:1 8209:1 8431:1 8921:1 11458:1 11705:1 14528:1 14662:1 15263:1 15773:1 17021:1 17315:1 18675:1 
1 0.67111478168997796 0 0.47360494030949524 0.026208382953217146 693:1 1655:1 3605:1 4090:1 4626:1 7715:1 7942:1 8956:1 9841:1 10224:1 11458:1 11537:1 11705:1 13079:1 17021:1 17252:1 
0 0.21395219257461739 0.088171317033353458 0 0 591:1 653:1 672:1 904:1 1296:1 2331:1 3060:1 6262:1 6266:1 6645:1 6809:1 7595:1 7695:1 8918:1 9821:1 9909:1 10948:1 11174:1 11785:1 13699:1 15698:1 17103:1 18863:1 19104:1 
0 1 0 0 0 2352:1 6262:1 7676:1 9104:1 10370:1 
0 0 0 1 0 1228:1 1263:1 1562:1 6262:1 6829:1 11174:1 17338:1 
0.48115238731887933 1 0 0.46976427781643282 0 524:1 1077:1 1500:1 2331:1 3206:2 3819:1 4628:1 6193:1 6262:1 8921:1 8956:2 11844:1 16539:1 17014:2 17078:1 17257:1 18979:2 
0.19725943106205834 0 0 0 0 153:1 672:2 5699:1 6262:1 7695:1 8484:1 10487:1 10972:1 11084:1 12384:1 14863:1 15616:1 17001:1 18731:1 
0.87625920684901093 0.97932712418894907 0.088439319319470022 0.38125678386912165 0.057307866599951005 3721:1 7695:1 8956:1 9720:1 10487:1 12282:1 12338:1 14571:1 17252:1 19133:1 
0.025543242578569884 0 0 0 0 672:3 985:1 1876:1 3146:1 3721:1 6100:1 6262:1 6479:1 7377:1 8921:1 11518:1 13496:1 14405:1 16456:1 17021:1 17297:1 18492:1 18863:1 
0.56935434936887408 0 0.15874185614750785 0.020199482573343662 0 789:1 826:1 1077:1 1466:1 4987:1 6262:1 9643:1 9821:1 9886:1 10224:1 10806:1 11290:1 15616:1 17014:1 17021:1 17106:1 17252:1 18979:1 
0 0 0 0.29113470272685577 0 2331:1 2433:1 4003:1 6262:1 7071:1 7580:1 8915:1 9821:2 10037:1 11174:1 11969:1 14506:1 17078:1 17252:1 18675:1 
0 0 0 1 0 91:1 411:1 6262:1 8956:1 
0.11373438019986294 0.68277423713125784 0.054989174987327583 0.15326765257975716 0 672:1 1129:1 5258:1 6266:1 6847:1 7715:1 10972:2 14992:1 18514:1 18863:1 
0 0 0 0.055067883107472564 0 567:1 672:2 1274:1 1500:1 1738:1 2572:1 3734:1 3836:1 4037:1 4628:1 6266:1 8431:2 9851:1 10923:1 11174:1 11392:2 12210:1 12446:1 14306:1 14516:1 16735:1 17021:6 17204:1 17252:1 18045:2 18514:2 18545:1 18863:1 
0.15930678030933546 0 0.21570321619773083 0.041215364505845356 0 782:1 899:1 2986:1 4826:1 6262:1 8105:1 8431:1 8742:1 9235:1 9821:1 11705:2 14148:1 15646:1 16327:1 17014:1 17021:2 17092:1 17379:1 18250:1 
0.15665082159814564 0.073927507963920794 0 0 0 384:1 672:1 1314:1 1464:1 2593:1 2875:1 4353:1 4930:1 5905:1 6262:1 6829:1 7071:2 7200:2 7363:1 8341:1 8431:1 9821:1 10091:1 10487:1 11174:1 12575:1 16769:1 17252:1 17616:1 18045:1 19081:1 19191:1 
0 0 0 1 0.81777005427247695 411:1 415:1 672:2 6262:1 6313:1 6645:1 6847:1 7325:1 8921:1 10228:1 10487:1 13686:2 17310:1 18595:1 18615:1 
0.23079712589447116 0.18335554189489975 0 0 0.13213614302411336 204:1 693:1 2331:1 3761:1 7277:1 7715:1 10369:1 11705:1 17021:2 17252:1 17967:1 18514:2 
0 0 0 0.7657670579029795 0.42018353361309985 672:1 1466:1 1572:1 2151:1 3482:1 6266:1 6389:1 6624:1 7748:1 11174:1 11179:1 11694:1 11710:1 11736:1 11906:1 12384:2 14331:1 14899:1 16226:1 16516:1 17252:1 18660:1 18675:1 18731:1 
0.44507531437545711 0 0 0 0 1562:1 4115:1 6262:1 8168:1 9821:1 11564:1 14287:1 18250:2 
0.10545021316798567 0.51004568373231529 0 0 0.013642966935914836 280:1 1466:1 1916:1 2586:1 4685:1 6262:1 6270:1 6829:1 7695:2 8717:1 8918:1 8921:1 8956:1 9235:1 9669:1 9821:1 10405:1 10808:1 11174:1 11299:1 11367:1 11915:1 12223:1 14148:1 17021:1 17252:3 18045:1 
1 0.64034488946054713 0.57691295070314064 0.049808260632313132 0 694:1 1500:1 6262:2 8956:1 9763:1 9821:1 10228:1 10487:1 11705:1 15715:1 
0 0.43538456850640272 0.14707235796427864 0 0 1104:1 1751:1 4987:1 6262:1 7675:1 8034:1 9235:1 15616:1 17379:1 19133:2 
0.053186523297849321 0 0 0.82175044236242512 0.070846556944383923 91:1 826:1 899:1 6266:1 7071:1 8956:1 9909:1 11705:1 14148:1 17014:1 17021:2 19067:1 
0.56773879117316584 0.24097616973158686 0.14217721036812628 0.13130737686024507 0.086274118451387147 91:1 211:1 524:1 672:2 699:1 899:1 1466:1 2459:1 3373:1 3504:1 5961:1 6262:1 6266:1 7745:1 8401:1 8431:1 8639:1 8921:1 11705:1 11736:1 11844:1 11969:1 16071:1 16742:1 17021:2 18045:1 18689:1 18975:1 18983:2 
0.046716874816088209 0.0057560449211026057 0 0.24927790171566488 0 91:1 524:1 653:1 1466:1 1500:1 2555:1 6269:1 8341:1 8821:1 9429:1 11174:1 11667:1 11705:2 11776:1 12044:1 13024:1 14018:1 17014:1 17030:1 17092:2 17319:1 17338:1 18532:1 
1 1 1 0 0.24434065986336848 672:1 1228:1 7206:1 7715:2 7942:1 8956:1 9675:1 10061:1 10487:1 11284:1 12446:1 13644:1 17014:1 17252:1 18521:1 18633:1 
0 0 0 1 0.049211906686621051 411:1 1077:1 3226:1 4173:1 6266:1 10983:1 17021:1 17092:1 18045:1 18250:1 18897:1 
0.1649744039089884 0.94847722231140319 0 0 0 81:1 591:1 1524:1 3819:1 6266:1 6645:1 7697:1 8431:1 9742:1 13686:1 14501:1 15616:1 15981:1 17252:1 17692:1 18595:1 
0.83047477507553713 0.92564334280278637 0.23662867878615229 0.58882494566516941 0.20454530855349992 672:1 3034:1 6091:1 6479:1 7097:1 8431:1 8921:1 10972:1 11174:2 11969:1 12044:1 15869:1 18660:1 
0.54664744846608526 0 0 0.70335113023228624 0 411:1 789:1 2331:1 6262:1 6645:1 7695:2 8956:2 9429:1 9732:1 10175:1 10487:1 10903:1 15693:1 16550:2 17014:1 18979:1 18980:1 
1 0.22156497609746259 0.14860309106725697 0.073470919185198949 0 672:1 6266:1 7234:1 8431:1 10948:1 11766:1 17014:1 17275:1 18324:1 18514:1 18521:1 
0 0.2240759813607282 0 0 0 4783:1 6266:1 9301:1 11179:1 15616:1 18863:1 
0.080144245165066172 0.10999706588170004 0 0 0 840:1 899:1 1077:1 2331:1 5264:1 6262:1 7695:1 8990:1 9821:1 11003:1 12777:1 16317:1 16850:1 16956:1 17021:1 17092:1 18979:1 
0 0 0 0.35121840007630273 0 555:1 985:1 1274:1 3206:1 6262:1 9663:1 14571:1 16317:1 17014:1 17252:1 17309:1 18514:1 
0.026672780411252123 0.083937201738777056 0 0.24214489494903374 0 363:1 569:2 653:1 1077:1 2331:1 4642:1 6152:1 6262:1 7715:1 7901:2 8004:1 8121:1 8431:1 8921:1 9921:1 10357:1 10487:1 10594:1 11705:1 11861:1 13100:2 13686:1 14514:1 14707:1 15616:1 17014:1 17021:4 17252:1 19025:1 
1 1 0.84533720873437812 1 0 7428:1 11705:1 11776:1 11915:1 12384:1 18592:1 18863:1 
0 0.079106256443214146 0 0 0 390:1 786:1 899:1 1117:1 1500:1 2426:1 4975:1 5396:1 6262:1 6335:1 6829:1 6847:1 9429:1 10515:1 10972:2 11776:1 14287:1 17014:1 17021:4 17060:1 17393:1 18095:2 18550:2 
0 0.064742773660037722 0 0.069227593186716715 0 524:1 672:1 1562:1 2331:1 5822:1 6262:1 7071:1 8956:1 10228:1 10487:1 11373:1 11776:1 13712:1 17802:1 19093:1 
0.025156390737184429 0.16659907623278472 0 0.23238013156669779 0.088511526889353334 524:1 2002:1 2352:1 4449:1 4975:1 6262:1 9982:1 11518:1 13686:1 17014:1 17021:1 
0 0 0 0.060236879798861089 0 81:1 672:1 3367:1 6266:1 8341:1 11174:1 12882:1 13820:1 14516:1 17252:1 18871:1 
0.15429536280936637 0.33651015083587044 0 0.26309442226996493 0.020278248471765688 555:1 567:1 672:1 2440:1 6262:1 6645:1 8260:1 8381:1 9561:1 10945:1 15006:1 17625:1 18432:1 19085:1 
0 1 0 0 0 590:1 699:1 1077:1 2731:1 4520:1 4713:1 4930:2 5552:1 6262:1 6856:1 8134:1 8341:1 9235:1 10173:1 11179:1 14552:1 15142:1 17257:1 18045:1 18751:1 
0.61783940955502381 0.37274283310841755 0 0 0.030740555655974205 672:1 734:1 6712:1 7395:1 7715:1 7942:2 16837:1 17014:1 17252:1 18514:1 
0 1 0 0 0 91:1 672:1 985:1 1466:1 6262:1 7209:1 7676:1 8305:1 9317:1 13484:1 15616:1 17252:1 18102:1 18661:1 18979:1 
0 1 0 0 0 1077:1 2331:1 6262:2 9986:1 14900:1 15616:1 17080:1 17092:1 17209:1 18545:1 
0.50045970181966482 0.93458667733669953 0 0.35157650975241939 0.2119555446821256 401:1 591:1 4021:1 6266:1 18250:1 
0 0.12838865150685819 0.014624772530283622 0.018977986420172514 0.0038045005564830343 653:1 812:1 1077:1 2441:1 2744:1 4189:1 5809:1 7102:1 7718:1 8921:1 9161:1 10333:1 10686:1 11723:1 12181:1 12190:1 12363:1 13063:1 13244:1 14360:1 14727:1 16191:1 18344:1 18731:1 
0 1 0 1 0 411:1 672:1 6262:1 10036:1 11705:1 15759:1 18250:1 
1 1 0.0025841160666279597 1 0.533931925775464 227:1 3146:1 6266:1 8341:1 13496:1 
1 0 0 0 0.036655119559302854 591:1 672:1 899:1 985:1 3854:1 4479:1 6102:1 6262:1 6645:1 10315:1 11529:1 11705:1 11905:1 12631:1 15616:1 16747:1 17014:2 17021:1 
1 1 1 0 0 591:1 672:1 1500:1 1562:1 5843:1 6262:1 6266:1 7675:1 8105:1 8341:1 8921:1 8970:1 9821:1 10036:1 10487:1 16550:1 17014:1 17378:1 18675:1 
0 0.12628433944044129 0.10079530612878096 0.2856339948559064 0.13166014151556368 985:2 2421:1 2459:1 3721:1 6266:1 6389:1 7607:1 7822:1 8956:1 9821:1 11706:1 11776:1 15710:1 15731:1 17021:1 17654:1 18324:1 18852:1 19149:1 
0 0.20492613884003866 0 0.037852610869870879 0 91:1 590:1 1296:1 1738:1 2331:1 2889:1 4881:1 6014:1 6270:1 6281:1 6829:1 8956:1 9360:1 9821:1 15300:1 17014:1 
1 0.68552608088025546 0.082785164498528352 0 0 1730:1 1751:1 4173:1 6102:1 6168:1 6266:1 7523:1 8431:1 11174:1 11776:1 12205:1 18521:1 
0.60086420309811861 0 0.089553998141891605 0.16726881460463147 0.005294132183476353 81:1 471:1 524:1 672:2 985:2 1524:1 3350:1 6262:1 6266:1 6270:1 7696:1 8915:1 9821:1 11174:1 11915:1 15041:1 15791:1 16557:1 17021:1 17092:1 17204:1 17252:1 18028:1 18514:1 18626:1 
0.48183958511575403 1 0 0.63315878732569908 0.16512301611690627 1077:2 3770:1 6809:1 7523:1 7749:1 11174:2 12658:1 15201:1 15345:1 17014:1 17028:1 18675:1 
0 0 0 0 0.0081839928033854772 524:1 6262:1 8956:1 9889:1 13712:1 17252:1 
0 0.5475681255485505 0 0 0.2157212038783568 672:1 1524:1 4179:1 5271:1 6092:1 6266:1 6313:1 7446:1 8977:1 9909:1 11174:1 11705:1 11776:1 11915:1 12084:1 12240:1 12906:1 15763:1 17021:1 17092:1 18590:1 
0.81580717205933451 0.87567662849806727 0.38392825372947387 0 0 2847:1 3146:1 6262:1 10902:1 11705:1 17021:1 17092:1 18250:1 19013:1 
0 0 0.0094711040965683099 0.041933754970585269 0 524:1 1466:1 1500:1 5699:1 6266:1 7220:1 7695:1 8341:1 11179:1 11705:1 11781:1 13686:1 14976:1 17092:1 17252:2 18476:1 18733:1 18833:1 
0.11067792965693109 0 0 0 0 591:1 672:2 1274:2 1562:1 2433:1 3871:1 4951:1 6262:1 6924:1 8956:1 9739:1 11705:1 11776:1 12631:1 14863:1 15698:1 17014:2 17021:1 17897:1 18193:1 18606:1 18660:1 
0 0 0 0 0.053449310390191608 401:1 1136:1 2579:1 6262:1 9235:1 11705:2 14148:1 17021:3 17972:1 18113:1 18863:1 
0 0 0.1777766230816285 0 0 1228:1 1969:1 2352:1 3206:1 4410:1 6266:1 8729:1 16925:1 17014:1 17030:1 17252:1 
0.073502978829203369 0.0091393124348553359 0 0 0 1500:1 4011:1 6067:1 6262:1 7163:1 8056:1 8431:1 8921:1 10173:1 10177:1 11291:1 11844:1 12256:1 14863:1 15698:2 17252:1 19141:1 
0 0 0.4993855945718837 0 0 672:2 1299:1 6262:1 7262:1 7923:1 9235:1 9821:1 14094:1 15616:1 16753:1 17235:1 17252:2 18478:1 
0.087477042936065966 0.24524349142870128 0.051246296318489842 0 0 193:1 227:1 569:1 736:1 1524:1 2352:1 4856:1 6266:1 7098:1 7695:1 7715:1 8921:1 16035:1 17014:2 18250:1 
0 0.17385012385634421 0 0 0 207:1 805:1 1296:1 1466:1 3416:1 3576:1 4154:1 4930:2 6126:1 6262:1 7695:1 8431:2 10535:1 11705:1 11844:2 12384:1 15784:1 17014:1 17252:1 18739:1 18750:1 18788:1 18965:1 19025:1 
1 1 0.084276419721815321 0.76541867121880069 0.044063679335662589 1562:1 7428:1 8431:1 16376:1 17252:1 17499:1 17867:1 18944:1 
0 0 0 0.9422055213083258 0.09956076623951611 411:1 2352:1 4999:1 6262:1 7076:1 9305:1 11912:1 13614:1 15457:1 16321:1 17014:1 
0 1 0 0 0 672:1 2352:1 5845:1 6262:1 8341:1 8918:1 17895:1 19096:1 
0.036920726062577028 0.24572429875097071 0 0.35579304075327611 0.072951612659297019 672:3 1228:1 1690:1 2046:1 2433:1 3438:1 4856:1 4930:1 5924:1 6266:1 6645:2 6829:1 7071:1 7715:1 7925:1 7942:1 8821:1 10232:1 10260:1 13787:1 14410:1 16010:1 17014:1 17021:1 17835:1 18448:1 18907:1 
0 0.18248966955750132 0 0 0 1500:1 2002:1 3723:1 4629:1 6262:2 8135:1 8956:1 9369:1 10487:1 11705:1 12840:1 17014:1 17075:1 
0.035885831496942085 0.19711544234854972 0.0037964236787463917 0 0.38301847912331521 2617:1 4410:1 4887:1 5218:1 5989:1 6262:1 6266:1 6829:1 7600:1 7608:1 8134:1 8412:1 8921:1 8970:2 9821:1 10745:1 11710:1 12873:1 15705:1 17014:1 17021:1 17252:3 17606:2 18514:1 18675:1 18734:1 18863:1 19133:2 
0.36944244888151478 0.52181019876960311 0 0.14847249359913864 0.021969625654074534 74:1 224:1 787:1 2835:1 3249:1 3721:1 4930:1 7523:1 7942:1 8461:1 8921:1 10260:1 10487:1 11387:1 11705:1 11751:1 11776:1 13662:1 16206:1 16426:1 17014:1 17021:1 17075:1 17106:1 17252:1 17694:1 18675:1 18731:1 
0 0 0.09361021856475453 0 0 672:1 735:1 2352:1 2459:1 3618:1 6262:1 9235:1 9909:1 10224:1 13252:1 17076:1 
0.18970476955151094 0 0 0 0 524:1 653:1 672:1 1077:2 1533:1 1562:1 1766:1 2002:1 2433:1 4055:1 5833:1 6052:1 6266:1 6406:1 6903:1 7701:1 10270:1 10701:1 10703:1 11529:1 11705:1 13429:1 14277:1 17001:1 17021:2 17035:1 17252:3 
0 0 0 0.92005106881602416 0 1738:1 6266:1 7423:1 8341:1 17257:1 
1 0 0 0 0 591:2 672:2 1466:1 1562:1 5910:1 6262:1 8056:1 8431:1 8956:1 9821:1 10972:1 11915:1 12448:1 14516:1 17060:1 18095:1 18788:1 18863:1 18919:1 
0.10394491849949244 0 0 0 0.095930191778840018 1980:1 4025:1 5699:1 6262:1 14863:1 17014:1 17030:1 17252:1 18476:1 18566:1 18905:1 
0 0.21329864062270384 0 0.0282979477730998 0 672:3 786:1 1500:1 2433:1 3452:1 3542:1 3599:1 4975:2 5523:1 5570:1 6262:1 6857:1 7695:1 7742:1 7822:1 9821:1 10058:1 10487:2 10590:1 11179:1 11290:1 11844:1 12384:1 13160:1 16753:1 17014:2 17021:1 17060:1 17252:1 17820:1 18045:1 18476:1 18863:1 
0 0.37300752254814007 0.51416731377644076 0.14359721385828136 0 379:1 1077:1 2723:1 6262:1 6266:1 7423:1 7701:1 8921:1 8956:1 9821:1 10487:1 11781:1 11844:1 12137:1 12777:1 15705:1 15710:1 17035:2 17092:1 17252:2 
0 0.15644460836398319 0 0 0 672:2 838:1 2505:1 3721:1 4930:1 6269:1 6645:1 7476:1 7695:1 7701:1 8134:1 8363:1 9353:1 11174:2 11705:2 12179:1 12953:1 14900:1 15243:1 16735:1 17014:1 17021:1 17035:1 17103:1 17111:1 18731:1 18979:1 
0.21417723305173206 0 0 0 0 91:1 590:2 672:1 1008:1 1228:1 3620:1 6266:1 6829:1 7076:1 7523:1 10807:1 11174:1 11304:1 11710:1 12393:1 13022:1 15715:1 17092:1 17103:1 18448:1 18514:1 18675:1 
0.21676937646347713 0.19757059447411621 0.19013022306501665 0 0 2331:1 3723:1 5300:1 5301:1 6262:1 7569:1 7695:1 8305:1 9821:1 10507:1 11174:1 11705:1 12044:1 14662:1 15698:1 17014:1 17650:1 18675:1 18982:1 
0.021347634199548861 0 0 0 0 934:1 2002:1 6262:1 7608:1 9732:1 10487:1 11705:1 17076:1 
0 1 0 0 0 558:1 591:1 6262:1 9429:1 11529:1 11736:1 14516:1 14676:1 18675:1 
0 0 0 0 0.057854590602307451 672:1 4245:1 5522:1 5585:1 6266:1 8821:1 9637:1 9739:1 13166:1 14094:1 17021:1 18045:1 18863:1 
0.39509866689010831 0.54928548514375453 0.1701363283650533 0.36042543732779281 0.066578628542881269 672:1 5163:1 6262:1 6985:1 7715:1 8921:1 9821:1 11715:1 15593:1 15596:1 
0.89844087323651023 0.78001830180092802 0.11444057365730663 0.72181521934146631 0.18877424871214141 1466:1 3726:1 10566:1 10655:1 11705:1 14860:1 15698:1 17021:1 17746:1 18788:1 
0 0 0.10397713987368755 0 0 716:1 985:1 1467:1 1533:1 1894:1 2566:1 6262:1 7074:1 7687:1 11174:2 11776:1 12403:1 16383:1 17021:1 17379:1 17628:1 18324:1 
0 0 0 0 0.014985370291268826 3100:1 5699:1 6266:1 8341:1 11174:1 11705:1 13019:1 18943:1 
0 0.073150426656575909 0 0 0 392:1 672:1 1077:1 1466:1 2002:1 2331:1 2459:1 3967:1 4173:1 5837:1 6269:1 8956:1 10029:1 11392:1 11425:1 11705:3 11738:1 11969:1 14738:3 14844:1 15440:1 16056:1 17021:4 17106:1 18112:1 18521:1 18863:1 18979:1 
0.56384756383339851 0.63424369987094475 0.18507792974331924 0.14615859343311807 0 569:1 1500:1 2433:1 3537:1 4930:1 6067:1 6270:1 7822:1 8305:1 8956:1 9235:1 10224:1 11179:1 11529:1 13686:1 14476:1 15531:1 15616:1 17252:1 19133:1 
0 1 0 0 0.10623434714422698 4975:1 6262:2 7478:1 14094:1 
0 0.16117108054192919 0.1133450017767566 0 0 404:1 524:1 672:1 899:1 1296:1 1500:1 3303:1 6152:1 6269:1 7508:1 7695:1 8431:1 10580:1 11174:1 13686:1 16317:1 17021:1 17379:1 18250:2 
0 0 0 0 0.015685387676616393 3819:1 6266:1 7875:1 8341:1 10983:1 17092:1 18504:1 19133:1 
0 0 0.10715925930021306 0 0 1010:1 1562:1 5987:1 6262:1 6645:1 7363:1 8341:1 9821:1 15616:1 15710:1 
0.91343942115660615 0.26056713324680392 0 0.16860324391633522 0.079947496175034022 524:1 569:1 672:2 748:1 1466:1 1500:1 1739:1 3746:1 3969:1 5910:1 6144:1 6262:1 6427:1 6590:1 6645:1 7235:1 7768:1 7884:1 8341:1 8431:1 9429:1 9821:1 13086:1 14552:1 14676:1 15858:1 17021:2 17064:1 17204:1 17252:3 19085:1 19133:1 
0.3858553056374085 0.41935196920018492 0.22361245432739124 0.66821229865256659 0.09602557938723795 672:1 4705:1 6269:1 8431:1 8954:1 9429:1 9739:1 10315:1 11174:2 11776:1 12179:1 15713:1 17030:1 17934:1 18547:1 18788:1 18863:1 
0 0.37218997698891693 0 0 0 91:1 591:1 672:1 789:1 1077:2 4930:1 5145:1 5611:1 5845:1 6266:1 6645:1 7672:1 8915:1 9235:1 9353:1 11174:1 11458:2 11705:1 12894:1 13695:1 14552:1 17021:1 17252:1 19098:1 
0 0.063888800835753656 0.0056384976675346223 0.095650482985420199 0.022969191405181017 672:1 720:1 1701:1 1738:1 6262:1 8921:1 8956:1 9019:1 9097:1 9909:1 9973:1 11776:1 13291:1 13907:1 16317:1 17014:1 17021:1 17252:1 
0.042704426032483887 0.044855645935519779 0.037019127088827979 0 0.053105560815220373 524:1 590:1 672:1 899:1 985:1 1690:1 2279:1 2433:1 6262:1 6645:1 6957:1 8305:1 8956:1 9661:1 9748:1 11174:1 11705:1 11806:1 12474:1 12677:1 13549:1 13712:1 14853:1 15616:1 17014:1 17060:2 17103:1 
0 0.01818001980925385 0 0 0.19876665929024614 91:1 672:1 2005:1 4975:1 6266:1 7718:1 8956:4 9235:1 9429:1 9821:1 9909:1 10173:1 11084:1 11705:2 11776:1 11912:1 13641:1 13686:1 15616:1 16149:1 17014:2 17317:1 18514:2 18550:1 19107:1 
0 0 0 0 0.23632188442033589 2323:1 5617:1 6899:1 7942:1 11969:1 12179:1 17021:1 18636:1 
0 0 0.02707484628843948 0.46781422202719047 0.13003236570469348 225:1 672:1 934:1 2459:1 2711:1 4211:1 5824:1 6262:1 7071:1 7087:1 9732:1 9886:1 10487:1 11084:1 11705:1 14734:1 14863:1 17021:3 17143:1 17338:1 
0 0.38366513139949265 0 0.27982796323252962 0.059611850178491459 2331:1 4856:1 4987:1 6262:1 9429:1 9566:1 15616:1 18751:1 
0.14823056300811419 0.87564102707958913 0.029498273970148196 0.31677728647320574 0 91:2 389:1 672:1 4755:1 6262:1 6706:1 7209:1 8000:1 8056:1 8313:1 8921:1 9087:1 9301:1 10021:1 10173:1 10376:1 11063:1 11174:1 11705:1 11777:1 14552:1 15616:1 15710:2 15767:1 17014:1 17021:2 17050:1 17252:1 18863:1 18935:1 
0.98417905874929246 0.76532884039465965 0.14993387273586137 0.25836975564794795 0 11529:1 11610:1 11707:1 18514:1 
0.05220467810244505 1 0.4309176987079455 0 0 590:1 6266:2 6645:1 7076:1 7675:1 8341:1 9821:1 9986:1 10173:1 11458:1 13695:1 17092:1 
0.30158785163463042 0.11091939989989258 0 0.067888244651554089 0 789:1 3213:1 3505:1 4930:1 5824:1 5837:1 6152:1 6262:1 7677:1 7748:1 8028:1 9539:1 9732:1 9821:1 10566:1 11705:1 12446:1 13907:1 13991:1 17204:1 17252:1 18045:1 18101:1 18675:1 
0.19139244334771277 0 0.13557333245181849 0.21172619600396422 0 672:1 4160:1 4975:1 6262:1 6267:1 7695:1 7768:1 9429:1 9821:1 16881:1 17092:1 18935:1 
0 0 0 0.024350188375648847 0 672:1 1533:1 2331:1 4173:1 6265:1 6829:1 6896:1 7218:1 8915:1 8956:1 9369:1 11705:1 15616:1 16149:1 17021:1 18514:1 
0.61598370366886535 0 0.66111060796654586 0 0 672:1 1562:2 6266:1 6281:1 7846:1 8134:1 8230:1 9235:1 10900:2 11174:2 12384:1 13971:1 14476:1 14863:1 14899:1 16639:1 17030:1 17252:2 18675:1 18979:1 
0.22161206335281486 0.25254754726971113 0.14910776686657831 0.17378235851648066 0 78:1 591:2 672:1 985:1 1041:1 1500:1 1924:1 2433:1 3350:1 4173:2 5039:1 6262:1 6598:1 6599:1 6645:1 6847:1 7071:1 8135:1 8246:1 8921:1 8952:1 9921:1 10232:1 11529:1 11776:2 11781:2 13157:1 13214:1 13670:1 16864:1 17014:1 17092:1 17252:2 18941:1 
0.68242393220070419 0 0 0 0.14476640030893562 1690:1 1738:1 1751:1 3723:1 6266:1 7356:1 7393:1 7618:1 7822:1 7942:1 9235:1 9909:1 17379:1 
1 1 0 0 0.030560939033204063 524:1 1655:1 6262:1 7715:1 8921:1 8970:1 10580:1 11904:1 14476:1 14676:1 17001:1 17021:1 17252:1 
0.83584324449962799 1 0 0 0 672:2 1655:2 1751:1 3577:1 6266:1 6645:1 7071:1 7076:1 8431:1 10036:1 11174:1 11179:2 11844:1 13614:1 15758:1 16056:1 16192:1 17021:1 17252:1 18939:2 
0.067608149358024505 0 0 0 0 591:1 672:1 3146:1 3226:1 5125:1 6052:1 6262:1 9208:1 9909:1 11776:1 11844:1 15752:1 16143:1 18675:1 19047:1 
0.4857448211508707 0.5861527903128646 0.14620215033630302 0.32575805234010974 0.28878663408468352 1738:1 6756:1 7846:1 8431:1 9872:1 11506:1 18259:1 
0.08481275814682894 0.033252316081155218 0 0 0 569:1 653:1 672:1 1077:1 1562:1 4856:1 5193:1 5638:1 5673:1 6193:1 6266:1 6645:2 6880:1 7523:1 8956:3 9675:1 10487:1 11003:1 11004:1 12196:1 13456:1 13656:1 14599:1 15010:1 17014:1 17021:2 17204:1 17252:1 18158:1 18863:1 
0.095313991077954061 0.050298044188923065 0.13924526531890022 0.03413060824258371 0 4036:1 6166:1 6262:1 6641:1 6829:1 7423:1 7695:1 10487:1 11564:1 15253:1 16488:1 17021:2 18045:1 18898:1 
0 1 0 0 0 672:1 6262:1 10173:1 14552:1 16427:1 
0.1750635441985112 0.53579585394211415 0 0 0 591:1 672:1 2454:1 4445:1 6262:1 6633:1 6645:1 7423:1 8120:1 10972:1 11705:1 13253:1 17001:1 17078:1 17692:1 18675:1 
0.079080333605684561 0 0 0 0 79:1 6266:1 7423:1 8341:1 9366:1 18863:1 
0 0.11175016221920105 0 0 0 98:1 3433:1 4211:1 4930:1 5881:1 6262:1 6645:1 7695:1 8921:1 10263:1 11529:1 11776:1 11811:1 12452:1 15710:1 17252:2 18286:1 18324:1 18687:1 18863:1 19110:1 
0 0.1559579630672365 0 0 0.11027720036333744 672:1 789:1 1509:1 2331:1 4240:1 4629:1 5039:1 5895:1 6262:1 8225:1 8431:1 9340:1 9611:1 9821:1 11174:1 13384:1 13686:1 16056:1 17035:1 17076:1 17252:4 18324:1 18478:1 18886:1 
1 0 0 0 0 591:1 4881:1 4930:1 6262:1 10269:1 11174:1 11776:1 17014:1 17252:1 17309:1 18606:1 18626:1 
1 1 0 0 0 591:1 2331:1 5655:1 6262:1 7618:1 15616:1 19110:1 
0.10362792425321733 0.25759494749765066 0 0 0 524:1 778:1 2002:1 2156:1 3889:1 4631:1 5580:1 6266:1 7071:1 7538:1 7695:1 8431:1 8956:1 10000:1 10487:2 11084:1 11162:1 11174:2 11705:2 12240:1 12384:1 12400:1 15616:1 16978:1 17014:2 17021:4 17092:1 17252:1 18193:1 18570:1 18661:1 
0 0.72396888071261423 0 1 0 411:1 3317:1 6262:1 
0 0.69735679478371215 0 0.009211609416066845 0.18884921383425193 91:1 524:1 672:1 1738:1 3408:1 6266:1 7013:1 8134:1 9049:1 17080:1 18514:2 18532:1 18636:1 19133:1 
0.83978086782444195 0 0.030799434601526822 0 0 99:1 582:1 672:2 1077:1 1466:1 3218:1 3751:1 4975:1 6262:1 7830:1 8120:1 9235:1 9821:1 11151:1 11290:1 11705:1 11706:1 14516:1 15278:1 15616:1 17014:1 17209:1 17252:1 18113:1 
0 0 0.59031693247156636 0 0.034603163653189231 672:1 699:1 1077:1 4930:1 6266:1 6269:1 6645:1 7846:2 8341:1 11174:1 15658:1 15705:1 15710:1 17108:1 17378:1 
0.059087121239534107 0 0 0 0 91:1 569:1 1500:1 2878:1 5910:1 6262:2 6809:2 7071:1 7951:1 8431:1 8956:2 9909:1 10228:1 10487:1 11706:1 11912:2 14900:1 18284:1 18675:1 18863:1 
0.27514542435748207 0 0 0 0 850:1 4115:1 4930:1 6262:1 8970:1 10413:1 11781:1 11791:1 13086:1 16237:1 17014:1 17105:1 17252:3 17603:1 
0.43391465253314748 0 0 0.20197806133624024 0.11018911029780984 591:1 1500:1 1743:1 4930:1 6152:1 6262:1 7220:1 9821:1 11174:1 14599:1 15142:1 15710:1 17014:1 17021:1 17064:1 17143:1 17252:2 17309:1 
0.569109090653245 0.076509212919453604 0 0.22381285565994138 0 569:1 672:2 1299:1 1738:1 2719:1 6269:1 7432:1 7523:1 8225:1 8431:1 10678:1 11174:1 11291:2 11705:1 11746:1 13086:1 14975:1 15698:2 15791:1 15898:1 17021:1 17060:1 17252:1 18514:2 19104:1 
0 0 0 1 0 1466:1 6270:1 8134:1 8956:1 9429:1 17252:1 17338:1 
0.43729508729623073 0 0.033757107177808492 0.39692006674255165 0 555:1 3822:1 4173:1 4179:1 6136:1 6220:1 6262:1 11003:1 11174:1 11705:1 11776:1 11941:1 15192:1 16426:1 17014:1 
0.037746417398205952 0 0 0.094905896416739854 0.034551806761388401 91:1 672:1 748:1 2175:1 4783:1 6262:1 6390:1 7695:1 7846:1 7942:1 8431:1 9235:1 9370:1 9789:1 10058:1 11904:1 12384:1 12446:1 14863:1 15616:1 17060:1 18675:1 19018:1 
1 0 1 0 0 6262:1 7423:1 17303:1 
0 0 0.083478386234779239 0 0 2098:1 6262:1 7150:1 9235:1 15616:1 15698:1 17252:1 18324:1 18476:1 
1 1 0 0.94408392045832412 0.46083641334664366 591:1 1077:1 3060:1 4629:1 4987:1 6809:1 9429:1 9821:1 11174:1 11400:1 11705:1 11781:1 12384:1 14677:1 15090:1 17021:1 17252:1 18545:1 
0 0 0.0039130004243403595 0 0 591:1 3819:1 5193:2 5650:1 6266:1 7076:1 8921:1 9988:1 10487:1 11425:1 11529:1 11932:1 15440:1 17021:1 17252:2 17257:1 17864:1 19107:1 
0.12876281684901339 0.17737844539341885 0.080528159482049375 0 0 569:1 899:2 985:3 1061:1 4930:1 6262:1 6625:1 7695:1 8601:1 8921:1 9353:1 10359:1 11392:1 13473:1 14476:1 15731:1 17021:1 17060:2 17092:1 17105:1 19133:1 
0.090418221840020491 1 0 0.33599384204430877 0 524:1 672:1 1524:1 6262:1 8061:1 8921:1 8977:1 9821:1 16956:1 17014:1 19025:1 
0 0.013950202926666723 0 0 0 672:1 1105:1 1480:1 1985:1 2257:1 2952:1 3721:1 4104:1 4193:1 6134:1 9991:1 11004:1 11458:1 11705:2 14094:1 14287:1 16325:1 16845:1 17021:5 17275:1 18825:1 18939:1 
0.00099845425404787645 0.057465793914652959 0 0 0 1916:1 4115:1 4967:1 5837:1 6262:1 8462:1 8921:1 9821:1 10487:1 11174:2 11705:2 13369:1 13931:1 14315:1 15324:1 16577:1 17014:1 17021:1 17183:1 17801:1 18606:1 
1 0 0 0 0 672:1 1655:1 4626:1 6262:1 7923:1 8305:1 8956:1 9235:1 10972:1 11179:1 11529:1 14094:1 15067:1 16901:1 18514:1 18863:1 
0.039158187581568013 0.1255020700602465 0.0078696919668344006 0 0.006749445590176973 559:1 2863:1 2874:1 4115:1 5020:2 6266:1 6645:1 9553:1 11093:1 17021:1 18514:1 18633:1 18863:1 
0 0.98678580164959939 0 0 0 791:1 828:1 1500:1 2331:1 4930:1 6262:1 7220:1 8341:2 8956:1 8970:1 10037:1 11290:1 11705:1 11713:1 11791:1 11904:1 14476:1 14676:1 15710:1 15758:1 17021:1 17092:1 17252:2 18731:1 18905:2 
0 0.12303086975698727 0 0 0 672:2 1840:1 2331:1 3060:1 4951:1 5471:1 5843:1 6266:1 7218:1 8341:1 9301:1 11174:1 11179:1 11705:2 11904:1 13068:1 13429:1 13656:1 14227:1 14516:1 14727:1 15616:1 17014:2 17021:1 17235:2 17252:2 17603:2 18045:2 18064:1 18664:1 18675:1 18863:1 
0 0 0 0 0.24915203620708362 672:1 1500:1 2002:1 2352:1 2433:1 6262:1 7074:1 7715:1 7923:1 8134:1 8956:1 11367:1 13686:2 16433:1 16901:1 17014:1 17078:1 
0 0 0 0.33114466564347889 0 985:1 6262:1 7363:1 9565:1 11174:1 11705:1 14899:1 18863:1 
0 0.062149300459731292 0 0 0.3508980970087206 5699:1 6262:1 8034:1 
0.72766402880330683 0.88777346246076649 0.21468475739692655 0.62455490650117562 0.27051698051019646 672:1 1498:1 2252:1 5382:1 7586:1 8607:1 11705:1 11915:1 17021:2 17028:1 17344:1 18250:1 
0.25026670715829741 0.029644150398718119 0.067162434622948936 0.10846462274313644 0.0922102841511553 672:2 748:1 899:1 4020:1 4957:1 5196:1 5993:1 6262:1 6938:1 7234:1 8431:1 8938:1 9116:1 9369:1 10595:1 10865:1 11705:1 11912:1 13728:1 14357:1 14662:1 16206:1 16699:1 16902:1 17021:1 17252:1 18795:1 18863:1 18955:1 
0 0 0.015280581291541074 0 0 672:2 1077:2 1228:1 1500:1 4930:1 6262:1 7715:1 7923:1 7977:1 8326:1 8918:1 10487:1 11529:1 11844:1 13422:1 15200:1 16334:1 16906:1 17145:1 17209:1 17252:1 17534:1 
0.60771903383312253 0 0.20684752602153933 0 0.092754200744422449 782:1 793:1 2331:1 4115:1 4975:1 6262:2 7220:1 7607:1 9429:1 10687:1 11776:1 12668:1 13670:1 15731:1 16149:1 17204:1 18660:1 
0.42605333535456447 0.075241286165820348 0.16979041129359698 1 0 1509:1 6262:1 7076:1 7120:1 7822:1 7923:1 7942:1 8004:1 14900:1 15616:1 17021:1 17252:1 18480:1 
0 0 0.44338007476842367 0 0 672:1 6266:1 8341:1 8918:1 11705:1 11915:1 12658:1 13686:1 
0 0 0.082166684625992775 0 0 899:1 6262:1 7025:1 11259:1 15698:1 17014:1 18324:1 
0 0 0 0.026245572377391294 0.0049995991705298936 5824:1 6262:1 9909:1 10487:1 10575:1 12452:1 16089:1 16735:1 17076:1 18250:1 18675:1 18863:1 19025:1 
0.030203212194122173 0.011978045169057722 0 0 0.081625142723679503 672:4 1077:1 1274:1 1329:1 2784:1 3721:1 4628:1 5039:1 5600:1 6262:1 7262:2 7363:1 7695:1 8956:2 9821:1 11706:1 12548:1 14287:1 15188:1 17021:3 17035:1 17145:2 17252:2 17310:1 18478:1 
0 0 0 1 0.027513942516735584 672:1 780:1 4129:1 5271:1 5824:1 6645:1 7715:1 8056:1 8956:1 9732:1 9909:1 10001:1 14094:1 15090:1 15461:1 17001:1 
0 0 0 0.40084402043065426 0 91:1 569:1 591:1 672:1 899:2 934:1 1738:1 1743:1 3620:1 6266:1 7695:1 11905:1 17021:1 17076:1 18545:1 18550:1 18675:1 
0.60030648497973182 0 0.21018126393178507 0 0 672:1 1677:1 2331:1 2459:1 3218:1 6262:1 7234:1 7822:1 9049:1 9921:1 11705:1 11870:1 13191:1 15358:1 16531:1 16699:1 17028:1 
0 0 0.072181002516607876 0.27237724420971776 0 91:1 2980:1 6266:1 8341:1 8915:1 15616:1 17258:1 
0.12896352193982955 0 0 0.55657341905543778 1 91:1 1524:1 3819:1 6266:1 7695:1 9909:1 11162:1 17021:1 
0 0 0.16642237473684376 0 0.12785949012193798 504:1 672:1 2505:1 4626:1 4629:1 5824:1 6262:1 8918:1 9821:1 10487:1 13686:1 16902:1 17014:3 17252:1 18514:1 18636:1 19133:3 
0 0.12497836136447756 0 0.035549081304678376 0 548:1 672:1 1058:1 1762:1 3781:1 4624:1 6684:1 6725:1 6829:1 7252:1 7550:1 8431:2 10674:1 10948:1 12349:1 12698:1 12994:1 13242:1 14382:1 14843:1 15850:1 17021:2 17060:1 17144:1 17252:1 18045:1 18863:1 
0.27991548124387544 0.2993692055290606 0.18591126870370195 0.24816001680149363 0 91:1 1077:1 1562:1 2433:1 4200:1 5885:1 7013:1 8168:1 8305:1 9235:1 9659:1 9680:1 10661:1 11705:1 12301:1 14678:1 16753:1 17021:1 17050:2 17391:1 18863:1 19133:1 
0 0.88342347304154711 0.20960785666740023 0 0 582:1 672:1 786:1 3146:1 4629:2 6132:1 6266:1 6269:1 6281:1 6645:1 7523:1 7923:2 9821:1 10058:1 11174:2 12212:1 13058:1 17014:2 17078:1 17252:2 17379:1 18514:1 18545:1 
0 0.34143130225263596 0 0 0.039026060251567948 232:1 672:2 1500:1 2001:1 4631:1 6266:1 7695:1 7948:1 8381:1 8793:1 10487:1 11162:1 11174:1 13153:1 13496:1 16056:1 17018:1 17021:1 17252:1 18335:1 18348:1 18514:1 18675:1 
1 1 0.0075002460830939323 1 0.088526854002640903 424:1 748:1 2720:1 11174:2 11723:1 14405:1 17060:1 17252:1 18675:1 18871:1 
1 0 0.25382704861130423 0 0 735:1 6266:1 7923:1 8341:1 9732:1 18863:1 
0 0.057031596484440339 0 0 0 1466:1 4211:1 4930:1 5887:1 8134:1 8431:1 9928:1 11705:1 11736:1 11738:1 12179:1 14676:1 17021:1 19133:1 
0.30665771619817828 0.17274343255448019 0.17635260552228704 0 0.035537836929677769 672:1 1533:1 1743:1 2331:1 3642:1 6262:1 6856:1 6938:1 7262:1 7482:1 7675:1 7861:1 8341:1 8970:1 9370:1 9974:1 10491:1 11174:1 11216:1 11564:1 11961:1 13811:1 15616:1 16089:1 17014:1 17021:2 17252:1 18545:1 18675:1 
0.10891724093297499 0.49878106909890141 0 0 0 555:1 672:1 3822:1 4628:1 5492:1 6262:1 6645:1 8431:1 8729:1 8956:1 9821:1 10175:1 10487:1 11862:1 14919:1 17030:1 17252:1 18476:1 18733:1 18808:1 
0.072213555201935342 0.033309230660386283 0 0.25403792090343102 0.064530660400422685 672:2 1014:1 2352:1 3272:1 3746:1 4818:1 5626:1 8431:1 8494:1 8608:1 16204:1 16649:1 17021:2 18636:1 18780:1 
0 0.14218869271826437 0 0 0 672:1 1466:1 1743:1 2433:3 4200:1 6262:1 8134:2 9821:1 11325:1 11705:1 11904:1 14867:1 15142:1 17014:1 17030:1 17060:1 17105:1 17252:1 17592:1 17820:1 18095:1 18476:1 18863:1 18905:1 
0.13789113325291671 0.11903401936157185 0 0.1604329627416568 0.016523529313849459 389:1 672:3 934:1 1690:1 3870:1 4881:1 5039:1 6262:1 6689:1 7695:1 7854:1 10488:1 11776:1 12004:1 12258:1 14448:1 14843:1 15616:1 16056:1 16705:1 17021:5 17143:1 17252:1 18550:1 18925:1 18944:1 
0.12738301694439116 0 0 0.97181120176466651 0 411:1 591:2 3207:1 6165:1 6266:1 7618:1 11386:1 15698:1 17021:1 18863:2 
0.81096116208627944 0.69499917631442276 0.31248676162657868 0.4259180716147411 0.25370909640428418 899:2 1362:1 2325:1 4038:1 5824:1 8305:1 10685:1 11554:1 15120:1 15484:1 17028:1 17060:1 17252:1 
0 0.4654363332241806 0 0.074562572221868045 0.036869849532974945 672:1 735:1 3060:1 6262:1 7071:1 8305:1 11705:1 15238:1 15300:1 16704:1 17021:1 17092:1 18660:1 19013:1 19133:1 
0 0.11982811460644106 0 0 0 591:1 1837:1 2331:1 2352:1 5824:1 6262:1 8957:1 11529:1 11705:1 11776:1 11941:1 12950:1 16354:1 17021:1 17092:1 
0.057019375169922101 0 0 0 0 143:1 653:1 2592:1 3576:1 4783:1 5837:1 6262:1 7160:1 8419:1 8431:1 10776:1 11179:1 11705:2 11844:1 12561:1 14173:1 14863:1 17021:2 17204:1 17252:1 18788:1 
0.33397084194258031 1 0.055980469382251728 0.012267719464351772 0 91:1 672:1 1274:1 5492:1 6262:1 7202:1 7460:1 8341:1 9369:1 11705:1 12491:1 15513:1 15616:1 17014:2 17021:1 17030:1 17076:1 17143:1 17252:1 18636:1 19029:1 
0.3276589233604737 0 0 0 0.012153788514341008 81:1 569:1 591:1 672:2 1274:1 1466:1 1969:1 2331:1 2433:1 2459:1 2835:2 4357:1 6266:1 7715:1 7822:1 8305:1 8431:2 8921:1 9049:1 9921:1 10003:1 11443:1 11705:1 11751:1 11776:1 12215:1 13614:1 13656:1 15090:1 15698:1 17021:2 17112:1 17204:1 17252:2 18514:1 18675:1 18854:1 18953:1 19085:2 
0 0.0022832168851107375 0 0 0.033054231854870345 261:1 734:1 1278:1 2352:1 3483:1 5366:1 6035:1 6096:1 7715:2 7942:1 8819:1 8847:1 11705:1 13388:1 14894:1 15215:1 15698:1 15811:1 17021:1 18045:1 18107:1 18110:1 18687:1 18863:2 18935:1 
1 1 1 0 0 6262:1 6847:1 13496:1 
0.079325107655378799 0 0 0.077442164027814758 0 934:1 6266:1 7071:1 7423:1 8004:1 8431:1 9617:1 11174:1 12111:1 
1 1 0.058674181623414534 0.43028506934062666 0.28020069108594153 490:1 653:1 3737:1 5117:1 6633:1 11969:1 16189:1 18675:1 
1 0.62529185614441962 0.22997987339258386 0.03422638454694843 0.21417288362413328 614:1 1077:1 6809:1 7607:1 8921:1 11060:1 11174:1 11781:1 12196:1 12658:1 14863:1 17021:1 17092:1 17252:1 18289:1 
0 0.30831937133938336 0 0 0 311:1 672:2 694:1 816:1 3206:1 6266:1 6624:1 7220:1 7695:1 8431:1 8921:1 9235:1 11915:1 15715:1 16253:1 17021:1 17252:2 
0.28158090714901235 0.082561673945249936 0 0.003371278685551188 0 672:1 826:1 856:1 2850:1 3206:1 6266:1 6635:1 7013:1 8431:1 8977:1 9490:1 9662:1 10487:1 11705:1 11904:1 15715:1 15868:1 17021:2 17252:1 17730:1 18113:1 18677:1 
1 0 0.14001107460598849 0 0.099818931852082723 672:1 6262:2 6645:1 6988:1 7209:1 7753:1 8381:1 10487:1 10972:1 11032:1 11174:1 11705:1 15616:1 15713:1 17006:1 17014:1 17021:1 17204:1 
0 1 0 1 0 2331:1 6262:1 7676:1 9821:1 9889:1 10487:1 14699:1 16787:1 17021:1 17060:1 17252:2 17309:1 
0 0 0 0.096111990817025983 0 211:1 524:3 569:1 591:1 672:4 1077:1 1466:1 1500:1 1524:1 2331:1 2459:1 2668:1 6270:1 6857:1 7695:1 8263:1 8431:2 8956:1 9750:1 9789:1 9921:1 10228:1 11084:1 11174:1 11458:1 11564:1 11705:1 11776:1 11781:1 12094:1 14287:1 14899:2 14930:1 15192:1 15440:1 15616:1 15627:1 16426:1 17052:1 17106:1 17349:2 18626:1 18789:1 18953:1 
0.088077385158746538 1 0 0.74978278457957936 0 1562:1 6269:1 7715:1 7942:1 8225:1 8431:1 8956:1 9235:1 9414:1 11367:1 14197:1 14631:1 17106:1 18514:1 
0.2905210896934709 0.64418384505007131 0 0.2565172513129711 0.13898908724903342 1077:1 1228:1 1274:1 2048:1 2331:1 2418:1 2680:1 3061:1 4173:1 4999:1 5229:1 6091:1 6343:2 7695:1 7715:1 7942:1 8431:1 11174:1 11392:1 11669:1 17021:2 18633:1 18863:1 
0 0 0 0.20202813331782229 0.097571707690851467 5585:1 5717:1 6266:1 12631:1 13686:1 17021:1 
0 0.12084429417580675 0 0 0 672:1 735:1 736:1 1077:1 1274:1 2810:1 6102:1 6262:1 7076:1 8431:1 11174:1 11422:1 11705:1 11915:1 12603:1 17014:1 17021:1 17122:1 18595:1 
