svm_type c_svc
kernel_type polynomial
degree 6
gamma 0.00011519410206197443
coef0 4
nr_class 2
total_sv 613
rho -1.2486268910398732
label 0 1
nr_sv 404 209
SV
0.21495810878158675 3309:1 3771:1 4697:1 4824:1 5326:1 5868:1 8582:1 8609:1 
0.38256132382586949 5335:1 7267:1 8637:1 
0.089188207584217985 1001:1 3771:1 4492:1 4631:1 6436:1 7757:1 8609:1 8615:1 
0.068861805177127283 2279:1 3864:1 3869:1 3954:1 4219:1 5187:1 7757:1 8504:1 
0.019057019585019597 974:1 1172:1 1847:1 1907:1 2236:1 2676:1 2683:1 2762:1 3245:1 3398:1 3635:1 4088:1 4112:1 4207:1 4219:1 4994:1 5406:1 7670:1 
0.16522765793651939 1505:1 2877:1 3530:1 3771:1 5406:1 5599:1 7622:1 7757:1 7775:1 8578:1 8609:1 
0.37387654191287789 2676:1 3771:1 5140:1 5155:1 5526:1 7648:1 7757:2 8464:1 
0.013883390650581702 1080:1 1085:2 1352:1 2593:1 2676:1 3079:1 3718:1 3832:1 3847:1 3954:1 4088:1 5335:1 6547:1 7067:1 7228:1 7628:1 7670:1 7757:1 8289:2 8305:1 8313:1 8315:1 8665:1 
0.029348273202655598 1092:1 1184:1 1489:1 3504:2 4088:1 4616:1 4654:1 4741:1 5245:1 5478:1 6696:1 7063:1 7273:1 7466:1 7628:1 8362:2 8366:1 8464:1 8615:2 
0.030177403217500887 1085:3 1130:1 1407:1 2930:1 3304:1 5614:1 5876:1 8272:1 8609:1 
0.017027908932851558 1092:1 1225:1 1439:1 2717:1 3309:1 3703:1 4219:1 5999:1 6272:1 7489:1 7628:1 7659:1 8433:1 8620:1 
0.081064803455257919 1072:1 1208:1 1439:1 1683:1 1779:1 1875:1 2088:1 2937:1 3213:1 3398:1 3504:1 3512:1 3585:1 3800:1 3997:1 4353:1 5406:1 5607:1 5610:1 6170:1 6579:1 7052:1 7628:1 7757:3 8236:2 8289:1 8378:1 
1 1184:1 1814:1 1840:1 3359:1 5421:2 8609:1 
0.027611704788433833 387:1 413:1 517:1 643:1 651:1 661:1 663:1 666:1 687:1 985:1 1773:1 1795:1 1814:2 2340:1 2460:1 2962:1 3309:2 3595:1 4042:1 4198:1 4708:1 5532:1 5538:1 5697:1 6634:1 7548:1 7628:1 7784:1 7955:3 8240:1 8633:1 8658:1 8662:1 
0.017417240338451288 1225:1 1538:1 3309:1 3388:1 3519:2 3557:2 3769:1 3984:1 5269:1 7040:1 7701:1 
0.017709402698515751 929:2 1779:1 1945:1 2417:1 3183:1 3504:1 3880:1 5318:1 5571:1 6195:1 7470:1 7628:1 7757:1 8243:1 8245:1 
0.0047667082459335796 1085:1 1173:1 1225:1 1287:1 1322:1 1352:1 1439:1 2713:1 2738:1 2809:1 3155:1 3331:1 3398:2 3512:1 3755:1 3771:2 4002:1 4670:1 4947:1 5156:1 5224:1 5857:1 6680:1 6903:1 6918:1 7025:1 7226:1 7622:1 7646:1 7757:3 
0.033017958277074037 2609:1 3818:1 4940:1 5610:1 7001:1 7670:1 7692:1 7722:1 8065:1 8482:1 8504:1 8609:1 
0.043816291641784987 2738:1 2846:1 3696:2 3700:1 3815:2 4707:1 4940:1 5949:1 7628:1 7757:1 8362:1 8609:1 
0.00023530600958832404 963:1 4088:1 4207:1 5136:1 5571:1 5681:1 7751:1 8051:1 
0.041308300432490251 1030:1 1439:1 3398:1 5488:1 5622:1 7489:1 7646:1 8402:1 
0.054534857287310598 1085:1 2225:1 2676:1 2713:1 3330:1 3771:2 4219:1 6260:1 7415:1 7757:2 8609:1 
0.005611948637454036 1291:1 3213:1 3398:1 5353:1 5610:1 5888:2 
0.011992131573140986 1030:1 1055:1 2380:1 3335:1 4712:1 5134:1 5538:1 6760:1 6956:1 7628:1 7757:2 7933:1 
0.018151078923493519 2459:1 3577:1 3700:1 3771:1 3873:1 6903:1 7157:1 7628:1 7757:1 8315:1 8609:1 
0.15365556600549507 2770:1 2995:1 3309:1 3376:2 3551:1 3842:1 4207:1 5526:2 7722:1 8289:1 8355:1 8615:1 
0.1086866904459359 2717:1 4994:1 7990:1 8615:1 
0.10086713019966176 1085:1 1439:1 1872:1 2713:1 2767:1 5505:1 7596:1 
0.14587448100333056 1053:1 1085:1 1967:1 3847:1 4616:1 5526:1 5536:1 7043:1 7757:1 8433:1 8504:1 8567:1 8609:1 
0.0084677801923166568 1085:1 3274:1 3771:1 4207:1 5323:1 7628:1 8412:1 
0.0076301576713184533 1422:1 1602:1 2676:1 5571:1 7813:1 8245:1 8609:1 
0.051090441922460331 1085:2 1498:1 2713:1 3317:1 3798:1 4391:1 4741:1 5628:1 7622:1 7681:1 8227:1 8252:1 8272:1 8609:3 8615:1 
0.0244006368900259 3210:1 3771:1 4777:1 7757:1 7764:1 8245:1 
0.065015999600603211 2260:1 4670:1 5526:1 7596:1 7628:1 8284:1 8362:1 8609:1 
0.065304945851152152 932:1 1030:1 1046:1 1055:2 1085:2 1184:1 1439:2 1814:1 2273:1 3161:1 3771:1 4207:3 4219:1 4390:1 4588:1 4589:1 4604:1 4820:1 4931:1 4933:1 4940:1 5571:2 6556:1 6557:3 6599:1 7025:1 7254:1 7628:4 7641:1 7670:1 7757:1 8366:1 8433:1 8489:2 
0.020920030582861879 1261:1 1365:1 1799:1 2293:1 3382:1 3595:1 3815:2 3847:1 3985:1 4059:1 4088:1 4219:2 4353:1 4497:1 4567:1 4704:1 4735:1 4849:1 5090:1 5327:1 6400:1 7025:1 7077:2 7798:1 8051:1 
0.013334244795797505 1030:1 1143:1 1184:1 5109:1 5538:1 5599:1 5874:1 
0.11540666329727514 883:1 2516:1 4994:1 5880:1 6414:1 7628:1 
0.06182899859078915 971:1 1043:1 1085:1 1304:1 1612:1 1993:2 2997:2 3398:2 4088:1 5312:1 5368:1 5526:2 5880:1 6417:1 6626:1 6696:1 7389:1 7478:1 7669:1 7692:1 7709:3 7733:1 7757:3 8245:1 
0.73084613748483962 3537:1 6400:1 6696:1 7757:1 8615:1 
0.12750816842284193 1030:1 2389:1 2593:1 3105:1 3151:1 3309:1 3771:1 3952:1 4353:1 5478:2 6194:1 7622:1 7628:1 8433:1 8609:1 
0.0099148377181317148 860:1 1261:1 1439:1 1779:1 3309:1 4056:1 4088:1 4708:1 4940:1 5039:1 5610:1 8619:1 
0.058399100089279281 1439:1 1795:1 1883:1 2875:1 3398:1 4088:1 5292:1 6309:1 7757:2 7830:1 8227:1 
0.055387481527392105 1129:1 2460:1 2717:1 2839:1 3309:1 3398:1 3831:1 4619:1 5335:1 5888:1 6440:1 6796:1 7628:1 7933:1 
0.15330619739583631 1184:1 2770:1 5571:1 7841:1 8609:1 
0.023080448511289015 2064:1 3309:1 4207:1 5245:1 7194:1 7494:1 7628:1 8065:1 8357:1 8378:1 
0.18524821442052522 1365:1 1814:1 3575:1 4782:1 4940:1 7685:1 7934:1 8032:1 8339:1 8500:1 
0.052950126688297829 971:1 2599:1 3387:1 3771:1 5421:1 7802:1 
0.044049517603242216 299:1 1779:1 4207:1 4986:1 5406:1 5766:1 7415:1 7661:1 8615:1 
0.022831616219327156 1085:1 2204:1 2500:1 2593:1 3551:1 3703:1 4088:1 4588:1 4616:1 4720:1 5506:1 6634:1 7580:1 7622:1 7628:1 7654:2 8065:1 8212:1 8355:1 8471:1 
0.2385091782330109 1085:1 1346:1 1821:1 3577:1 4207:2 4567:1 4994:1 5368:1 6081:1 7497:1 7670:1 7722:1 7757:1 
0.049637954726660424 1814:1 3000:1 4033:1 4056:2 7040:1 8609:1 
0.039851358621789554 945:1 1044:1 2930:1 3309:1 3504:1 4806:1 5347:1 5610:1 6952:1 7040:1 7614:1 7628:1 7757:1 7895:1 8615:1 
0.05971491208493121 1053:1 1085:2 1779:1 3504:2 3771:1 4088:1 4219:3 4353:1 4670:2 4931:1 4940:1 4994:1 4999:1 5090:1 5101:1 5421:1 5526:1 6400:1 6724:2 6770:1 7628:2 7757:2 8402:1 8567:1 8609:1 
0.0023064940437235908 1046:1 1479:1 1779:1 2609:1 4207:5 4532:1 4667:1 4751:1 6898:5 7797:1 7801:1 8130:2 8418:1 
0.023110015376420143 1073:1 1184:1 1269:1 1374:1 1617:1 1941:1 2949:1 3005:1 3182:1 3309:2 3771:1 4207:2 4219:2 4350:1 4539:1 4904:1 5415:1 5423:1 5465:1 5478:2 5558:1 5561:1 5566:1 5763:1 7628:2 7661:1 8051:2 8130:1 8502:1 8609:1 
0.03622234706582015 2260:1 3175:1 4088:1 4670:1 7596:1 8609:1 
0.033746381220099222 1053:1 1184:1 1524:1 4849:1 7610:1 7654:1 7660:1 8609:1 
0.0298096611380845 1784:1 2153:1 3730:1 3805:1 3818:1 4512:1 4720:1 4940:1 5027:1 5224:1 5406:1 5410:1 7757:1 8051:1 8660:1 
0.060196806896786192 1080:1 1184:1 1439:2 2717:1 3015:1 3627:1 3743:1 3771:2 4947:1 5561:1 7254:1 7400:1 7610:1 7622:2 7682:1 7757:1 7764:1 7784:1 8245:1 
0.094815085989603295 1040:1 1085:1 2290:1 2676:1 3673:1 3782:1 4353:1 6854:1 7654:1 7722:1 8032:1 8249:1 8268:1 8289:1 8362:1 
0.086861637941250999 1814:1 2717:1 3965:1 4076:1 4207:1 5827:1 7050:1 7560:1 7646:1 7757:1 8032:1 8362:1 
0.04139435209207197 1840:1 3818:1 5526:1 7077:1 7670:1 8609:1 
0.032506276416947033 860:1 1461:1 3577:1 3771:1 4059:1 7664:1 8609:1 
0.05543317571114157 1085:2 1706:1 2143:1 3119:1 3746:1 3747:1 4604:1 4931:1 5326:2 7191:1 7670:1 7757:2 7845:1 8051:2 8134:1 8581:2 
0.064652403882673071 1055:1 3954:1 4207:1 5335:1 5478:1 5610:1 6648:1 7670:1 7830:1 8313:1 8315:1 8615:1 
0.039762437609475086 2676:1 3771:1 6600:1 6848:1 7025:1 8595:1 8609:1 
0.02938692481809476 895:1 1085:1 1261:1 1508:1 2325:1 3159:1 3406:1 3700:1 3842:1 4572:1 4708:1 4741:1 4747:1 5224:1 5292:1 5833:1 7560:1 7757:2 8245:1 8609:5 8615:1 
0.012135076385857028 1184:1 1840:1 3129:1 3177:1 3573:1 4363:1 5571:1 7596:1 7797:1 8609:2 
0.031760258317916852 1085:1 1439:2 1779:1 2713:1 2835:1 3005:1 3309:1 4604:1 4712:1 4741:1 5406:1 5411:1 5526:1 6285:1 6490:1 7489:1 7757:1 8402:1 
0.052030107835974934 5571:1 5610:1 6079:1 7025:1 7722:1 8030:1 8355:1 8673:1 
0.17069695700233539 1085:1 1879:1 3729:1 4448:1 4588:1 4670:1 5526:1 7596:1 8609:1 
0.0051687198522630644 1121:1 2466:1 4219:1 4353:1 5599:1 7501:1 7625:1 7654:2 8471:1 
0.063841916038298821 1306:1 3771:1 4207:1 7351:1 7411:1 7757:1 
0.0035876095379871143 1055:1 1225:1 1261:1 1795:1 1840:1 3077:1 3398:1 3771:1 3832:1 3935:1 4940:1 4994:1 5224:1 5526:1 5812:2 6880:1 7891:1 8609:1 
0.071910289967949015 971:1 2596:1 3417:1 3504:1 4207:1 4219:1 5057:1 5169:1 6724:1 7048:1 8051:1 
0.18005392045305924 1275:1 5812:1 5880:1 7628:1 
0.014457164004194074 923:1 1085:1 2191:1 4505:1 5610:1 5690:1 5943:1 6601:1 6815:1 7757:1 7962:1 8433:1 8528:1 
0.0085805700588196671 923:1 2897:1 3815:1 7502:1 8279:1 8355:1 
0.022187916489427383 1080:1 1177:1 2795:1 4059:2 4705:1 5368:1 5421:1 5848:1 
0.045529025604023672 1261:1 1772:1 5024:1 7202:1 7267:1 8219:1 
0.044349853407567967 1261:1 1814:1 3902:1 5880:1 
0.019964078895943198 1943:1 2529:1 3536:1 6214:1 6683:1 7654:1 7757:1 
0.016605259670626954 2459:1 2593:1 2999:1 3577:1 3771:1 4112:1 4448:1 4520:1 4616:1 5532:1 5871:1 7542:1 7654:2 7681:1 8130:1 8581:1 
0.0084539467044991139 1151:1 1184:1 1779:1 1795:2 2460:1 3309:1 3317:1 3400:1 3583:1 4032:1 4088:1 4207:1 4824:1 5406:1 5478:1 5607:1 5724:1 5726:1 7131:1 7628:1 7757:1 8065:1 8222:2 8231:1 8289:2 8355:1 
0.020204577415540329 2157:1 3689:1 5526:1 5628:1 5867:1 8362:1 8609:1 
0.007153308846724697 1184:1 3530:1 3577:1 3696:3 4315:1 6699:1 6926:1 
0.018330701193693448 860:1 3954:1 5281:1 5518:1 5578:1 8011:1 8609:1 
0.11497344424361719 889:1 1184:1 1261:1 2151:1 2877:1 3564:1 3815:1 3832:1 5505:1 5571:1 6143:1 7025:1 7628:1 7646:1 7654:1 7757:1 8154:1 
0.12523226236624624 1121:1 1890:1 2688:1 3771:1 3782:1 5478:1 7114:1 8595:1 
0.045494111068788645 1085:1 1644:1 2676:1 3771:1 4841:1 5437:1 5898:1 6159:1 7321:1 7757:1 7764:1 8402:1 8609:2 
0.052302633621844341 964:1 1320:1 1809:1 2392:1 3006:1 3309:1 3398:1 3832:1 4207:1 5127:2 5406:1 5532:1 5771:1 5776:1 7628:1 7933:1 
0.057950756707486423 2930:1 7751:1 8064:1 
0.054441504897002189 1085:2 1461:1 1637:1 2092:1 2676:1 3309:1 3873:1 3954:1 4425:1 4520:1 4661:1 4959:1 5134:1 5229:1 5272:1 5347:1 5478:1 6271:1 6835:1 7677:1 7722:1 8115:1 8130:1 8243:1 8259:1 8355:1 8609:1 
0.046622937396563265 4207:1 5769:1 6169:1 8615:1 
0.42287839981881492 1055:1 1814:2 3309:1 3359:1 4940:1 5530:1 5880:1 6915:1 8222:1 8615:1 
0.051909685805746092 1982:1 1997:1 2153:1 2459:1 2467:1 3398:1 3577:1 3582:1 3771:1 4088:1 4207:1 4428:1 4809:1 4947:1 5783:1 5822:1 6775:1 7628:3 8372:1 8480:1 
0.075888553432552464 1030:1 1085:2 1508:1 2650:1 4077:1 4207:1 5538:1 8130:1 8289:1 
0.22220032428033143 1055:1 1814:2 2417:1 3309:1 4940:1 8222:1 8615:1 
0.012322779448043114 1621:1 2430:1 2676:1 3268:1 4616:1 5526:1 6780:1 7628:1 8609:1 8615:1 
0.066344391023346355 1030:1 2676:1 3309:1 4741:1 5187:1 5885:1 6715:1 7025:1 7613:1 8433:1 8609:3 
0.038095647473273958 1085:1 1322:1 2676:1 3005:1 3309:1 3504:1 3551:1 3783:1 4088:1 4219:2 4616:1 4651:1 5368:1 6285:1 7062:1 7311:1 7719:1 7723:1 7757:1 8464:1 8615:1 
0.0024902096140752145 1072:1 1080:1 1125:1 1240:1 1273:1 1461:1 1795:2 1814:1 1827:1 1863:1 2108:1 2110:1 2211:1 2310:1 2646:1 2676:2 3398:1 3664:2 3758:1 4018:1 4042:1 4219:1 4230:1 4237:1 4764:2 4849:1 5090:1 5150:1 5368:1 5378:1 5406:1 5407:1 5478:2 5571:1 5895:1 6896:1 7025:1 7586:1 7628:2 7757:2 7948:1 8069:1 8125:1 
0.017060456047851138 3231:1 3472:1 3818:1 5500:1 7625:1 8037:1 8402:1 8508:1 
0.16288493500166767 2064:1 2593:1 3504:1 4088:1 5224:1 7596:1 8609:1 
0.0223804855031111 983:1 1085:2 1184:1 2157:1 2593:1 2798:1 3309:1 3771:1 4185:1 5118:1 5130:1 5624:1 6080:1 6759:1 7660:1 7688:1 7933:1 8482:1 8493:1 
0.017881869606190239 1085:1 1446:1 2179:1 2459:1 2778:1 3557:1 3577:1 3771:2 4589:1 4730:1 5478:1 5880:1 7613:1 7622:1 7628:1 8274:1 
0.06003577961356759 2151:1 2738:1 3902:1 4042:1 5024:1 7641:1 8436:1 8609:1 
0.025683438214782032 3577:1 3771:1 6345:1 7757:1 8186:1 8609:1 
7.2200058426721597e-05 1237:1 1814:1 4940:1 5076:1 5406:1 6210:1 7025:1 7757:1 8609:1 
0.060144516515116042 1085:1 1517:1 1808:1 1814:1 2495:1 4589:1 4940:1 4959:1 7757:1 7975:1 
0.12806254278183962 3818:1 4728:1 7619:1 8051:1 
0.011759645656722219 2981:1 3233:1 3309:1 5406:2 5483:1 5963:1 
0.0022698634924109024 1184:1 6698:1 8378:1 8609:1 
0.92959316248444335 4617:1 5090:1 5326:1 7628:1 
0.06619138881503725 1343:1 1418:1 2467:1 3700:1 4042:1 4741:1 5812:1 7560:1 7757:1 8336:1 8467:1 8609:2 8615:1 
0.089055770266785253 1085:1 1474:1 3309:1 3602:1 3741:1 3771:2 4304:1 5778:1 6346:1 6421:1 8355:1 8433:1 8609:3 
0.23313368451351296 4994:1 5421:1 5538:1 6633:1 8592:1 8615:1 
0.069520034639136932 1184:1 4076:1 4088:1 4207:1 7670:1 7830:1 8609:1 
0.028085569624783306 2510:1 2717:1 3015:1 3504:1 3831:1 4353:1 4588:1 7267:1 7775:1 8115:1 8402:1 8609:1 
0.011061539839590337 4021:1 4260:1 4898:1 4948:1 5500:1 7682:1 8609:1 
0.045015997621110519 1085:1 1439:1 2145:1 2171:1 3550:1 3679:1 3798:1 4088:1 4588:1 4717:1 4876:1 5027:1 5322:1 6734:1 7086:1 8051:6 8133:1 8285:1 8402:1 8489:1 
0.24916041322255023 974:1 1080:1 1261:1 1461:1 1987:1 2484:1 3309:2 4242:1 4994:1 5224:1 5406:1 5571:1 5812:1 7209:1 7596:1 7628:1 7757:1 8371:1 8648:1 
0.044632961335580472 1225:1 2247:1 4219:1 4589:1 4849:1 5116:1 5571:1 5765:1 6626:1 7025:1 
0.048172073353259952 1055:2 1545:1 1779:1 1967:1 3085:1 3309:1 3359:1 4088:1 4526:1 5134:1 5406:1 5809:1 7025:1 7596:1 7757:1 8032:1 8362:1 8402:1 8486:1 
0.088893295720311807 1814:1 3398:1 4227:1 4520:1 4662:1 7494:1 8313:1 8592:1 
0.025947472199490135 1046:1 1085:2 1268:1 1439:1 1881:1 3309:1 3551:1 3634:1 4353:1 5400:1 5735:1 6445:1 6734:1 6921:1 7590:1 7594:1 7628:2 7757:2 8504:1 8609:1 
0.0020807768355619342 860:3 2050:1 2431:1 2676:1 2763:1 2838:1 4042:1 4088:1 4744:1 5505:1 5610:1 7415:1 7622:1 7661:1 7757:2 8032:1 8245:1 8500:2 8504:1 
0.001111720538199927 4219:2 4616:1 5437:1 5815:1 6474:1 7044:1 8259:1 8262:1 8378:1 8433:1 8609:1 8619:1 
0.080092186618362191 904:1 6300:1 7992:1 8044:1 
0.029688614296367665 1085:1 1125:1 1225:1 1261:1 1511:1 2145:1 2210:1 2645:1 2676:1 2939:1 3353:1 3664:1 3771:1 4025:1 4088:1 4688:1 4764:1 5406:1 5478:1 5571:1 5739:1 6345:1 6789:1 6904:1 7757:2 8063:2 8609:1 
0.020352639223927948 1814:1 2400:1 5857:1 8402:1 8609:1 
0.02731193849095933 1943:1 3504:1 3748:1 3771:1 4042:1 4219:1 4588:1 6678:1 7254:1 7646:1 7895:1 8402:1 8609:2 
0.061532874434451539 1121:1 2472:1 2676:1 3359:1 3771:1 3847:3 4996:1 5368:1 6306:1 8437:1 
0.19079336748342854 3175:1 3564:1 3771:1 4088:2 5024:1 5421:1 8482:1 
0.043167487992158332 1450:1 1827:1 3006:1 3398:1 4088:1 4207:1 4520:1 4940:1 5406:1 5478:1 5571:1 6997:2 6998:1 7044:1 7604:1 7622:1 7628:1 7722:1 7757:2 7933:1 8115:1 8247:1 8318:1 8362:1 8609:2 
0.0056541674535660891 2145:1 3940:1 4226:1 4841:1 5399:1 6696:1 8609:1 
0.00038376110390732663 1107:1 1148:1 1343:1 1804:1 2325:1 2593:1 2871:1 3309:1 3339:1 3484:1 3504:1 3551:1 3772:1 4304:1 5292:1 5312:1 5812:1 6696:1 7489:1 7622:1 7628:1 7757:3 8284:1 8402:1 8609:4 8615:1 
0.011991032873986163 1322:1 2186:1 3398:1 3954:1 6880:1 7470:1 7628:1 7757:1 8259:1 8609:1 8615:1 
0.90645342479887037 2717:1 3771:1 4994:1 5484:1 8609:1 
0.019594504165631441 890:1 2450:1 2803:1 2897:1 3702:1 4358:1 4616:1 5224:1 5571:2 5718:1 6584:1 6724:1 7008:1 7654:1 7757:1 8658:2 
0.0019204571717181304 1085:1 1456:1 2470:1 3409:1 3564:1 3782:1 4849:1 5297:1 7267:1 7628:1 7757:2 8433:1 
0.0044414322443415014 2260:1 3651:1 3652:1 4207:2 4943:1 6065:1 8412:1 
0.1454930151343333 1235:1 1814:1 3139:1 5200:1 5880:1 7757:1 
0.0062216857089684831 298:1 384:1 530:1 632:1 1085:2 1439:1 1632:1 1836:1 2300:1 2722:1 3577:2 3747:1 3769:1 3771:1 3897:1 3920:1 4088:1 4329:1 4744:1 5326:1 5478:1 5854:1 6198:1 6579:1 6696:1 7757:1 8318:1 8581:1 8609:3 
0.020861368720639015 1014:1 3700:1 4741:1 5006:1 5526:1 5610:1 5812:1 7242:1 7628:1 7921:1 7988:1 8015:1 
0.027672603436971342 2452:1 3771:1 5526:1 7389:1 8402:1 8433:1 
0.0020818208698823713 2260:1 2307:1 2384:1 3091:1 3940:1 4088:1 6062:1 7251:1 7625:1 8402:1 8615:1 
0.015775289648610743 1176:1 1184:1 2064:1 3309:1 3551:1 7757:1 8403:1 8609:1 
0.035803920989493566 1085:1 1439:1 1772:1 2387:1 4042:1 5526:1 6847:2 7267:1 7596:1 7622:2 7757:1 8284:1 8482:1 8609:1 8615:1 
0.053967576648045738 1434:1 1439:1 1795:1 2930:1 3519:1 3568:1 4088:1 4207:1 4219:1 4603:1 4742:2 5478:2 5526:1 5533:1 5965:1 5984:1 6858:1 7628:1 7670:1 7757:1 7890:1 8051:1 8489:1 
0.049370245531231483 1640:1 3562:1 4059:1 5239:1 7628:1 8433:1 8500:1 8519:1 
0.18328546858643308 3309:1 3519:1 4088:1 4352:1 5169:1 5421:1 6584:1 7614:1 
0.01653328300671272 3434:1 5292:1 6953:1 7267:1 7398:1 7757:1 
0.62784081446026085 1967:1 4940:1 7003:1 8433:1 
0.0028601638552535535 1439:1 1905:1 3852:1 4662:1 5518:1 7622:1 7757:1 8615:1 
0.074836814120018538 1173:1 1438:1 3865:1 4088:1 4207:1 6272:1 
0.040370220533810786 1085:1 1319:1 1439:1 1467:2 4353:1 4448:1 4616:1 5292:1 6281:1 6819:1 7784:1 8464:1 8609:1 
0.058424560356564723 3771:1 4219:1 6663:1 7074:1 7497:1 7691:1 8362:1 
0.088429859879300382 1762:1 2459:1 3398:1 3842:1 5138:1 5368:1 5478:2 5526:1 6764:1 7622:1 7661:1 7670:1 8355:1 8480:1 8602:1 8609:2 
0.041242179007546023 3831:1 3895:1 4219:1 4996:1 5368:1 5421:1 5526:1 5812:1 
0.030830517527284544 2593:1 3005:1 3309:1 3842:1 5335:1 6247:1 7628:1 7639:1 8186:1 
0.0065093302751473145 582:1 1085:1 1125:1 1422:1 1554:1 1784:1 1785:1 2421:1 3213:1 3309:1 3398:1 4042:1 4616:1 4940:1 5127:1 5345:1 5406:1 5500:1 6726:1 7213:1 7560:1 7757:2 7813:1 8402:1 8609:1 
0.11152166818453807 1121:1 2157:1 2676:1 3309:1 3377:1 3398:1 3504:1 4207:2 4561:1 5331:1 5857:1 5937:1 7646:1 8482:1 8609:1 8615:1 
0.09468144718869935 382:1 964:1 1030:1 1085:1 1640:1 3530:1 3573:1 3635:1 3769:1 4059:1 4088:1 4448:1 4708:1 4940:1 5330:1 5500:1 5971:1 6724:1 7500:1 7628:2 7722:1 8373:1 8552:1 8580:1 
0.28002881085137299 298:1 1225:1 3771:1 4424:1 4727:1 5478:1 7764:1 
0.071098366852261369 923:1 1030:1 1155:1 3832:1 4207:1 4855:1 5224:1 5326:1 5665:1 7622:1 
0.31597369373800838 5347:1 5526:1 6272:1 7909:1 
0.010756426421923064 860:1 914:1 3771:1 6374:1 6724:1 7757:1 7764:1 8259:1 8315:1 8468:1 8609:1 
0.0990620676678894 860:1 7501:1 8378:1 
0.028307411512105161 387:1 2505:1 2637:1 3398:1 3983:1 4238:1 5104:1 5105:1 5292:1 5599:1 6719:1 7489:1 8240:1 
0.015848374326284546 1170:1 1184:1 2064:1 3309:1 3551:1 7757:1 8403:1 8609:1 
0.13444710763176565 997:1 1184:2 1225:1 3954:2 4088:1 5118:2 6770:1 7659:1 7757:1 8433:1 8609:3 
0.12331960205927886 919:1 1225:1 1870:1 2145:1 2233:1 3359:1 3398:1 3664:1 3771:1 4117:1 4764:1 5368:1 5526:1 5814:1 6379:1 6724:1 7003:2 7555:1 7757:3 
0.0028663678753786115 1439:1 1927:1 3048:1 3242:1 3458:1 4219:2 4425:1 5138:1 5297:1 5478:2 5580:1 5701:2 6397:1 7494:1 7757:2 7782:1 7798:1 
0.073628579242794978 1030:1 1225:1 1683:1 1814:1 2420:1 2593:1 3124:1 3219:1 3398:1 3815:1 3966:1 4520:1 4960:1 5292:1 5361:1 5478:1 7764:1 7795:1 8032:1 8333:1 8441:1 8516:2 
0.0068475112505745539 860:1 872:1 1053:1 2177:1 2548:1 2778:1 2795:2 3198:1 3782:1 4207:1 4666:1 5571:1 5709:1 7628:1 7688:1 7757:1 8249:1 8372:1 8378:2 8433:1 8496:1 
0.022112429772063878 1261:1 1439:1 1612:2 1889:1 1972:1 3404:2 3771:1 4088:1 4214:1 4219:1 4618:1 4708:1 5368:1 5571:1 5668:2 5774:1 6894:1 7622:1 7628:1 7757:1 8672:1 8675:2 8676:1 
0.026730969371883732 1113:1 1350:1 1439:1 1814:1 1827:1 1829:1 1840:1 1847:1 3011:1 3012:1 3504:1 3771:1 3999:1 4042:1 5013:1 5116:1 5134:1 5224:1 5406:1 5526:1 5532:1 6636:1 7267:1 7497:1 7691:1 7757:1 
0.0010081900764802403 1225:1 2753:1 3210:1 3786:1 4907:1 6020:1 7628:1 7829:1 8615:1 
0.055115697264073768 2250:1 2739:1 3359:1 3589:1 4088:1 6678:1 7670:1 7821:1 7948:1 8141:1 
0.011116756225452506 1085:2 1107:1 1461:2 1523:1 1795:1 2443:1 2531:1 2768:1 3771:3 3847:1 4059:2 4172:1 4353:1 4701:1 5057:1 5224:2 5526:1 6281:1 6985:1 7757:2 8032:1 8284:1 8289:1 8355:1 8555:1 
0.0071321219558238514 1085:1 2153:1 2594:1 3006:1 3309:1 3635:1 4207:1 5138:1 5224:1 5304:1 7804:1 
0.083628289438961834 860:1 964:1 1085:1 1194:1 2676:2 3398:1 4670:1 5421:1 5478:1 5526:1 6599:1 7628:1 7670:1 7730:1 8245:1 8313:2 8355:1 8433:1 8609:2 
0.00075434034540861668 860:1 1953:1 4251:1 4469:1 4740:1 4923:1 4940:1 5406:1 5558:1 5628:1 5888:1 6400:1 6892:1 6898:1 7146:1 7331:1 8615:1 
0.014347905531370903 860:1 1030:1 1046:1 1055:1 1531:1 1633:1 1779:1 1840:1 1890:1 1939:1 2459:1 3079:1 3309:1 3564:1 3771:3 3920:1 3921:1 4207:2 4448:2 4588:1 5127:1 5478:1 5610:1 6281:1 6754:1 6915:1 7002:1 7040:1 7622:1 7670:3 7722:1 7757:2 8471:1 8609:3 8615:1 
0.0042984094036906144 587:1 1085:1 1840:1 2450:1 2676:1 3527:2 3528:1 3615:1 3815:3 4184:1 4207:3 4219:1 4452:2 4609:1 4883:1 4944:1 5133:1 5169:1 5245:2 5478:3 5532:1 5785:1 5810:1 6272:1 6634:1 6796:1 7280:1 7565:1 8333:1 8378:2 8526:1 8592:1 
0.039968057982680563 1053:1 1085:2 1184:1 1439:1 1661:1 2713:1 3317:1 3577:1 4434:1 5224:1 5644:1 5717:1 6071:1 6119:1 8378:2 8609:2 
0.010776645808670769 1121:1 1346:1 2151:1 2717:1 3092:1 3771:1 3949:1 3954:1 5326:1 5478:1 5500:1 5526:1 5834:1 7628:1 8609:1 
0.031716394659710788 985:1 1030:1 2151:1 3771:1 5500:1 7757:1 
0.048301752568046995 1184:1 3504:1 3832:1 4030:1 4088:1 5406:1 5478:1 5610:1 5628:1 6528:1 6819:1 7670:1 7927:1 8284:1 8296:1 8609:1 8615:1 
0.047674102740457538 1085:1 2676:1 3000:1 3609:1 3643:1 3746:1 3771:1 4330:1 5478:1 6726:1 8609:1 
0.028007730813306951 1439:1 1779:1 3359:1 4670:1 5335:1 7319:1 8315:1 
0.17257986786927354 1085:1 1814:2 3858:2 4128:1 5421:2 5478:1 7560:1 7637:1 8609:1 
0.0031237075552465721 3061:1 3359:1 3847:1 4042:1 4353:1 4448:1 4616:1 4869:1 5368:1 5571:1 6400:1 6623:1 7156:1 7628:1 7757:2 7778:1 8289:1 8339:1 8433:2 8592:1 8609:2 
0.005264676778000946 483:1 1545:1 2906:1 3771:1 3922:1 4933:1 5505:1 5571:1 7050:1 8259:1 8609:1 
0.013537774036576118 1085:1 1184:1 2140:1 3398:1 4207:1 4226:1 4284:1 4556:1 5421:1 5796:1 5812:1 7254:1 7670:1 7757:1 8032:1 8355:1 8609:1 8615:1 
0.10244530538137235 1085:1 3233:1 3498:1 4487:1 6683:1 
0.034741200423002223 502:1 608:1 1025:1 2850:1 3309:1 3847:1 4174:1 4207:1 4219:3 6342:1 6683:1 6717:1 7599:1 7628:1 7670:1 7757:1 8601:1 
0.043063383623222228 533:1 1184:1 1304:1 3309:1 4348:1 5526:1 7033:1 8609:1 
0.021941906294742703 1130:2 1145:1 1633:1 2717:1 3233:1 3309:1 3760:1 3771:2 3831:1 4078:1 4088:2 4186:1 4226:1 4353:2 4448:1 5118:1 5406:1 5526:1 5628:1 5857:1 6726:1 6734:2 6849:1 7025:3 7596:1 7622:2 7628:1 7757:2 8595:1 8597:1 8609:3 8620:1 
0.10836219427285387 3771:1 4088:1 6944:1 7214:1 8609:1 
0.043242271848597642 1739:1 2085:1 2611:1 2835:1 2877:1 3191:1 3192:1 4042:2 4207:3 4722:4 5571:1 7041:1 7254:1 7628:1 7757:1 8378:1 8405:2 8433:2 8489:1 
0.029635055242985604 966:1 1055:1 1097:1 1237:1 1814:1 2151:1 3398:1 3551:1 3595:1 4088:1 4500:1 5238:1 5437:1 7628:1 7757:2 8402:1 
0.017084988625664696 2676:1 3551:1 3689:1 3954:1 5159:1 5526:1 6696:1 6880:1 7757:1 8609:1 8615:1 
0.062107622640639383 936:1 1030:1 1085:1 1462:1 1814:1 3847:1 4207:1 5055:1 5199:1 5224:1 5628:1 6321:1 7645:1 8355:1 8412:1 8615:2 
0.085079199986688531 2739:1 3815:1 4226:1 5888:1 6921:1 7063:1 7628:1 7757:1 8055:1 8372:1 
0.10326893376994882 1080:1 1085:2 1091:1 1479:1 1753:1 3193:1 3504:1 4859:1 5518:1 7020:1 7021:1 7023:1 7267:1 7757:1 8609:1 
0.054252231908709057 2267:1 2277:1 3309:2 3398:1 3700:1 3758:1 3771:1 4591:1 4994:1 5134:1 5532:1 7067:1 7113:1 7637:1 7933:1 8402:1 8609:2 
0.060601259509404919 1461:1 2395:1 3771:1 6002:1 8609:1 8615:1 
0.033892114267700411 3832:1 4940:1 5373:1 6260:1 7596:1 8362:1 8609:1 
0.11382193380444638 1086:1 2857:1 4915:1 5571:3 7486:1 
0.077427255676382659 1085:1 1160:1 1235:1 1304:1 1814:2 2219:1 3140:1 4088:1 4207:1 5437:1 7628:2 7757:3 8215:1 8372:1 
1 1814:1 3309:1 8222:1 8615:1 
0.048505106042713839 1439:1 1977:1 2661:1 2672:1 3398:1 4126:1 4398:1 4427:1 4823:1 5013:1 6025:1 6227:1 6298:1 6327:1 6347:1 6465:1 
0.027899167564604643 960:1 1055:1 1208:1 1352:1 1439:1 1795:1 2095:1 2152:1 2676:1 3124:1 3398:1 3886:2 5401:1 5406:1 5480:1 5526:1 6947:1 7025:1 7229:1 7628:2 7670:1 7681:1 7764:1 7839:1 8284:1 8309:1 8313:1 8402:1 8609:1 
0.016850741167670578 1439:1 4616:1 7154:1 7757:1 8402:1 8609:1 
0.012056485442571178 1121:1 2676:1 3771:1 5987:1 7108:1 7406:1 8289:1 
0.026952535486156736 1299:1 2272:1 3758:1 5812:1 7628:1 7670:1 8324:1 
0.010809095977563365 850:1 1080:1 1085:2 1120:1 1439:1 1607:1 1840:1 1998:1 2999:1 3309:2 3694:1 4120:2 4219:1 4226:1 4875:1 7660:1 8070:1 
0.00011190203757930646 1346:1 3145:1 3533:1 4207:1 4730:1 4741:1 4902:1 5478:1 5503:1 5960:1 7757:1 8069:1 8355:1 8615:1 
0.00970111992386926 1053:1 1085:1 1477:2 1499:1 1735:1 2442:1 3006:2 3213:1 3309:1 3381:1 4207:2 4219:1 4612:1 4741:1 5146:1 6812:1 7646:2 7757:1 7892:1 8222:1 8609:1 
0.037120375611760022 1345:1 2260:1 3420:1 3771:1 4853:1 6000:1 8289:1 8402:1 
0.027992902942003069 1046:1 1085:1 1795:1 2151:3 3359:1 3512:1 4615:1 7555:1 7641:1 7722:1 7757:2 8150:1 8335:1 
0.030661327302081418 1080:1 2874:1 3309:1 3954:1 5187:1 
0.080646499783303155 1030:1 1261:1 1461:1 1779:1 1867:1 1905:1 2260:1 2701:1 3595:1 3771:2 4146:1 4241:1 4676:1 4782:1 5439:1 5478:1 5607:1 5867:1 6748:1 7009:1 7028:1 7145:1 7474:1 7489:1 7628:1 7730:1 8289:1 8443:1 
0.016112514551039309 1852:1 4994:1 5421:1 5812:1 5827:1 5888:1 6474:1 6724:1 7628:1 
0.031939401304325966 2010:1 3847:1 5175:1 5339:1 6724:1 7040:1 
0.0099527341114021249 1161:1 1599:1 2292:1 2682:1 3700:1 3771:2 4940:1 5335:1 5398:1 5478:1 6853:1 7321:1 7637:1 7730:1 7957:1 8032:1 8313:1 8385:1 
0.018615290255704714 1439:1 1456:2 2261:1 2688:1 2690:1 3420:1 3527:2 3777:1 4029:1 4088:2 5292:1 5406:1 5610:1 5712:1 6245:1 6317:1 7226:1 7641:1 7670:2 7722:1 8032:1 8373:1 
0.041690128716418459 1030:1 3771:1 5406:1 6410:1 6525:1 7025:1 8289:1 
0.061651927944911984 1394:1 2598:1 2676:1 3398:1 4226:1 4252:1 4940:3 5731:1 6367:1 7497:1 7934:2 8245:1 
0.025676794033042846 987:1 1030:1 2676:1 3309:1 3577:1 4661:1 5478:1 7659:1 7722:1 7723:1 8330:1 8402:1 
0.060559571769167118 902:1 1184:2 1723:1 2929:1 3398:1 3646:1 3815:1 3842:1 3858:1 3954:1 4741:1 5192:1 5224:1 5762:1 6634:1 6637:1 6677:1 7497:1 7628:1 7722:1 7757:1 8433:2 8609:2 8615:1 
0.0036000957677714066 398:1 1865:1 2282:1 2637:1 3339:1 4226:1 4713:1 5398:1 5505:1 5526:1 5532:1 5838:1 6589:1 8372:1 
0.033095716105580167 1030:1 1085:1 2715:1 4782:1 8330:1 8565:1 
0.078325795387056862 1012:1 1030:1 1225:2 1461:1 1823:1 1824:2 2267:1 3309:1 3382:1 3758:1 4808:1 5765:1 6042:1 6407:1 6751:1 7757:1 8615:3 
0.077665904992106891 1085:2 1184:1 1666:1 3484:1 3815:1 4434:1 4616:1 4742:1 4751:1 5057:1 5478:1 6372:1 6724:1 7664:1 7747:1 7757:1 7764:1 8609:5 
0.063622310484765784 1046:1 1184:1 1707:1 2678:1 3446:1 5571:1 8609:1 
0.17008146110934289 1261:1 1527:1 3551:1 4588:1 5020:1 7757:1 
0.05301630024885598 858:1 1439:1 4670:1 4959:1 6271:1 6847:1 7596:1 7757:2 8032:1 8362:1 8580:1 8609:1 
0.040408425014488422 890:2 1085:1 1439:1 2565:1 2725:1 3758:1 4042:1 4353:1 5118:1 5785:1 6629:1 6724:1 6734:1 7290:1 7628:3 7757:1 8402:1 8609:1 8615:1 8620:1 
0.10838311254715584 1162:1 1814:1 4042:1 4353:1 4940:1 5292:1 6281:1 7044:1 7497:1 7757:2 8504:1 8609:1 
0.021454297507406017 1055:1 1778:1 3210:1 3219:1 3309:1 3335:1 3832:1 4712:1 4961:1 5326:1 7757:2 7897:1 8581:1 8609:1 
0.0020091192975440582 1085:1 1377:1 1419:1 1508:1 4454:1 6253:1 7739:1 7757:1 
0.19238175750665124 608:1 860:1 1461:1 3481:1 3504:1 3761:1 3847:1 3920:1 4329:1 4523:1 5039:1 5421:1 7661:1 7670:1 7934:1 
0.051886994291159637 1508:1 2193:1 2676:1 3198:1 3954:1 5372:1 6724:1 
0.062692653822613409 860:2 964:1 1508:1 1795:1 3022:1 3336:1 3384:1 3669:1 4207:1 4226:1 4353:1 4994:1 5245:1 5406:1 5478:1 6162:1 6270:1 6698:1 6995:2 7628:2 7933:1 
0.061719686389197725 4042:1 4112:1 4207:1 4592:1 4947:1 5571:1 6312:1 6742:1 7670:1 8405:1 
0.038448527469693204 1030:1 5653:1 6099:1 8330:1 8615:1 
0.070076492135057206 1040:1 1126:1 1852:1 2676:1 3818:1 4042:1 5292:1 5368:1 7316:1 7318:1 7757:1 8437:1 8609:2 8615:1 
0.043909551525133851 860:1 1030:1 1085:1 1171:1 2703:1 3530:1 3707:1 4219:1 5055:1 5224:1 5347:2 5610:1 5948:1 6203:1 6782:1 7670:1 7797:1 8032:1 8259:1 8289:1 8433:1 8495:1 8609:1 
0.42998100314567655 1343:1 4727:1 8609:1 
0.034907134902390363 2145:1 3702:1 3943:1 4219:1 5176:1 5538:1 8601:1 
0.036133467183067834 1041:1 1355:1 3187:1 3218:1 3533:1 3635:1 5024:1 5406:1 5500:1 5871:1 7628:1 7726:1 7843:1 8007:1 8256:1 8402:1 
0.019532592570402161 860:1 945:1 1085:3 1343:1 1779:1 2676:1 3015:1 3309:1 3464:1 3577:1 3747:1 3920:1 4088:1 4207:1 4570:1 4670:1 4741:1 4849:1 5326:1 5785:1 6141:1 7040:1 7151:1 7497:1 7622:1 7757:5 7874:1 8247:2 8362:1 8425:1 8433:2 8565:1 8581:1 8609:3 
0.01565967908479177 2192:1 4059:1 4849:1 5583:1 7040:1 7722:1 7757:1 7889:1 8330:1 
0.068736616289716113 1085:2 1118:1 1184:1 1707:1 3164:1 3381:1 3818:1 3954:1 4088:1 4448:1 4616:1 5118:1 5292:2 5421:1 5735:1 6385:1 6649:1 6847:1 7025:1 7321:1 7622:1 7625:1 7757:1 8115:1 8385:1 8609:2 8615:1 
0.10043275133625915 1085:1 1636:1 2135:1 3334:1 3398:2 3771:1 4520:1 5362:1 5478:1 5526:1 5657:1 5969:1 5990:1 6408:1 6691:1 7213:1 7628:4 7654:1 7686:1 8032:1 8366:1 8430:1 
0.021697207885378482 860:1 1439:1 1461:1 2770:1 3309:1 4088:1 4226:1 4349:1 4667:1 5134:1 5224:1 5675:1 6847:1 7933:1 8115:1 8492:1 8582:1 8609:2 
0.085362898383085084 3309:1 3337:1 4994:1 6115:1 6696:1 7628:1 
0.0076485263296866409 1072:1 1508:1 1795:1 2153:1 2332:1 2676:1 3202:1 3218:1 3309:1 3456:1 3457:1 3557:1 3721:1 3895:1 4207:1 4448:1 4741:1 4824:1 5532:1 7025:1 7622:1 7678:1 8378:1 8385:1 8433:1 8609:2 8615:2 
0.27200751810176643 2452:1 2625:1 3551:1 3771:1 4616:2 4875:1 5335:1 5526:1 7089:1 7496:1 7757:1 8313:1 8504:1 8609:2 
0.017692943247767341 1167:1 1779:1 3771:1 4219:1 4931:1 5134:1 5669:1 5976:1 6847:1 
0.0022035460517275166 1187:1 1807:1 3420:1 3879:1 3940:1 4226:1 4426:1 4875:1 5467:1 5478:1 5831:1 7637:1 7677:1 7797:1 7999:1 
0.030990223514854469 1840:1 2140:1 2443:1 3219:1 3221:1 3815:1 4042:1 4233:1 4381:1 4741:1 4940:1 5421:1 7025:1 7934:1 8362:1 8555:1 
0.019604734492235813 1030:1 1225:2 1461:1 1823:1 1824:2 2267:1 3309:1 3382:1 3758:1 4970:2 5037:1 5441:1 5594:1 5765:1 6042:1 6407:1 6751:1 7757:1 8131:1 8615:3 
0.020980666249317711 971:1 1030:1 1121:1 1225:2 1261:1 1795:1 1943:1 2233:1 2260:1 2676:1 2910:1 2996:1 3398:1 3700:1 3771:1 4940:2 5013:1 5224:2 5406:2 5437:1 5571:1 5683:1 5812:1 5880:1 6070:1 6403:1 7067:1 7235:1 7402:1 7757:1 8156:1 8402:1 8433:1 8609:3 8615:2 
0.030991234302729102 1461:1 2460:1 2503:1 3309:1 3996:1 4616:1 7688:1 8032:1 8115:1 8312:1 
0.018321936682947609 1085:2 2218:1 2930:1 3396:1 3551:1 3747:1 4219:1 4875:1 5086:1 5113:1 5581:1 5645:1 6260:1 7757:1 8207:1 8368:1 8425:1 8609:2 
0.016201560901977385 3771:1 4567:1 4980:1 5101:1 5571:1 8609:1 
0.0074638808111159392 1994:1 2135:1 2210:1 5888:1 7628:2 7722:1 7757:1 
0.030104706096239282 1085:1 2826:1 3309:2 3577:1 3809:1 4207:1 4390:1 5118:2 5138:1 5478:1 5763:1 6267:1 6320:1 6599:1 6995:1 7131:1 7132:1 7133:1 7628:1 7722:2 7927:1 
0.10280460311957738 3747:1 4972:1 5326:1 8582:1 
0.0079783054966847539 1030:1 1072:1 1538:1 1694:1 1701:1 2260:1 2459:1 3272:1 3373:1 3582:1 3771:1 5339:1 7387:1 7648:1 7757:1 7932:1 8222:1 8425:1 
0.0077547918519526903 387:1 1133:1 2930:1 3119:1 3532:1 4226:1 4376:1 4452:1 5505:1 6588:1 7614:1 8051:1 8175:1 8432:2 8565:1 
0.055064961891088046 1030:1 1085:1 3056:1 3559:1 3920:1 7596:1 7782:1 8330:1 8363:1 8402:1 8609:3 
0.0055991503897524462 971:1 995:1 2156:1 2676:1 3309:1 5610:1 7614:1 8402:1 
0.18635292931783634 1085:1 1862:1 3309:1 3721:1 3771:1 3949:1 4088:1 4304:1 5224:1 5326:2 5538:1 5694:1 
0.067674445370414241 1085:1 1208:1 1439:1 1920:1 2460:1 2760:1 3309:1 4088:1 4588:1 4834:1 5215:1 5547:1 6883:1 6920:1 7020:1 7355:1 7383:1 7628:1 7646:1 7757:1 8219:1 8289:1 8362:1 8376:1 8385:1 8490:1 
0.032238316920932028 3034:1 3771:1 4881:1 7489:1 7757:1 8433:1 
0.035411820379568332 1955:1 3504:1 4088:1 5090:1 5138:1 5224:1 5880:1 8032:1 8362:1 8609:1 
0.11140029820898875 1852:1 5526:1 6495:1 7025:1 7628:1 7934:1 
0.17689403273860846 5505:1 6400:1 7950:1 8051:1 
0.046761242539279248 1085:1 1795:1 2676:1 3299:1 3309:1 3379:1 3551:1 3771:1 4088:1 4941:1 5134:1 5500:1 5610:1 7628:1 7757:1 7793:1 8245:1 8284:1 8609:1 8615:1 
0.029498170856603802 3533:1 3771:1 5234:1 5292:1 5785:1 7757:1 8355:1 8609:2 
0.048988042132209669 2914:1 3533:1 5127:1 5526:1 5863:1 7670:1 7757:1 
0.040556374619694177 1184:1 1208:1 1242:1 4353:1 5406:1 5571:1 7254:1 8609:1 
0.1967678730972193 1852:1 4994:1 5421:1 5812:1 5827:1 5888:1 6474:1 6724:1 7628:1 
0.067695661996621664 860:2 1085:1 1867:1 1876:1 2483:1 3309:1 4207:1 4723:1 5368:1 5538:1 5763:1 7321:2 7622:1 8186:1 8378:1 
0.016800177975439898 964:1 1472:1 1814:1 1977:1 3398:1 3748:1 4088:1 4604:1 5607:1 5888:1 6012:1 6178:1 7025:1 7972:1 8130:1 8402:2 
0.12103534760169271 1184:1 5326:1 5868:1 8355:1 8582:1 8615:1 
0.057837708200365344 1080:1 1795:1 2290:1 3309:1 3946:1 4088:1 4616:1 4712:1 5224:1 5571:1 6517:1 7025:1 7257:1 7267:1 7661:1 7757:1 7874:1 8032:1 
0.2600362958424261 2425:1 3148:1 3398:1 4940:1 7596:1 7670:1 7722:1 8615:1 8669:1 
0.0040726870840296853 868:1 985:1 1005:1 1053:1 1386:1 1795:1 2805:1 3031:1 3134:1 3233:1 3483:1 3595:1 3772:1 3979:1 4771:1 4967:1 5406:1 5532:1 5607:1 6400:2 6796:1 7025:2 7370:1 7722:1 8051:1 8485:1 
0.13559544635493323 4207:1 4565:1 5628:1 8051:1 
0.090895203825252194 2762:1 3124:1 3577:1 3815:1 4526:1 5571:1 7050:1 8313:1 
0.0026316938787167912 2145:1 2452:1 3015:1 3418:1 4207:1 4728:1 4994:1 5057:6 5245:1 5437:1 6725:1 6734:2 7040:1 7596:1 7625:1 8133:1 
0.064277307586228197 1343:1 2593:1 3005:1 3194:1 3309:1 3564:2 3842:1 3954:1 4219:1 5326:1 5610:1 8366:1 8582:1 8609:1 8615:1 
0.24874953626494598 1814:1 3398:1 3595:1 5437:1 8174:1 8615:1 
1 1352:1 1814:2 1840:1 5055:1 5880:1 7077:1 8609:1 8615:1 
0.059863012247984959 1122:1 1240:1 1268:1 2897:1 3309:1 3398:1 4125:1 4616:1 5322:2 5719:1 5720:1 5845:1 5880:1 6125:1 6733:1 6789:1 6876:1 7003:1 7687:1 7698:1 8433:1 8615:1 8620:1 
0.007733619316801321 1030:1 1043:1 1085:2 2715:1 3309:1 3512:1 4247:1 5134:2 5196:1 5224:1 5292:1 5526:1 5532:1 5538:1 6272:1 7710:1 8070:1 8362:1 8604:1 
0.12663725066306872 4207:1 4753:1 5378:1 5812:1 
0.33748592433505054 890:1 4207:1 5437:1 8355:1 8615:1 
0.052009820471353392 1976:1 2472:1 2593:1 3831:1 3954:1 4207:1 7497:1 7757:1 8609:1 
0.017457064587534342 893:1 1080:1 1184:1 1208:1 3575:1 4042:1 4091:1 4219:1 4226:1 5478:1 5571:1 5896:1 6019:1 6584:1 7020:1 7213:1 7654:2 7795:1 8402:1 
0.10733570401714985 2156:1 2569:1 2824:1 3031:1 3450:1 5326:1 5335:1 7628:1 8627:1 
0.40288736318075608 1044:1 3554:1 3771:1 5326:1 5421:1 
0.018863154473668039 1867:1 3212:1 3818:1 5478:1 6081:1 7489:1 8402:2 
0.0073040425298938564 897:1 1479:1 1795:1 1798:1 3005:1 3020:1 4059:1 4088:1 4139:1 4142:1 4311:1 4616:1 4655:1 4980:1 5110:1 5526:1 5891:1 6377:1 7044:1 7089:1 7834:1 8324:1 
0.024976497900588975 1030:1 1184:1 1501:1 1722:1 1965:1 4207:1 6062:1 7622:1 7628:1 8385:1 8609:1 
0.12501629505156281 3061:1 3359:1 3847:1 4042:1 4353:1 4448:1 4616:1 4869:1 5368:1 5571:1 6400:1 6623:1 7156:1 7628:1 7757:2 7778:1 8289:1 8339:1 8433:2 8592:1 8609:2 
0.085501510998310146 1085:1 1121:1 1225:1 2847:1 4207:2 4523:1 5322:1 5478:2 5526:1 6838:1 7025:1 7560:1 7670:1 7757:1 8247:1 8372:2 8385:2 8433:1 8609:2 
0.002013837328901087 542:1 646:1 1814:1 2576:1 5638:1 5660:1 7775:1 8504:1 
0.026457353011178023 1085:1 1636:1 3712:1 4153:1 4219:2 4850:1 5242:1 5478:1 5526:1 6170:1 6357:1 6818:1 7654:1 7678:1 7993:1 8114:1 8362:1 8376:1 8615:1 
0.16169813623123092 1030:1 1085:1 1265:1 1499:1 3382:1 3398:2 3595:1 3795:1 4088:1 4937:1 5052:1 5224:1 5406:1 5437:3 5518:1 6726:1 7607:1 7628:1 7670:2 7757:1 8115:1 8259:1 8385:1 8469:1 8581:1 8609:1 8615:3 
0.0068748534036218289 868:1 1085:1 1121:1 1424:1 1821:1 2010:1 2130:1 2203:1 2770:1 2814:1 2999:1 3309:2 3795:1 4007:3 4207:2 4219:1 4875:1 5428:1 5538:1 6081:1 6287:1 6542:1 6796:1 7628:1 7641:1 7700:1 7701:1 8155:1 8157:1 
0.034067793969629757 1085:1 2358:1 2450:1 2483:1 2527:1 2930:1 3557:1 3758:1 4207:1 4824:1 4849:1 4959:1 5769:1 5785:1 7044:1 7057:1 7416:1 7720:1 7722:1 7757:1 8051:1 
0.064914159837954968 1538:1 1795:1 1840:1 3398:1 3818:1 4042:1 4961:1 5599:1 5829:1 7459:1 8032:1 8051:1 8245:1 8368:1 
0.041318040367091753 1030:1 1085:2 1261:1 1461:2 1568:1 1692:1 3309:3 3416:1 3624:1 3771:1 3818:1 5224:1 6106:2 6474:1 6679:1 7489:1 7613:1 7628:1 7670:1 7723:1 7757:1 8115:1 8402:1 8468:1 8471:1 8481:1 8609:2 8615:1 
0.136185302017684 1439:1 3299:1 3309:1 3832:1 8402:1 8609:1 
0.11506772194312796 1046:1 1085:1 1184:1 1614:1 1795:1 3771:1 3954:1 4003:1 5480:1 7628:1 7722:1 8284:1 8609:2 8615:1 
0.17631045085524807 919:1 2145:2 2233:1 3309:1 3359:1 3418:2 3635:1 3664:1 3758:1 3847:1 4088:1 4219:1 4649:1 4764:1 5090:1 5134:1 5368:1 5526:1 5763:1 5857:1 6724:1 7003:1 7634:1 7757:2 8167:1 8537:1 8609:1 
0.012401453149917528 1021:1 1225:2 1543:1 2200:1 3129:1 3187:1 3865:1 4088:1 4207:1 4451:1 4849:1 5043:1 5628:1 6260:1 7415:1 8609:1 
0.14289291310094041 1245:1 2676:1 2698:1 2930:1 4741:1 7328:1 8609:1 8615:1 
0.030297395763170532 1039:1 1085:1 1439:1 2468:1 2713:1 3398:1 3658:1 3664:1 3771:1 4207:1 4219:1 4415:1 4764:1 5118:1 5224:1 5368:1 5406:2 5518:1 6057:1 6260:1 6849:1 7321:2 7411:1 7493:1 7560:1 7670:2 7757:2 8385:1 8433:1 8582:1 8609:2 
0.034009921804842767 1085:2 1542:1 1810:1 4604:1 5002:1 5127:1 5215:1 5245:1 5478:1 5706:1 6400:1 6724:1 7555:1 7628:1 8051:2 8402:1 8433:1 8581:1 
0.019952507008855102 1612:1 2001:1 2873:1 3309:1 3712:1 4042:1 4342:1 5505:1 6781:1 7622:1 8433:1 8609:1 
0.01872653034015152 1072:1 1080:1 1331:1 1739:1 1840:1 2676:1 2757:1 2978:1 3026:1 3052:1 3384:1 3583:1 3691:1 3771:1 4059:1 4207:2 4219:1 4337:1 4458:1 5068:1 5169:2 5339:1 5478:1 6211:1 6212:1 6922:1 6952:1 7152:1 7446:1 7717:2 8218:1 8396:1 8521:1 8635:2 
0.087786721899155998 2676:1 3771:1 4849:1 6062:1 6272:1 7067:1 7628:1 7659:1 8350:1 8402:1 8609:2 
0.060437414834978026 398:1 1355:1 1814:1 2279:1 3673:1 4215:1 4741:1 5053:1 5292:1 7622:1 8245:1 8372:1 8565:4 
0.10048240599462144 1183:1 1779:1 2043:1 2676:1 2930:1 3847:1 4899:1 4991:1 8464:1 
0.20855945395885775 1523:1 2580:1 3771:1 4769:1 7025:1 7040:1 7737:1 7757:1 8289:1 8402:1 8405:2 
0.0080346692332057216 1085:1 1130:2 2483:1 2593:1 2676:1 3551:1 3815:1 3954:2 4042:1 4181:1 4353:1 5229:1 5406:1 5571:1 6626:1 6696:1 7604:1 7622:1 7757:3 7782:1 7897:1 8259:1 8609:2 
0.036423615831187743 2676:1 3654:1 3773:1 4219:1 4561:1 4771:1 4910:1 5224:1 5292:1 6400:1 7722:1 7757:1 7820:1 8267:1 8658:1 
0.19277867930340262 3233:1 3771:1 5215:1 5500:1 5610:1 6272:1 6835:1 7491:1 8094:1 8615:1 
0.13357668791769176 1085:1 3771:1 3784:1 3946:1 4353:1 5478:1 6878:1 7560:1 7637:1 7722:1 7757:1 8069:1 8245:1 
0.096023145224707701 815:1 1080:1 1085:1 3309:1 3577:1 3703:1 3794:1 4887:1 5491:1 5526:1 5660:1 7628:1 7757:1 
0.14094452658347059 1124:1 2713:1 2893:1 3771:1 4940:1 5411:1 5880:1 6634:1 7596:1 7757:1 
0.041794443958730339 2713:1 3398:1 3512:1 4219:1 4390:1 5526:1 5628:1 6170:1 6496:1 6967:1 7321:1 7622:1 7628:1 7646:1 7654:1 7757:1 
0.35250218095365848 1814:1 2400:1 5857:1 8402:1 8609:1 
0.048995056306868505 458:1 2721:1 3954:1 4782:2 4940:1 5187:1 6480:1 7066:1 7115:1 7990:1 8555:1 
0.11187531051676437 5368:1 5826:1 5880:1 6260:1 6724:1 
0.022266671475906882 851:1 1184:1 1779:1 3002:1 3309:1 3504:1 4219:1 4226:1 4849:1 5335:1 6097:1 7158:1 7213:1 7628:1 7757:1 8077:1 8609:1 
0.016474134273664488 1085:1 1439:1 1779:1 1795:1 1814:1 1857:1 2179:1 2916:1 3129:1 3309:1 3954:2 4207:1 4487:1 4881:1 5224:1 5322:1 6081:1 6271:1 6847:1 7415:1 7622:1 7628:2 8402:1 8433:1 8482:1 8609:2 
0.017684982941549934 1030:1 1180:1 1779:1 2325:1 2593:1 3317:1 4741:1 5080:1 5142:1 5224:1 5292:1 5478:1 7238:1 7446:1 7560:1 7757:1 8245:1 8609:5 8632:1 
0.11625418675082667 860:1 914:1 964:1 1184:1 1208:1 2676:1 2822:1 3230:1 3771:1 4604:1 4697:1 5571:1 5610:1 6173:1 7077:1 7497:1 7757:1 8609:2 
0.16418714942057969 3398:1 3577:1 3794:1 4226:1 7757:1 8609:1 
0.052226968720897944 1072:1 1185:1 1467:1 1814:3 1840:1 2082:1 2308:1 3771:2 4088:1 4940:2 5437:1 5478:1 5610:1 5895:2 6261:1 6862:1 7025:1 7757:1 8058:1 8109:1 8609:1 8615:1 
0.039150795366140224 860:1 1953:1 4251:1 4469:1 4740:1 4923:1 4940:1 5406:1 5558:1 5628:1 5888:1 6400:1 6892:1 6898:1 7146:1 7331:1 8615:1 
0.051495204240288785 3504:1 3595:1 3771:1 4042:1 4219:1 5406:1 5421:1 6210:1 7723:1 8402:1 8548:1 8609:1 
0.047807745967752807 1251:1 1828:1 1840:1 2595:1 3377:1 3771:2 4219:2 5421:1 5812:1 7489:1 7628:1 7670:1 8289:3 8464:1 8581:1 
0.067562942085932803 1085:1 1422:1 1513:1 1784:1 2277:1 2703:1 3309:1 3771:1 3954:1 4905:1 5224:1 6589:1 8362:1 8402:1 8609:1 
0.03219072483025498 3398:1 3794:1 6781:1 7213:1 
0.057070107779975419 587:1 1085:1 1840:1 2450:1 2676:1 3527:2 3528:1 3615:1 3815:3 4184:1 4207:3 4219:1 4452:2 4609:1 4883:1 4944:1 5133:1 5169:1 5245:2 5478:3 5532:1 5785:1 5810:1 6272:1 6634:1 6796:1 7280:1 7565:1 8333:1 8378:2 8526:1 8592:1 
0.017667294335717676 1030:1 2216:1 2935:1 3669:1 3771:1 4088:2 4367:1 5166:1 5682:1 5714:1 6092:2 6719:1 7313:1 7628:1 7670:1 8609:1 
0.027559283630098942 1030:2 1085:1 1208:1 2715:1 3015:1 3430:1 3535:1 3920:1 4042:1 4207:1 4219:1 4283:1 4353:1 4402:1 4561:1 4684:1 4685:1 5155:1 5335:1 5406:1 6367:1 7077:1 7101:1 7628:3 8245:1 8362:1 8433:1 8609:3 8615:1 8619:1 
0.040077385282128709 964:1 3530:1 3960:1 4112:1 5322:1 6238:1 8604:1 
0.0061254324670008114 1030:1 2717:1 3317:1 5224:1 5339:1 5478:1 5853:1 5880:1 6696:1 7501:1 7757:2 8245:1 8609:2 
0.14884264802716315 2260:1 3783:1 4940:1 5610:1 7596:1 8362:1 8609:1 
0.08000261955871639 2459:1 3771:1 4741:1 5107:1 5134:1 6470:1 7610:1 8481:1 8609:1 
0.030850552523633418 323:1 1133:1 1183:1 2769:1 4513:1 4523:1 6198:1 8536:1 
0.07410215203519481 1184:1 6062:1 6764:1 7025:1 7613:1 8609:2 
0.058659559094081597 1030:1 1085:1 2618:1 3341:1 3673:1 4088:1 4520:1 5347:1 5478:1 5610:1 5803:1 7133:1 7628:1 8378:1 
0.10156983427385748 483:2 974:1 3216:1 3309:1 4023:1 4207:1 5571:1 7641:1 8590:1 
0.031998260272766352 1085:1 1248:1 1814:1 2400:1 2897:1 3847:1 6129:1 7408:1 7549:1 7692:1 7757:1 8065:1 
0.063103173462417381 985:1 1439:1 2828:1 3221:1 3758:1 3771:1 4088:1 4207:1 4219:2 4448:1 4588:1 4637:1 4853:1 5526:1 6696:1 7628:1 7757:1 8362:1 8402:1 8500:1 8609:3 
0.0030971407295255051 1085:1 1852:1 2290:1 2322:1 2500:1 2676:1 3309:3 4063:1 4207:2 5347:2 5526:1 5610:1 6281:1 6629:1 6644:1 6683:1 6819:1 6829:1 7055:1 7525:1 7622:1 7646:1 7661:1 8032:1 
0.054766115986398078 1085:1 1890:1 3504:1 4267:1 4670:1 7040:1 7596:1 7641:1 7768:1 
0.18007274755357741 1237:1 2011:1 3321:1 3471:1 3557:1 4207:1 4661:1 4744:1 6400:1 8355:1 
0.076509028161794224 1080:1 1096:1 3213:1 3954:1 4448:1 4994:1 5421:1 5492:1 6734:1 6796:1 7757:1 8609:1 
0.00074072899502674195 964:1 1045:1 1535:1 2140:1 2384:1 2701:1 3562:1 3959:1 4307:1 4400:1 5628:1 6461:1 6990:1 7628:1 8243:1 8284:1 8552:1 
0.021014396755292705 810:1 1795:1 2676:1 3949:1 4042:1 4088:1 4588:1 7628:1 7670:1 8245:1 8609:2 
0.019959351068370178 1261:2 1304:1 1401:1 1747:1 1784:1 3309:1 4042:1 4207:2 4520:1 5874:1 6243:1 6285:1 7542:1 7628:2 7654:1 8025:1 
0.010387278783103141 892:1 2233:1 2384:1 2400:1 2565:1 3045:1 3309:2 3771:1 4029:1 4275:1 4841:1 6734:1 6747:1 7757:1 8051:1 8065:1 8289:1 
0.064252622400883266 1779:1 2801:1 3508:1 3688:1 4207:1 4219:1 6278:1 7757:1 7797:1 8070:1 8378:1 
0.14537900800513115 914:1 1085:1 1352:1 1814:1 3609:1 4207:1 5013:1 6501:1 6724:1 6917:1 6954:1 7025:1 7254:1 7596:2 8223:1 8259:1 8333:1 8362:1 8402:1 8609:1 
0.013989412826565724 1085:1 1322:1 2990:1 3119:1 3309:1 3831:1 4353:1 4520:1 5144:1 5347:1 5607:1 5714:1 6009:1 6012:1 
0.11864880303360639 1261:1 1814:1 3902:1 5880:1 
0.035732358944687827 1072:1 1080:1 1125:1 1240:1 1273:1 1461:1 1795:2 1814:1 1827:1 1863:1 2108:1 2110:1 2211:1 2310:1 2646:1 2676:2 3398:1 3664:2 3758:1 4018:1 4042:1 4219:1 4230:1 4237:1 4764:2 4849:1 5090:1 5150:1 5368:1 5378:1 5406:1 5407:1 5478:2 5571:1 5895:1 6896:1 7025:1 7586:1 7628:2 7757:2 7948:1 8069:1 8125:1 
0.052386938181053555 1043:1 1053:1 1924:1 2459:1 2593:1 2676:2 2693:1 2914:1 3398:1 3771:1 5215:1 5224:1 5478:2 5526:1 5610:1 6556:1 7628:1 7720:1 7722:1 7757:1 8219:1 8355:1 8480:1 8609:3 8615:2 
0.10001364162892866 971:1 1085:1 1121:1 1463:1 2676:1 3771:1 3949:1 5421:1 7646:1 8357:1 8609:1 8615:1 
0.036538397987924687 1053:1 1184:2 1245:1 1776:1 3005:1 3092:1 3159:1 3997:1 4849:1 5001:1 5142:1 5478:3 5526:1 5532:1 5550:1 5610:1 5763:1 5833:1 5834:1 6170:1 6173:1 6515:1 7628:1 7646:1 7661:1 8115:1 8156:1 8385:1 8504:2 8609:5 8615:3 
0.020597301437763251 2930:1 3577:1 4604:1 5347:1 8051:1 
0.046734270178316155 878:1 1121:1 1779:1 1814:2 1840:1 2596:1 2999:2 3764:1 4940:1 4995:1 5030:1 5478:1 5538:1 5571:1 6909:1 8609:4 
0.012774504170031431 1743:1 2300:1 3323:1 3771:1 3772:1 4741:1 5013:1 6724:1 7757:1 7784:1 7797:1 8565:1 8609:2 
0.0034842908280994667 1157:1 1507:1 1737:1 2175:1 2631:1 3309:1 3551:1 4219:1 4448:1 5278:1 5436:1 5481:1 5538:1 7757:1 
0.0053725587151613498 1030:1 1085:1 2459:1 2593:1 3213:1 3309:1 4366:1 6878:1 6923:1 6959:1 8259:1 8594:1 
0.018764586071080173 3398:1 3512:1 4029:1 4921:1 5482:1 5526:1 5537:1 8362:1 
0.12056453293419635 3575:1 5571:1 6480:1 7670:1 8315:1 8500:1 8609:1 
0.26395593718307997 892:1 2233:1 2384:1 2400:1 2565:1 3045:1 3309:2 3771:1 4029:1 4275:1 4841:1 6734:1 6747:1 7757:1 8051:1 8065:1 8289:1 
0.11444831540094415 860:1 913:1 1784:1 3381:2 3688:1 4219:1 4353:1 4728:1 5421:1 5478:2 7077:1 7321:1 7497:1 7628:1 7757:3 8249:1 8378:1 
0.10250450833712473 1001:1 1156:1 1184:1 1716:1 2460:1 3309:1 3737:1 4124:1 4149:1 4207:1 5881:1 6089:1 7354:1 7622:1 7757:1 8289:1 8402:1 8436:1 8615:2 
0.034503222335157159 971:1 1030:1 1461:1 1532:1 2201:1 2593:1 2930:1 3573:1 3577:2 4309:1 4353:1 4911:1 
0.047804137854618595 1301:1 5326:1 5437:1 5532:1 5538:1 7474:1 7670:1 8069:1 8398:1 
0.012649693915242786 964:1 1085:1 1467:1 1530:1 1829:1 3504:1 3557:1 3818:1 4042:1 4940:1 7025:1 7571:1 7607:1 7646:1 8609:1 8615:1 
0.034177479139008524 956:1 1072:1 1080:2 1225:1 1921:1 2043:2 2554:1 3771:1 4032:1 4207:2 5468:1 5478:1 6332:1 7622:1 7837:1 8051:1 8101:1 
0.13459018920796925 1030:2 1085:2 1184:1 1624:1 1779:1 1967:1 2773:1 2983:1 2987:1 3322:1 3359:1 3920:1 4207:1 4670:1 4940:1 5403:1 5505:1 6260:1 6480:1 7025:1 7596:1 7660:1 7764:1 8243:1 8330:1 8339:1 8362:1 8486:1 8552:1 8609:2 
0.089973652045019836 1814:3 2581:1 3635:1 4408:1 4430:1 4490:1 5053:3 5532:1 5560:1 5812:1 6185:1 6301:1 6550:1 7625:1 8419:1 8433:1 
0.044895130646407357 1085:1 1184:1 1225:1 1479:1 1723:1 1995:1 2472:1 3309:2 3777:1 4353:1 4940:2 5102:1 5526:1 6508:1 6626:1 7497:1 7614:1 7646:1 7757:3 8130:1 8609:2 
0.0063385075726525046 844:1 1085:1 1121:1 1439:1 1467:1 2378:1 3419:1 4425:1 4730:1 4780:1 5292:1 5478:2 7092:1 7536:1 8504:1 
0.042493256684000683 1072:1 1508:1 1795:1 2153:1 2332:1 2676:1 3202:1 3218:1 3309:1 3456:1 3457:1 3557:1 3721:1 3895:1 4207:1 4448:1 4741:1 4824:1 5532:1 7025:1 7622:1 7678:1 8378:1 8385:1 8433:1 8609:2 8615:2 
0.024752189715181065 3:1 323:1 577:1 1208:1 1527:1 1535:1 2622:1 3769:2 3832:1 3847:1 4088:1 4162:1 4219:1 4233:1 4255:1 4322:1 4567:1 4932:1 5571:1 5796:1 6303:1 6584:1 7025:1 7105:1 7379:1 7530:1 8051:1 8656:1 
-0.0027536382716374258 369:1 753:1 1030:1 1085:1 1439:1 2425:1 2460:1 2991:1 2992:1 3504:1 4126:1 4397:1 4413:1 4527:1 5331:1 5478:1 6445:1 6724:1 7267:1 7628:1 7757:2 8027:1 8402:1 
-0.32129010004584024 1080:1 1102:1 2400:1 3398:1 3771:1 4076:1 6026:1 6747:1 8609:1 
-0.0048982585935014762 223:1 432:1 1184:1 1321:1 1814:1 1836:2 2460:1 2522:1 2613:1 3399:1 4500:1 6913:1 8436:1 8609:1 
-0.00192704481904619 65:1 300:1 400:1 1814:1 1890:1 2055:1 3363:1 3519:1 3635:1 3667:1 4662:1 5331:1 5421:1 5557:1 5571:1 7113:1 7757:2 8615:1 
-0.0043635263449222726 212:1 352:1 1030:1 1237:1 1439:1 1814:1 1852:1 2233:1 2455:1 3673:1 3758:1 4448:1 5421:1 5607:1 5900:1 6457:1 6568:1 6747:1 7044:1 8378:1 8402:1 8609:1 
-0.44325249466486072 937:1 3309:1 6255:1 6465:1 7596:1 7675:1 8111:1 
-0.16049514705617585 291:1 457:1 465:1 1334:1 1352:2 1829:1 1840:1 1967:1 2528:1 3551:1 3712:1 3771:1 4782:1 4940:1 5035:1 5421:1 5628:1 5716:1 6764:1 7040:1 7578:1 8482:1 
-0.032675332841965984 402:1 525:1 1080:1 2078:1 2144:1 2928:1 2991:1 3246:1 3292:1 3309:1 3504:1 4123:1 4994:1 5484:1 5526:2 5812:1 6747:1 6854:1 7628:1 7786:1 8051:2 
-0.13923020738582673 745:1 1297:1 1850:1 1857:1 2813:1 4042:1 5163:1 5478:1 6201:1 6314:1 7064:1 7396:1 7399:1 7596:1 7628:1 7757:1 8405:1 8609:1 
-0.0047675813770726933 32:1 298:1 596:1 739:1 1261:1 2400:1 3398:1 3504:1 3847:1 4014:1 4759:1 5090:1 5326:1 5368:1 5379:1 5421:1 5484:1 5538:1 7213:1 7628:1 7757:1 7934:1 7938:1 8480:1 8619:1 
-0.19294187465737164 289:1 442:1 1030:1 1040:1 1261:2 1831:1 2385:1 2459:1 3124:1 3376:1 3847:1 3941:1 3972:1 4226:1 4561:1 4773:2 4962:1 5035:1 5169:1 5628:1 5888:1 8402:1 
-0.038429918760405968 37:1 68:1 369:1 400:1 1085:1 1361:2 1825:1 1890:1 2055:1 2356:1 2877:1 3564:1 4662:1 5497:1 5538:1 5557:1 5565:1 5610:1 7113:1 7757:4 7934:1 8051:1 
-1 26:1 1814:1 3771:1 4588:1 5055:1 5526:1 7077:1 7497:1 7628:1 7722:1 8362:1 8609:1 8615:1 
-0.0066637338278167559 210:1 563:1 930:1 1814:1 2233:1 3213:1 3771:1 4207:1 4712:1 4849:1 5526:1 5610:1 6456:1 6686:1 7025:1 7115:1 7654:1 7665:1 8051:1 8378:3 8433:1 
-0.45233736991958884 539:1 860:1 1208:1 2676:1 3771:1 4088:1 4487:1 4670:1 5478:1 5518:1 6278:1 6557:1 7520:1 7622:1 7684:1 8289:1 8433:1 8582:1 8609:1 
-0.15241639316759997 369:1 940:1 1439:1 2237:1 6843:1 8141:1 8402:1 8433:1 8609:1 8615:1 
-0.0052332627006446714 50:1 2145:1 2459:1 3127:1 3213:1 3969:1 4076:1 4125:1 4207:1 4688:1 4771:1 5541:1 5575:1 5610:1 6075:1 7646:1 7764:1 8051:1 8052:1 8073:1 8385:1 8537:1 8609:1 
-0.13670586777516158 871:1 1085:1 1105:1 2145:1 2676:1 3309:1 3359:1 3398:1 4059:1 4589:1 4900:1 4994:1 4996:1 5978:1 6696:1 6724:1 6726:1 7628:1 7646:1 7651:1 7670:1 8609:2 
-0.10457558831326272 122:1 1080:1 1225:1 1814:1 3309:1 4070:1 4207:1 4994:1 5880:1 7646:1 8055:1 8222:1 8609:1 
-0.0038366778949999129 256:1 352:1 369:1 1814:1 2453:1 3123:1 3213:1 3398:1 3533:1 3673:1 4207:1 4219:1 4448:1 4500:1 5024:1 5526:1 5610:1 6688:1 7042:1 8065:1 8243:1 8355:1 8378:1 8609:2 
-0.25577861599269691 300:1 610:1 1890:1 5571:1 6074:2 8405:1 8498:1 
-0.46855560839283533 178:1 1814:1 3771:1 5326:1 5880:1 8180:1 8609:1 
-0.020281334023894884 299:1 329:1 601:1 609:1 782:1 1321:1 1914:1 1916:1 2146:1 2218:1 2753:1 3362:1 3519:2 3667:1 4546:1 5212:1 5478:1 5571:1 7756:1 7757:1 8051:1 8190:1 8447:1 8537:1 8550:1 
-0.28534058520676897 734:1 1551:1 3309:1 3359:1 4207:1 5318:1 5557:1 6747:1 7628:1 8167:1 
-0.67152453945295876 2237:1 2930:1 3771:1 5090:1 6300:1 8609:1 8615:1 
-0.28576012707278114 1479:1 3771:1 4207:1 5579:1 5580:1 6089:1 6318:1 6483:1 8609:1 8615:1 
-0.41405158079225823 11:1 70:1 649:1 1814:1 3771:1 4994:1 5326:1 8609:1 
-0.0087505156655421027 79:1 100:1 338:1 409:1 641:1 1644:1 1814:1 2315:1 2352:1 3126:1 3940:1 4353:1 4662:1 4765:1 5024:1 5421:1 5431:1 5765:1 5898:1 
-0.0081164772851751773 1795:1 1916:1 1943:1 2914:1 4088:1 4348:1 4428:1 4721:1 4729:2 5421:1 5478:2 6400:2 6451:1 6482:1 7090:1 7232:1 7267:1 7277:1 7628:2 7757:1 7942:1 8405:1 
-0.011001094768433518 2095:1 2630:1 3006:1 3609:1 5090:1 5326:1 5936:1 6483:1 7757:1 8313:1 8615:1 
-0.082532056433125722 1085:2 1425:1 1572:1 1684:1 1784:1 1795:1 1938:1 2153:1 2524:1 3153:1 3309:1 3328:1 3398:1 3504:1 3625:1 3635:1 4088:1 4353:1 5090:1 5326:1 5421:1 6401:1 7489:1 7628:1 8433:1 
-0.5452973059008146 1085:1 1184:2 1967:1 2444:1 2717:1 3771:1 3815:1 3954:1 4088:1 4616:1 4708:1 4741:1 4940:1 6764:1 7560:1 7757:2 7764:1 8355:2 8385:1 8504:1 8609:4 
-1 767:1 6484:1 
-0.00063092998685884401 220:1 354:1 642:1 1030:1 1793:1 1814:1 2050:1 2216:1 2717:1 2987:1 3309:1 3359:1 4190:1 4207:1 4919:1 5053:1 5421:1 5610:1 5712:1 7115:1 7219:1 7413:1 8581:1 8619:1 
-0.29961582306039897 1184:1 1383:1 3940:1 4088:1 4616:1 5224:1 5284:1 5831:1 6696:1 7025:1 7628:1 7654:2 7757:1 7963:1 8339:1 8504:1 8555:1 8609:1 
-0.13303840171496625 495:1 1184:1 1190:1 1290:1 2110:1 2937:1 3213:1 3398:1 5610:1 7963:1 8008:1 8537:1 8609:1 
-0.021913222994975497 207:1 930:1 1814:1 2233:1 3213:1 3771:1 4207:1 4712:1 4849:1 5526:1 5610:1 6456:1 6686:1 7025:1 7115:1 7654:1 7665:1 8051:1 8378:3 8433:1 
-0.021152274910590907 106:1 339:1 479:1 608:1 880:1 1184:1 1814:1 2565:1 3309:1 4353:1 4479:1 4974:1 5090:1 5421:1 5487:2 5538:1 5900:1 6628:3 7670:1 8313:1 8318:1 
-0.0014773312132621858 118:1 311:1 364:1 400:1 970:1 1157:1 1320:1 1461:1 1467:1 1814:1 2085:1 2279:1 2361:1 3771:1 4635:1 5981:1 6109:1 6298:1 6710:1 7119:1 7628:1 7757:1 8609:1 
-0.12240861753141041 281:1 608:1 1085:1 1184:1 1185:1 1211:1 1333:1 1814:1 2697:1 3000:1 3689:1 4088:1 4312:1 4616:1 4762:1 5026:1 5028:1 5134:1 5406:1 5421:1 5763:1 7646:1 7670:1 8385:1 8615:1 8620:1 
-0.02196726834042562 209:1 930:1 1814:1 2233:1 3213:1 3771:1 4207:1 4712:1 4849:1 5526:1 5610:1 6456:1 6686:1 7025:1 7115:1 7654:1 7665:1 8051:1 8378:3 8433:1 
-0.093414642357275729 29:1 352:1 784:1 916:1 938:1 1795:1 2866:1 2997:1 3798:1 4313:1 4692:1 4741:2 4746:1 5095:1 5246:1 5247:1 5249:1 5368:1 5907:1 6724:1 7757:1 7934:1 7941:1 8051:1 8567:1 
-0.0218414326972441 474:1 488:1 726:1 1030:1 1691:1 2110:1 2329:1 2630:1 2866:1 3217:1 3513:1 3609:1 5096:1 5908:1 5930:3 6534:1 6955:1 7737:1 7738:1 7757:1 7787:1 7963:1 8433:1 8603:1 
-0.0042934926600730321 53:1 253:1 930:1 1814:1 2233:1 3213:1 3771:1 4207:1 4712:1 4849:1 5526:1 5610:1 6456:1 6686:1 7025:1 7115:1 7275:1 7654:1 7665:1 8051:1 8378:3 8433:1 
-0.002257644390622651 197:1 608:1 610:1 1317:1 1814:1 2138:1 2280:1 2285:1 2512:1 2715:1 3897:1 4926:1 5421:1 5571:1 5896:1 5906:1 6577:1 6933:1 7034:1 7259:1 7534:1 7763:1 8330:1 8615:1 
-0.039017050121427956 437:1 656:1 704:2 873:1 1439:1 3381:1 3389:1 3569:2 3858:1 3865:1 4183:1 4207:1 5368:1 5571:1 6400:1 6696:1 6724:1 7003:1 7267:2 7757:2 8537:1 8592:1 8609:1 
-0.48442615875970446 860:1 1030:1 1388:1 2153:1 2593:1 2666:1 3794:1 4219:1 4395:1 5326:1 5478:1 7321:1 7628:1 8433:1 8609:1 
-0.48452193548286188 1218:1 1779:1 2203:1 2447:1 2733:1 3309:1 3577:1 5368:1 5571:1 6589:1 7868:1 
-6.4435043063205998e-05 249:1 507:2 578:1 1184:1 1320:2 1814:1 2916:1 4042:1 4909:1 5437:1 5438:1 6298:2 6710:1 7757:2 7765:1 8177:1 8433:1 8615:2 
-0.14549659244115173 57:1 335:1 541:1 1814:1 1816:1 3712:1 4243:1 4631:1 5094:1 5526:1 5571:1 5575:1 6055:1 6386:1 8038:1 
-0.18354032685547739 148:1 1121:1 1355:1 1814:1 2145:1 2335:1 2999:1 3309:1 3771:1 4042:1 4678:1 5425:1 5526:1 6164:1 7572:1 8328:1 8609:1 
-0.010551999434004117 158:1 300:1 352:1 760:1 1085:1 2398:1 2459:1 3551:1 4088:1 4607:1 5169:1 5421:1 5478:1 5526:1 5607:1 5628:1 5706:1 6201:1 6257:1 6724:1 7115:1 7489:1 7628:1 7757:1 7874:1 8095:1 8405:1 8615:1 
-0.084248589934896687 217:1 711:1 723:1 1335:1 1814:1 1890:1 2135:1 2387:1 2992:1 3208:1 5571:1 5900:1 7628:1 7744:1 7757:2 8115:1 8464:1 8609:1 
-0.21569930588745814 590:1 1046:1 1343:1 1511:1 1640:1 3431:1 3504:1 3512:1 3847:1 4042:1 4207:1 4940:1 5169:1 5368:1 5402:1 5599:1 6024:1 6243:1 6349:1 6430:1 6641:1 6981:1 7346:1 7670:1 7681:1 8070:1 8177:1 8565:1 8609:2 
-0.54163577751277314 134:1 308:1 310:1 718:1 1508:1 2279:1 
-0.055345381580500147 208:1 1612:1 1814:2 1827:1 2997:1 3398:1 4616:1 4661:1 5533:1 6606:2 7722:1 7757:1 8504:1 8548:1 8615:2 
-0.01418149361191599 200:1 410:1 411:1 1017:1 1085:1 1352:1 1814:1 3336:1 3398:1 3771:2 3847:1 4207:1 4842:1 4909:2 4996:2 4997:1 5526:1 5880:1 6450:1 7003:1 7670:1 7757:1 8609:2 8615:2 
-0.22029916436548366 516:1 1461:1 1965:1 2505:1 3338:1 4047:1 4125:1 4383:1 4864:1 5406:1 5421:1 5740:1 5784:1 6739:1 6903:1 7531:1 7614:1 7637:1 7757:1 8065:1 8289:1 8402:1 8615:1 
-0.023062920253169895 85:1 638:1 726:1 1022:1 1958:3 2014:1 3309:2 4088:1 4804:1 5088:1 5132:1 5292:1 5381:1 5526:1 5571:1 5930:1 5936:1 6097:1 7062:1 7560:1 7757:1 7786:1 7934:1 8051:2 8643:1 
-0.10632391465230909 32:1 298:1 596:1 739:1 1261:1 2400:1 3398:1 3504:1 3847:1 4014:1 4759:1 5090:1 5326:1 5368:1 5379:1 5421:1 5484:1 5538:1 7213:1 7628:1 7757:1 7934:1 7938:1 8480:1 8619:1 
-0.46950395050589505 3144:1 3366:1 6272:1 6400:1 7787:1 8548:1 
-0.038908153149683877 608:1 745:1 1023:1 1109:1 2297:1 2813:1 4042:1 4088:1 4207:1 4448:1 5873:1 6201:1 7064:1 7100:1 7396:1 7628:1 7757:1 7806:1 7934:1 7951:1 8372:1 8405:1 8447:1 
-0.00058102362231175666 352:1 779:1 940:1 1967:1 3040:1 4088:2 4207:1 4959:1 5169:1 5421:2 5538:1 5857:1 6910:1 7628:2 7757:2 7830:1 7934:1 7963:1 8592:1 
-0.10458966398697714 121:1 1080:1 1225:1 1814:1 3309:1 4070:1 4207:1 4994:1 5880:1 7646:1 8055:1 8222:1 8609:1 
-0.19728754167358789 879:1 940:1 1030:1 1079:1 1080:1 1439:1 2300:1 2460:1 3359:1 3533:1 3847:1 4088:1 4207:1 5437:1 5478:1 5705:1 5812:1 6726:1 7628:1 7670:1 7757:1 8289:1 8372:1 8402:2 8609:2 
-0.07945033410456219 358:1 369:1 379:1 398:1 807:1 1055:1 1085:1 1225:1 1458:1 1795:1 3437:1 3847:1 4511:1 4662:1 4741:1 4940:1 5224:1 5421:1 5518:1 6760:1 7362:2 7596:2 7605:1 7757:1 8482:1 8582:1 
-0.00023451541353696666 211:1 930:1 1814:1 2233:1 3213:1 3771:1 4207:1 4712:1 4849:1 5526:1 5610:1 6456:1 6686:1 7025:1 7115:1 7654:1 7665:1 8051:1 8378:3 8433:1 
-0.026785253332002067 233:1 354:1 522:1 642:1 1793:1 1814:1 2216:1 2673:1 3451:1 4190:1 4268:1 4911:1 5090:1 5212:1 5382:1 5421:1 5871:1 5933:1 6388:1 8051:1 8142:1 8143:1 8390:1 8619:1 
-0.0071698784236514865 117:1 352:1 863:1 1085:1 1343:1 1352:1 1967:1 2145:1 3398:1 3847:1 3902:1 3954:1 4042:1 4059:1 4226:1 4325:1 4703:1 4940:1 7267:1 7271:1 7596:2 7757:1 8166:1 8243:1 8553:1 
-0.046619735828813735 197:1 608:1 610:1 1317:1 1814:1 2138:1 2280:1 2285:1 2512:1 2715:1 3897:1 4926:1 5421:1 5571:1 5896:1 5906:1 6577:1 6933:1 7034:1 7259:1 7534:1 7763:1 8330:1 8615:1 
-0.002555590990971782 57:1 686:1 1085:1 1304:1 1589:1 1814:1 1816:1 2731:1 3359:1 5039:1 5094:1 5150:1 5233:1 5378:1 5526:3 5571:1 5575:1 5816:1 7064:1 7942:1 
-0.0027956333902674595 372:1 1057:1 1480:1 1584:1 1779:1 3398:1 4105:1 4219:3 4557:1 5027:1 5421:1 5458:1 5538:1 6400:1 7622:1 7660:1 7757:1 7886:1 7890:1 7934:1 7942:1 8402:1 8464:1 8609:1 8615:1 
-0.10457541646426405 119:1 1080:1 1225:1 1814:1 3309:1 4070:1 4207:1 4994:1 5880:1 7646:1 8055:1 8222:1 8609:1 
-0.63855907612111451 21:1 54:1 630:1 1814:1 3367:1 5421:1 
-0.023842129112427789 218:1 703:1 1587:2 1814:1 1840:1 2055:2 2201:1 2218:1 2285:1 2361:1 3519:1 3667:1 4088:2 5312:1 5420:1 5571:1 6528:1 7004:1 7710:1 7757:1 7898:1 8159:1 8537:1 
-0.0044824647823045365 169:1 253:1 930:1 1814:1 2233:1 3213:1 3771:1 4207:1 4712:1 4849:1 5526:1 5610:1 6456:1 6686:1 7025:1 7115:1 7275:1 7654:1 7665:1 8051:1 8378:3 8433:1 
-0.48008881347516397 157:1 797:1 801:1 1085:1 1184:1 1814:1 5812:1 6027:1 6748:1 
-0.099687610494175932 47:1 49:1 432:1 456:1 1030:1 2099:1 3359:1 3398:1 4123:1 4487:1 5340:1 5695:1 6522:1 7033:1 7116:1 8433:1 8546:1 8650:1 
-0.25102116179084205 960:1 1030:1 1452:1 2011:1 2151:1 2439:1 3309:1 3954:1 4207:1 4219:1 4661:1 5347:1 5478:1 5610:1 7025:1 7226:1 7492:1 7552:1 7628:1 7722:1 7757:2 8249:1 8378:2 
-0.031016382662236334 471:1 615:1 975:1 1153:1 2145:1 2363:1 3398:1 4927:1 5127:1 5129:1 5169:1 7267:1 7934:1 8299:1 8537:1 
-0.013485189409130285 354:1 672:2 1055:1 1261:1 1956:1 1967:1 3842:1 3930:1 3940:1 4940:1 5242:1 5571:1 6281:1 6696:1 7267:1 7596:3 7757:3 8027:1 8245:1 
-0.0037880040949614421 91:1 803:1 1919:1 2110:1 2459:1 2717:1 3006:1 3360:1 3500:1 4325:1 5053:1 5134:1 5478:1 5610:1 5826:2 5831:1 5915:1 6627:1 6764:1 7190:1 7641:1 7757:1 7934:1 7963:1 8443:2 
-0.21665577904607866 964:1 1121:1 2126:1 2221:1 2455:1 2676:1 3700:1 3771:1 4520:1 5478:1 5538:1 5571:1 6210:1 6734:1 7164:1 7214:1 7497:1 7596:1 7648:1 7661:1 7757:1 7933:1 8313:1 8609:1 
-0.64984124525461673 39:1 401:1 890:1 3309:1 6071:1 7222:1 8615:1 
-0.3803110720689386 608:1 971:1 1352:1 2002:1 2365:1 3339:1 3537:1 3557:1 4940:1 5175:1 5224:1 5432:1 5437:1 5500:1 7025:1 7231:1 7596:1 7670:1 8115:1 8542:1 8615:1 
-0.055880279890440657 71:1 768:2 777:1 879:2 1814:2 2630:1 3242:1 3309:1 3398:1 3503:1 4631:1 5042:1 5368:1 5437:1 5538:1 5758:1 5765:1 6031:1 8133:1 
-0.55998299040901511 873:1 2260:1 3815:1 5976:1 6701:1 7003:1 7388:1 8609:1 
-0.054068837128797863 57:1 686:1 1085:1 1304:1 1589:1 1814:1 1816:1 2731:1 3359:1 5039:1 5094:1 5150:1 5233:1 5378:1 5526:3 5571:1 5575:1 5816:1 7064:1 7942:1 
-0.078745402373213133 709:1 964:1 1218:2 1497:1 1795:1 3398:2 3533:1 3554:2 3829:2 4665:1 4884:1 5039:1 5712:1 6655:1 6845:1 6898:1 7757:1 8433:1 8574:1 
-0.1416697983093837 126:1 284:1 650:1 1814:2 2441:1 2497:1 3126:1 4353:1 4616:1 4940:1 5024:1 5224:1 5261:1 6243:1 7267:1 7560:1 7607:1 7757:2 8609:1 
-0.06577692757738382 427:1 652:1 1439:1 1840:1 2110:1 2922:1 3595:1 4088:2 4219:1 4221:1 4549:1 4772:2 5571:1 5649:1 5655:1 5701:1 6229:2 6696:1 7489:1 7492:1 7596:1 7628:1 7757:1 7963:1 8355:1 8433:1 8509:2 
-0.081629038485581951 2:1 267:1 298:1 1657:1 1890:1 2138:1 2185:1 3398:1 3897:1 4016:1 4500:1 4722:1 5297:1 5406:1 5421:1 5571:1 5610:1 7207:1 7757:1 8055:1 8615:1 
-0.053067745399910972 270:1 351:1 946:1 1055:1 1184:1 1225:1 1321:1 1609:1 1814:1 2400:1 3292:1 5088:1 5368:1 5478:1 5881:1 6074:1 6302:1 6460:1 7622:1 7757:1 8100:1 8433:1 8609:2 8615:1 
-0.052308611598756889 126:1 127:1 310:1 1085:1 1184:1 1261:1 1443:1 1814:2 1827:1 2713:1 3420:1 4306:1 5024:1 5053:1 5261:1 5421:1 6243:1 6640:1 6939:1 7267:1 7607:1 7628:1 7930:1 8315:1 
-0.34547208662728474 2266:1 3551:1 3771:1 4527:1 5331:1 5411:1 5526:1 5927:1 7224:1 7260:1 7757:1 7770:1 
-0.13484667811527118 10:1 184:1 269:1 609:1 619:1 1320:1 1814:1 2056:1 2090:1 3667:1 4207:1 4800:1 5100:1 5421:1 7254:1 7978:1 8051:1 8055:1 
-0.057880764274562381 441:1 442:1 873:1 1108:1 1779:1 2914:2 2922:1 3852:1 4207:1 4219:1 4334:2 4448:1 4551:1 4931:1 5406:1 6138:1 6191:1 6400:2 6937:1 7003:1 7303:1 8051:1 8366:1 
-0.46867299116816091 179:1 1814:1 3771:1 5326:1 5880:1 8180:1 8609:1 
-0.037206479928895406 219:1 528:1 618:1 1169:1 1321:1 1814:1 1916:1 2218:1 2361:1 2877:1 3398:1 3519:1 3667:1 5231:1 5312:1 5478:1 5571:1 6315:1 7004:1 7407:1 7898:1 8051:1 8162:1 8537:1 8628:1 
-0.022732651477563797 670:1 1157:1 1957:1 2135:1 2930:1 3607:1 5398:1 5538:1 5712:1 5935:1 6485:1 7596:1 7757:2 7787:1 8615:2 
-0.0036796953680346962 255:1 352:1 369:1 1814:1 2453:1 3123:1 3213:1 3398:1 3533:1 3673:1 4207:1 4219:1 4448:1 4500:1 5024:1 5526:1 5610:1 6688:1 7042:1 8065:1 8243:1 8355:1 8378:1 8609:2 
-0.21667006333522174 1:1 484:1 1381:1 1784:1 1915:1 3071:1 3309:1 3623:1 4207:1 4218:1 4975:1 5258:1 5478:1 5607:1 5628:1 5765:1 5827:1 7303:1 7464:1 7622:1 8032:1 
-0.084505443956683024 608:2 778:1 919:1 1233:1 1439:1 1527:1 1795:1 1840:1 2641:1 2714:2 3423:1 5335:1 7408:1 7604:1 7757:3 7903:1 8004:1 8402:1 8609:1 8615:1 
-0.081742081570005551 95:1 387:2 1000:1 1615:1 1814:1 2055:1 2064:2 2472:1 3894:1 3897:1 4737:1 5715:1 6204:1 8077:1 8189:2 8362:2 8615:2 
-0.041562187213857779 6:1 407:1 567:1 1688:1 1814:1 3309:1 3398:1 5142:1 5571:1 5585:1 5765:1 5785:1 6835:1 6840:1 7111:1 7628:1 7963:1 8167:1 8537:1 
-0.022698627925885149 162:1 402:1 466:1 614:1 806:1 1551:1 2135:1 3398:2 3551:1 5091:1 5182:1 5215:1 5326:1 5368:1 5378:1 5538:1 7532:1 7757:1 7764:1 7934:1 7938:1 8537:1 8619:1 
-0.031167958844462336 323:1 752:1 2131:1 3131:1 3203:1 3359:1 3504:1 4088:1 4353:1 4431:2 4954:1 5165:1 5169:1 5487:1 5948:1 6400:1 6854:1 7064:1 7439:1 7670:1 7709:1 8096:1 8154:2 8255:2 8444:1 
-0.13717680468783752 1461:1 1742:1 2145:1 2337:1 3309:1 3771:1 3969:1 4207:1 5845:1 6382:1 7608:1 7809:1 8032:1 8537:1 8615:2 
-0.033728472752176879 112:1 316:1 507:1 624:1 1148:1 1184:1 1320:1 1814:1 2055:1 2121:1 2916:1 3770:1 4042:1 4907:1 5438:1 5880:1 6205:1 6244:1 6298:1 6710:1 7203:1 7757:1 7765:1 8176:1 8609:1 
-0.9839196997315528 323:1 793:1 3398:1 3818:1 4727:1 
-0.083094696592579759 423:1 1040:1 1085:1 1751:1 3161:1 3366:1 3819:1 3842:1 3902:1 4741:1 4980:1 5169:1 5224:1 5853:1 6184:1 6237:1 6400:1 6624:1 6724:1 7267:2 7757:2 7942:1 
-0.40805668557909108 889:1 1085:1 4353:1 5090:1 5505:1 5526:1 5812:1 6392:1 6724:1 7596:1 7628:1 8480:1 8615:1 
-0.0071767865913619049 352:1 779:1 940:1 1967:1 3040:1 4088:2 4207:1 4959:1 5169:1 5421:2 5538:1 5857:1 6910:1 7628:2 7757:2 7830:1 7934:1 7963:1 8592:1 
-0.18317046977134424 79:1 424:1 529:1 723:1 1237:1 1363:1 1527:1 1969:1 2397:1 2460:1 2717:1 2798:1 3359:1 3532:1 3595:1 4042:1 4088:2 4094:1 4112:1 4473:1 4965:1 5039:1 6695:1 6750:1 6819:1 8245:1 8592:1 
-0.1494367533953431 159:1 1318:1 1814:1 2135:1 2138:1 2393:1 3771:1 4353:1 4994:2 7757:1 8289:1 8615:2 
-0.19186401496898692 714:1 1121:1 2034:1 2095:1 3309:1 4222:1 5090:2 5478:1 6185:1 7628:1 7806:1 8615:1 
-0.16715667025621145 403:1 496:1 609:1 734:1 1184:1 2480:1 3359:1 4219:1 4996:1 7596:1 7757:1 8030:1 8096:1 8615:1 
-0.12701370150906288 1068:1 1085:1 1110:1 1439:1 1612:1 1943:1 3233:1 3757:1 5328:1 5478:1 5579:1 5811:1 5979:1 6193:1 6268:1 6400:1 7628:4 7757:1 8405:1 8668:1 
-0.1458158114037143 503:1 509:1 1461:1 1505:1 1840:1 1956:1 2081:1 2676:1 3309:1 3398:1 4088:1 4709:2 5082:1 5406:1 5478:1 6159:1 6724:1 7614:1 7661:1 8115:1 8141:2 8385:1 8609:2 8615:1 
-0.3139706294838896 1439:1 2842:1 2930:1 4219:1 6301:1 6483:1 6843:1 7670:1 7875:1 8313:1 8402:1 8609:1 
-0.12199206844782977 220:1 354:1 642:1 1030:1 1793:1 1814:1 2050:1 2216:1 2717:1 2987:1 3309:1 3359:1 4190:1 4207:1 4919:1 5053:1 5421:1 5610:1 5712:1 7115:1 7219:1 7413:1 8581:1 8619:1 
-0.24972501459795363 923:1 1085:2 1227:1 1538:1 1840:1 1942:1 1951:1 2677:1 2738:1 3309:1 3815:1 5292:2 5958:1 6090:1 6170:1 7040:1 7474:1 7757:1 7872:1 8073:1 8289:1 8609:1 8615:1 
-0.034064347935162165 352:1 369:1 1261:1 1624:1 3298:1 3366:1 3595:1 3842:1 3996:1 4056:1 4059:1 4353:1 5224:1 5478:1 5826:1 5831:1 6257:1 6400:1 6724:1 7025:1 7269:1 7648:1 7670:1 7757:1 7934:1 8032:1 8141:1 8399:1 8482:1 8555:1 
-0.090217373847019597 387:1 908:1 1181:2 3309:1 3359:2 3398:1 3450:1 3451:2 3504:2 3570:1 4402:1 5457:1 5969:1 6042:1 6251:1 6400:1 6629:1 6753:1 7581:1 7628:1 7641:1 8051:1 
-0.035023950988967226 112:1 327:1 497:1 612:1 1148:1 1184:1 1814:1 2055:1 2121:1 2916:1 3771:1 4042:1 4907:1 5438:1 5880:1 6205:1 6244:1 6298:1 6710:1 7203:1 7757:1 7765:1 8176:1 8609:1 
-0.0015685035565257113 405:1 740:1 1352:1 1612:1 1665:1 2095:2 4123:1 4765:1 6016:1 7489:1 7622:1 7628:1 7710:1 7757:1 7828:1 7835:1 7934:1 7963:1 8159:2 8160:1 8405:1 8433:1 8508:1 
-0.079993383967013762 58:1 1085:1 1814:1 1834:1 2233:1 2522:1 3296:1 3309:1 3867:1 5326:1 5378:1 5478:1 5484:1 5571:1 5607:1 6260:1 6400:1 6432:1 7757:2 7873:1 8289:1 8609:1 8615:1 
-0.001137705096910547 201:1 1132:1 1261:1 1439:1 1795:1 1827:1 1840:1 1956:1 2400:1 3309:1 3477:1 5526:1 5579:1 5765:1 6327:1 6483:1 6748:1 7473:1 7614:1 8027:1 8313:1 8402:1 8609:2 8615:1 
-0.098009113609112256 387:1 1085:2 1261:1 1467:1 1764:2 2115:1 2128:1 3308:1 3504:1 3551:1 4428:2 4516:1 5571:1 5610:1 5871:1 6739:1 7193:1 7399:1 7806:1 8227:1 8243:1 8416:1 8433:1 
-0.069786371194300964 290:1 1030:1 1055:1 1777:1 1831:1 1967:1 2461:1 3359:1 3420:1 3847:1 4042:1 4261:1 4711:1 4893:1 5035:1 5335:1 5421:1 6627:1 7078:1 7722:1 8051:1 8313:1 8441:1 8461:1 
-0.099971826994625021 151:1 310:1 313:1 707:1 1624:1 1739:1 1967:1 2452:1 3398:1 3951:1 4502:1 5024:1 5266:1 5421:1 5538:1 6243:1 
-0.0004661163269181026 562:1 1157:1 1583:2 1871:1 1926:1 2145:1 3309:1 3433:1 3969:1 4994:1 8219:1 8385:1 8615:1 
-0.10403501006582344 593:1 860:1 1085:1 1343:1 1346:1 1546:1 2717:1 3124:1 3207:1 3551:1 3748:1 3771:1 3954:1 4059:1 4940:1 5260:1 6545:1 6764:1 6968:2 7659:1 7722:1 7934:1 8245:1 8289:1 8433:1 8555:1 
-0.09599391293564645 399:1 617:1 792:1 975:1 1085:1 1321:1 1683:1 2052:1 2290:1 3006:1 6835:1 6935:1 7173:1 7277:1 7383:1 7757:1 7902:1 7934:1 8051:1 8405:1 8443:1 
-0.0020718349726022347 352:1 369:1 453:1 779:1 1085:2 1967:1 2713:2 2819:1 3213:1 3845:1 4448:2 4547:1 4588:1 4940:1 5169:1 5421:1 5538:1 5571:1 5599:1 5628:1 6257:1 6528:1 6724:1 7375:1 7757:1 8201:1 8582:1 
-0.040110737287950303 249:1 507:2 578:1 1184:1 1320:2 1814:1 2916:1 4042:1 4909:1 5437:1 5438:1 6298:2 6710:1 7757:2 7765:1 8177:1 8433:1 8615:2 
-0.011421114055284646 83:1 364:1 800:1 1157:1 1814:1 3359:1 3504:1 3798:1 3818:1 4256:1 5292:1 5421:1 5538:1 7596:1 7757:2 8235:1 8615:1 
-0.14821151576249922 299:1 725:1 1108:1 1225:1 1423:1 1439:1 1963:1 2272:1 2753:1 2940:1 3519:1 4088:1 5369:1 5478:1 5526:1 5568:1 6296:1 6345:1 7344:1 7628:1 7757:1 8051:1 8189:1 8357:1 8402:1 
-0.029953234313088866 17:1 152:1 336:1 1273:1 1814:1 2057:1 2233:1 2400:1 2545:1 3066:1 3208:1 3771:1 4076:2 4207:1 4994:1 4996:1 5421:1 5607:1 5610:1 7670:1 8222:1 8609:1 
-0.18650566351163708 629:1 964:1 1840:1 3067:1 3758:1 3818:1 4123:1 5024:1 5088:1 5134:1 5406:1 5478:1 5484:1 5653:1 5888:1 6400:1 6407:1 6443:1 7077:1 7578:1 7628:1 7640:1 8027:1 8318:1 8595:1 
-0.49995397813249715 1085:1 1725:1 1795:1 2220:1 3547:1 4207:2 4765:1 4994:1 5406:1 7628:1 7670:1 7757:2 8609:1 
-0.019830784663068202 114:1 470:1 602:1 744:1 1346:1 1833:1 1967:2 3124:1 3366:1 3595:1 3847:1 3876:1 3940:1 4059:1 4353:1 5099:1 5170:1 5326:1 5571:1 5826:1 6534:1 7757:1 8206:1 8243:1 8508:1 
-0.0019637429080790535 1019:1 1085:1 2095:1 2109:1 2145:1 2488:1 3127:1 3398:1 3440:1 3450:1 3551:1 4390:1 5333:1 5378:2 5610:1 6400:1 6460:1 7628:2 7757:1 8027:1 8433:2 8480:1 8537:1 
-0.66829454166360902 825:1 2676:2 3771:1 5118:1 5335:1 5437:1 8415:1 8464:1 8500:1 
-0.023712841944856299 54:1 374:1 664:1 1352:1 1814:1 1840:1 2335:1 3359:1 3504:1 3818:1 4677:1 5421:1 5571:2 6338:1 6694:1 7596:1 8024:1 8289:1 8402:1 
-0.21901580323961314 2:1 186:1 565:1 1814:1 2055:1 3771:1 6055:1 7757:1 8464:1 8609:1 
-0.10465711056285165 120:1 1080:1 1225:1 1814:1 3309:1 4070:1 4207:1 4994:1 5880:1 7646:1 8055:1 8222:1 8609:1 
-0.088651515105068995 425:1 794:1 910:1 1085:1 1352:1 2756:1 3128:1 3304:1 3452:1 3551:1 4207:1 5421:1 5526:3 5565:1 5610:1 5871:1 6344:1 6626:1 6656:1 6943:3 7025:1 7216:1 7542:1 7757:2 7923:1 8615:1 
-0.16430780339614476 561:1 1046:1 1050:1 1243:1 1461:1 1840:1 2110:1 3758:1 3969:1 4638:1 5833:1 6734:1 7757:1 7963:1 8069:1 8281:2 8609:1 8615:1 
-0.030692783162317282 28:1 821:1 1102:1 1779:1 1814:1 2400:1 2522:1 2676:1 4849:1 5880:1 6260:1 6303:1 6326:1 6648:1 6747:1 7025:1 7757:4 7873:1 7975:1 8289:1 8339:1 8609:1 
-0.031534354149887291 427:1 808:1 1185:1 1261:1 1967:1 2145:1 3359:1 3475:1 3689:1 3930:1 4088:1 4353:1 5245:1 5326:1 5532:1 5571:1 5972:1 6298:1 6678:1 7600:1 7757:1 7934:1 8051:1 
-0.053989649902247867 277:1 301:1 462:1 487:1 608:1 1273:1 1334:1 1819:1 2233:1 2362:1 3771:1 4207:1 4930:1 7628:1 7670:1 7757:1 8055:1 8464:1 
-0.053001070872911407 268:1 351:1 946:1 1055:1 1184:1 1225:1 1321:1 1609:1 1814:1 2400:1 3292:1 5088:1 5368:1 5478:1 5881:1 6074:1 6302:1 6460:1 7622:1 7757:1 8100:1 8433:1 8609:2 8615:1 
-0.54547783025115404 773:1 3359:1 6272:1 6400:1 6483:1 
-0.29809169954746428 161:1 360:1 1285:1 1521:1 1867:1 2392:1 2400:1 4207:1 4552:1 5610:1 5732:1 6724:1 7628:1 7670:1 7757:1 
-0.062808475125193858 369:1 753:1 1030:1 1085:1 1439:1 2425:1 2460:1 2991:1 2992:1 3504:1 4126:1 4397:1 4413:1 4527:1 5331:1 5478:1 6445:1 6724:1 7267:1 7628:1 7757:2 8027:1 8402:1 
-0.36757126944910329 13:1 409:1 483:1 2282:1 3069:1 4088:1 5024:1 5421:1 6480:1 6690:1 6760:1 8245:1 
-0.35654761211357422 243:1 299:1 1651:1 1808:1 2455:1 6747:1 
-0.20263019120805198 303:1 860:1 974:1 1085:1 1352:1 2164:1 3005:1 3577:1 4312:1 4353:1 4604:1 4667:1 5090:1 5245:1 5706:1 5769:1 7003:1 7628:1 7682:1 7757:1 7934:1 8433:1 
-0.046490815844986329 292:1 442:1 1055:1 1185:1 1831:1 1877:1 2095:1 2717:1 3224:1 3609:1 4561:1 4669:1 5001:1 5034:1 5169:1 5326:1 5880:1 6107:1 6400:1 8051:1 8289:1 8402:1 8441:1 8595:1 
-0.21669727199591821 420:1 701:1 1085:1 1949:1 2204:1 3309:1 5335:1 5800:1 5880:1 6308:1 6696:1 7559:1 7580:1 7628:1 7786:1 8402:1 8436:1 8609:1 8615:1 
-0.05242765631425729 352:1 369:1 807:1 1384:1 2279:1 3438:1 6696:1 7596:1 7605:1 7757:2 8555:1 
-0.030574729357858963 260:1 610:1 1030:1 1814:1 1872:1 2055:1 2565:1 2939:1 3771:1 5090:1 5787:1 6074:1 6113:1 7563:1 7628:1 7757:1 8051:1 
-0.094633568644740332 395:1 399:1 616:1 792:1 975:1 3006:1 5421:1 5871:1 6835:1 6935:1 7173:1 7215:1 7277:1 7596:1 7757:1 7901:1 8313:1 8405:1 
-0.043323217577090421 118:1 311:1 364:1 485:1 970:1 1157:1 1320:1 1461:1 1467:1 1814:1 2085:1 2279:1 2361:1 3771:1 4635:1 6109:1 6298:1 6710:1 7119:1 7628:1 7757:1 8609:1 
-0.26692776191019679 743:1 2145:1 3233:1 3969:1 4029:1 4111:1 6486:1 7753:1 7888:1 8391:1 8452:1 
-0.021732666890656643 211:1 930:1 1814:1 2233:1 3213:1 3771:1 4207:1 4712:1 4849:1 5526:1 5610:1 6456:1 6686:1 7025:1 7115:1 7654:1 7665:1 8051:1 8378:3 8433:1 
-0.014870863738142724 125:1 396:1 424:1 735:1 907:1 1890:1 1943:1 2398:1 3006:1 3309:1 5160:1 7757:2 7923:1 7934:1 8051:1 8405:1 8443:2 8537:1 
-0.020278868353046677 352:1 373:1 453:1 464:1 779:1 1461:1 1967:2 3847:1 4182:1 4547:1 4771:1 5174:1 5347:1 5421:1 6528:1 7375:1 7628:1 7646:1 7757:1 7934:1 7965:1 8051:1 8087:1 8201:1 8400:1 8545:1 
-0.088953481958443117 300:1 586:2 615:1 678:1 1840:1 2405:1 3006:1 3530:1 4680:1 4875:1 5292:1 5478:1 6271:1 6763:1 7596:1 7635:1 7670:1 7757:1 8051:1 8163:1 8378:1 
-0.073800050108730433 562:1 1157:1 1583:2 1871:1 1926:1 2145:1 3309:1 3433:1 3969:1 4994:1 8219:1 8385:1 8615:1 
-0.01130323525597411 198:1 326:1 427:1 733:1 1261:1 1353:1 1430:1 1644:1 1814:1 1967:2 2279:1 2746:1 2950:1 3347:1 3504:1 3699:1 4172:1 4547:1 5309:1 5478:1 5571:1 5896:1 6400:1 6519:1 7341:1 7628:1 7757:1 8288:1 
-0.031961347675484267 613:1 698:1 720:1 809:1 907:1 1322:1 2118:1 2914:1 3309:1 3972:1 4478:1 4859:1 4940:1 5224:1 5292:1 5368:1 5598:1 6272:1 6294:1 6624:1 7040:1 7267:1 7298:1 7757:1 7934:3 8245:1 8393:1 
-0.043385516812654221 20:1 278:1 330:1 356:1 462:1 608:1 1273:1 1334:1 1814:1 1818:1 2233:1 2362:1 3771:1 4207:1 4930:1 5093:1 6466:1 7628:1 7670:1 7757:1 8464:1 
-0.94366707996746624 115:1 1814:1 3771:1 4994:1 5326:1 5880:1 8609:1 
-0.063240909977967621 300:1 369:1 726:1 974:1 1085:1 1577:1 1971:1 2866:1 3264:1 3504:1 3527:2 4312:1 5245:1 5421:1 5571:1 7757:2 7934:1 8051:1 8647:1 
-0.17303174742873603 96:1 712:1 1157:1 1612:1 1814:1 2361:1 3259:1 3398:1 5335:1 5350:1 5421:1 5695:1 6512:1 8581:1 
-0.02930877497892953 362:1 568:1 657:1 749:1 885:1 1157:1 1683:1 2055:2 2204:1 4207:1 5218:1 5437:1 7580:1 7963:1 8372:1 8609:1 8615:1 
-0.047079228486456563 299:1 353:1 763:1 1890:1 1943:1 2170:1 2688:1 2730:1 2833:1 3272:1 3836:1 4623:1 5421:1 5571:1 6201:1 7757:2 7913:1 7923:1 7934:1 8158:1 8355:1 8405:1 8445:1 
-0.0041989107967183251 210:1 563:1 930:1 1814:1 2233:1 3213:1 3771:1 4207:1 4712:1 4849:1 5526:1 5610:1 6456:1 6686:1 7025:1 7115:1 7654:1 7665:1 8051:1 8378:3 8433:1 
-0.14203895886494428 647:1 761:1 1368:1 1399:1 1491:1 1523:1 1598:1 2179:1 3577:1 4207:1 4503:1 4769:1 5335:1 5421:1 5571:2 6191:1 7596:1 7628:1 7757:1 8051:1 
-0.053676963768653753 288:1 465:1 1040:1 1055:2 1625:1 1831:1 1967:1 2058:2 2384:1 3776:1 3832:1 3920:1 4782:1 5036:1 5421:2 5628:1 7722:1 8243:1 8552:1 
-0.0058027474136867953 299:1 725:1 1108:1 1110:1 1543:1 2272:1 2472:1 2753:1 2895:1 2940:1 3519:1 5478:1 5526:1 6040:1 6296:1 7344:1 7757:1 7934:1 8051:1 8189:1 8259:1 8362:1 8402:1 
-0.060730495192418583 224:1 419:1 817:1 899:1 1225:1 1461:1 1814:1 2135:1 2400:1 3948:1 4006:1 5318:1 5538:1 6298:1 6462:1 6710:1 7757:2 8096:1 8100:1 8416:1 8609:1 
-0.10886778027618285 223:1 432:1 1184:1 1321:1 1814:1 1836:2 2460:1 2522:1 2613:1 3399:1 4500:1 6913:1 8436:1 8609:1 
-0.12736878533628798 202:1 691:1 1030:1 1237:1 1439:1 1652:1 1814:1 1852:1 2233:1 2455:1 3673:1 3758:1 4448:1 4801:1 5421:1 5607:1 5898:1 6457:1 6747:1 7044:1 8378:1 8402:1 8609:1 
-0.017069382723692558 298:2 629:1 694:1 758:1 1285:1 1521:4 1522:1 3577:1 3853:1 4207:2 4769:1 4929:1 5335:1 5421:1 6524:1 6724:1 7628:1 7757:3 
-0.013244088297606914 299:1 609:1 699:1 782:1 1321:1 1914:1 2753:1 2877:1 2950:1 3359:1 3519:1 4209:1 5212:1 7755:1 7757:1 7934:1 8051:1 8190:1 8317:1 8548:1 
-1 1085:1 3206:1 3309:1 3530:1 7279:1 8222:1 8615:1 
-0.27540714644473929 296:1 1036:1 1184:1 1527:1 2167:1 3309:2 5320:1 6435:1 7003:1 7025:1 7405:1 7634:1 7654:1 7757:1 
-0.096292226424335742 352:1 369:1 453:1 779:1 1085:2 1967:1 2713:2 2819:1 3213:1 3845:1 4448:2 4547:1 4588:1 4940:1 5169:1 5421:1 5538:1 5571:1 5599:1 5628:1 6257:1 6528:1 6724:1 7375:1 7757:1 8201:1 8582:1 
-0.027268822830408147 222:1 356:1 364:1 434:1 481:1 831:1 1184:1 1321:1 1647:1 1814:1 1836:1 2361:1 2522:1 2613:1 3398:1 4500:1 4796:1 6177:1 6913:1 8257:1 8436:1 8609:1 
-0.23145817098362212 1080:1 1085:1 1125:1 2676:1 2770:2 3005:1 3011:1 3135:1 3564:1 4037:1 4207:2 4872:1 5412:1 6260:1 6973:1 7610:2 7622:1 8362:1 8609:4 
-0.017602566071929695 873:1 971:1 1521:2 1795:1 2813:1 2914:2 5413:1 5526:1 5610:1 5613:1 5894:1 6400:1 6810:1 6897:1 7003:1 7006:1 7628:1 8167:1 8339:1 
-0.146979881607114 352:1 1343:1 1461:1 2030:1 2145:1 3635:1 3847:1 3954:2 4219:1 4226:1 4940:1 5057:1 5347:1 5526:1 6626:1 6985:1 7100:1 7267:2 7596:2 7757:1 8166:1 8259:3 8315:1 8615:1 
-0.030706139456630328 27:1 823:1 1102:1 1779:1 1814:1 2400:1 2522:1 2676:1 4849:1 5880:1 6260:1 6303:1 6326:1 6648:1 6747:1 7025:1 7757:4 7873:1 7975:1 8289:1 8339:1 8609:1 
-0.1068829525652778 1030:1 1055:1 1234:1 1439:1 2145:1 2332:1 3233:1 3309:1 3381:1 3673:1 4207:1 5559:1 5657:1 6267:1 7628:1 7670:1 7722:1 7757:1 8222:1 8245:1 8299:1 8378:1 8524:1 8537:1 8615:2 
-0.015993762287600272 423:1 559:2 656:1 873:1 1439:1 3381:1 3389:1 3831:2 4183:1 4207:1 5262:1 5265:1 5368:1 5571:1 6400:1 6696:1 6724:1 7003:1 7267:2 7757:2 8537:1 8592:1 8609:1 
-0.073525994216199847 15:1 74:1 512:1 1056:1 1085:1 1814:1 1955:1 2392:1 2919:1 3359:1 3726:1 5090:1 5478:1 5484:1 5571:1 5880:1 6341:1 6384:1 7334:1 7555:1 7757:2 7764:1 8040:1 8433:1 8615:1 
-0.21113313240709455 102:1 389:1 1225:2 1814:1 1840:1 2110:1 2717:1 3309:1 3317:1 3359:1 4125:1 4875:1 5134:1 5857:1 6408:1 7963:1 8425:1 8433:1 8609:2 
-0.036332017528431099 609:1 722:1 760:1 1110:2 1368:1 3527:1 3577:1 4088:1 4207:2 4769:1 5335:1 5421:1 6191:1 6603:1 7628:1 7757:1 7934:1 8050:1 8051:3 8378:1 
-0.2804206223862285 287:1 455:1 1814:1 1831:1 1840:2 1967:1 2384:1 3504:1 3832:1 4260:1 4782:1 4940:1 4959:1 5036:1 5421:2 5526:1 5812:1 6751:1 8032:1 8243:1 8552:1 
-0.025737053271234114 365:2 398:1 656:1 873:1 1439:1 3381:1 3389:1 3831:2 4183:1 4207:1 5263:1 5264:1 5368:1 5571:1 6400:1 6696:1 6724:1 7003:1 7267:2 7757:2 8537:1 8592:1 8609:1 
-0.049593204750071708 771:1 1085:1 1439:1 1713:1 2136:1 3283:1 3359:1 3504:1 4207:1 5071:1 5719:1 6483:1 6900:1 7596:1 7628:1 7757:3 8076:1 8126:1 8222:1 8615:1 
-0.16858373498931242 1085:1 1184:2 1208:1 1439:1 1689:1 1707:1 3011:1 4088:1 5478:1 5617:1 6036:1 6272:1 6431:1 6513:1 6847:1 6903:1 7025:1 7396:1 7757:1 8252:1 8330:1 8609:2 8615:1 
-0.24935942284490845 7:1 1030:1 1055:1 1469:1 1814:1 2593:1 3309:1 3398:1 3795:1 3832:1 4219:1 4353:1 4445:1 4520:1 4616:1 4782:1 4849:1 4940:2 5224:1 5312:1 5347:1 5354:1 5406:1 5421:1 5526:1 7722:1 7952:1 8373:1 8433:1 8552:1 
-0.066200728181452034 608:1 1030:1 1085:1 1343:2 1844:1 2105:1 2279:1 3128:1 3930:1 3940:1 4059:1 4849:1 4940:3 5292:1 5421:2 5526:1 6399:1 6724:1 7251:1 7267:1 7918:1 7934:1 8609:1 8615:1 
-0.11653118513390598 372:1 1057:1 1480:1 1584:1 1779:1 3398:1 4105:1 4219:3 4557:1 5027:1 5421:1 5458:1 5538:1 6400:1 7622:1 7660:1 7757:1 7886:1 7890:1 7934:1 7942:1 8402:1 8464:1 8609:1 8615:1 
-0.041007013455808511 726:1 1863:1 2138:1 2860:1 3359:1 3717:1 4692:1 4994:1 5088:1 5378:1 5478:1 5826:1 5893:1 7160:1 7171:1 7757:1 7786:1 7934:1 8032:1 8051:1 8433:1 
