svm_type c_svc
kernel_type polynomial
degree 2
gamma 0.5
coef0 1
nr_class 5
total_sv 6361
rho -0.9999305901331681 -2.1329738346384466 0.73921642621537553 -1.9168377690072989 -2.3045527452554331 0.73915050559901663 -1 1.6309288633816348 -1 -2.0786906345298077
label 503 487 403 0 488
nr_sv 3034 3021 156 143 7
SV
1 0 0 0 1:-0.14804966 2:0.92396535 
1 0 0.21818759553833322 0 1:-0.14804966 2:1.2572633 
1 0 0 0 1:-0.14804966 2:0.92396535 
1 0 0 0 1:-0.14804966 2:0.92396535 
1 0 0 0 1:-0.14804966 2:0.92396535 
1 0 1 0 1:-0.14804966 2:-0.065989332 
1 0 1 0 1:-0.14804966 2:-0.38669754 
1 0 1 0 1:-0.14804966 2:0.0095493782 
1 0 0 0 1:-0.14804966 2:0.92396535 
1 0 1 0 1:-0.14804966 2:-0.33435054 
0.99901509236172492 0 1 0 1:-0.14804966 2:0.39585699 
1 0 1 0 1:-0.14804966 2:1.0359482 
1 0 1 0 1:-0.14804966 2:-0.37742086 
1 0 0.010189451649157515 0 1:-0.14804966 2:7.550168 
1 0 1 0 1:-0.14804966 2:0.83053589 
1 1 1 0 1:-0.14804966 2:-0.40790139 
1 0 0 0 1:-0.14804966 2:0.92396535 
1 1 1 0 1:-0.14804966 2:-0.42512952 
1 0 1 0 1:-0.14804966 2:-0.38338444 
1 1 1 0 1:-0.14804966 2:-0.42512952 
1 0 0 0 1:-0.14804966 2:0.92396535 
1 0 1 0 1:-0.14804966 2:0.0035857958 
1 0 0 0 1:-0.14804966 2:1.214193 
1 0 1 0 1:-0.14804966 2:-0.30519525 
1 0 0 0 1:-0.14804966 2:0.92396535 
1 0 1 0 1:-0.14804966 2:0.99287786 
1 0 0 0 1:-0.14804966 2:1.057152 
1 0 0 0 1:-0.14804966 2:0.92396535 
1 0 1 0 1:-0.14804966 2:-0.020931154 
1 0 0 0 1:-0.14804966 2:0.92396535 
1 0 0 0 1:-0.14804966 2:0.92396535 
1 0 0 0 1:-0.14804966 2:0.92396535 
1 0 1 0 1:-0.14804966 2:-0.32109814 
1 0 0 0 1:-0.14804966 2:0.92396535 
1 0 0 0 1:-0.14804966 2:0.92396535 
1 0 0 0 1:-0.14804966 2:0.92396535 
1 0 1 0 1:-0.14804966 2:0.82059659 
1 0 0 0 1:-0.14804966 2:0.92396535 
1 0 0 0 1:-0.14804966 2:4.2370667 
1 0 0 0 1:-0.14804966 2:0.9617347 
1 0 1 0 1:-0.14804966 2:0.79939274 
1 0 0 0 1:-0.14804966 2:0.92396535 
1 0 0 0 1:-0.14804966 2:0.92396535 
1 0 0 0 1:-0.14804966 2:1.2831055 
1 0 0 0 1:-0.14804966 2:5.5623072 
0 1 0.82285822458960411 0 1:-0.14804966 2:-0.40326305 
0.99995804847175396 0 0 0 1:-0.14804966 2:1.219494 
1 0 1 0 1:-0.14804966 2:0.17851755 
1 0 1 0 1:-0.14804966 2:-0.36615631 
1 1 1 0 1:-0.14804966 2:-0.40856401 
1 0 0 0 1:-0.14804966 2:0.92396535 
1 0 0 0 1:-0.14804966 2:0.92396535 
1 0 0 0 1:-0.14804966 2:0.92396535 
1 0 0 0 1:-0.14804966 2:0.92396535 
1 0 1 0 1:-0.14804966 2:-0.39663685 
1 0 0 0 1:-0.14804966 2:0.92396535 
1 0 1 0 1:-0.14804966 2:0.97034877 
1 0 0 0 1:-0.14804966 2:0.92396535 
1 0 1 0 1:-0.14804966 2:-0.35953011 
1 0 0.9192381752163642 0 1:-0.14804966 2:-0.044785484 
1 0 1 0 1:-0.14804966 2:0.0135251 
1 0 1 0 1:-0.14804966 2:-0.023581635 
1 0 0 0 1:-0.14804966 2:0.92396535 
1 0 0 0 1:-0.14804966 2:0.92396535 
1 0 0 0 1:-0.14804966 2:1.5309255 
1 0 0 0 1:-0.14804966 2:0.92396535 
1 1 0 1 1:-0.14804966 2:-1.0638955 
1 0 0 0 1:-0.14804966 2:0.92396535 
1 0 0 0 1:-0.14804966 2:0.92396535 
1 0 0 0 1:-0.14804966 2:0.92396535 
1 0 0 0 1:-0.14804966 2:0.92396535 
1 0 1 0 1:-0.14804966 2:-0.36946942 
1 0 1 0 1:-0.14804966 2:0.29513871 
1 0 0 0 1:-0.14804966 2:0.92396535 
1 0 1 0 1:-0.14804966 2:-0.014967572 
1 0 0 0 1:-0.14804966 2:0.92396535 
1 0 1 0 1:-0.14804966 2:-0.029545218 
1 1 1 0 1:-0.14804966 2:-0.41253973 
1 0 0 0 1:-0.14804966 2:0.92396535 
1 0 0 0 1:-0.14804966 2:0.92396535 
1 0 0 0 1:-0.14804966 2:0.92396535 
1 1 0 1 1:-0.14804966 2:-1.0638955 
1 0 0 0 1:-0.14804966 2:0.92396535 
1 0 1 0 1:-0.14804966 2:-0.39133588 
1 0 0 0 1:-0.14804966 2:0.92396535 
1 0 1 0 1:-0.14804966 2:-0.39133588 
1 0 1 0 1:-0.14804966 2:-0.39928733 
1 0 0 0 1:-0.14804966 2:0.92396535 
1 1 1 0 1:-0.14804966 2:-0.40922663 
1 0 0 0 1:-0.14804966 2:0.92396535 
1 0 1 0 1:-0.14804966 2:0.29911444 
1 0 0 0 1:-0.14804966 2:0.92396535 
1 0 0 0 1:-0.14804966 2:0.92396535 
1 0 0 0 1:-0.14804966 2:0.92396535 
1 0 0 0 1:-0.14804966 2:0.92396535 
1 0 0 0 1:-0.14804966 2:0.92396535 
1 0 1 0 1:-0.14804966 2:0.73313071 
1 0 0.90356467519702177 0 1:-0.14804966 2:1.9019929 
1 0 0 0 1:-0.14804966 2:1.1519067 
1 0 1 0 1:-0.14804966 2:0.0095493782 
1 0 0 0 1:-0.14804966 2:0.92396535 
1 0 0 0 1:-0.14804966 2:0.92396535 
1 0 0 0 1:-0.14804966 2:5.5623072 
1 0 0 0 1:-0.14804966 2:0.92396535 
1 0 0 0 1:-0.14804966 2:0.92396535 
1 0 0 0 1:-0.14804966 2:1.2506371 
1 0 0 0 1:-0.14804966 2:1.2592512 
1 0 1 0 1:-0.14804966 2:0.019488682 
1 1 0.72487014869268196 1 1:-0.14804966 2:-1.0638955 
1 0 0.0014326451796091819 0 1:-0.14804966 2:4.899687 
1 1 1 0 1:-0.14804966 2:-0.42844262 
1 0 1 0 1:-0.14804966 2:-0.39928733 
1 1 0.96537697092592689 1 1:-0.14804966 2:-1.0638955 
1 0 0 0 1:-0.14804966 2:1.4500858 
1 0 0 0 1:-0.14804966 2:0.92396535 
1 0 1 0 1:-0.14804966 2:-0.073940776 
1 0 0 0 1:-0.14804966 2:0.92396535 
1 0 1 0 1:-0.14804966 2:-0.042135003 
1 0 0.75366589265056549 0 1:-0.14804966 2:0.56416254 
1 0 0.20789165276481977 0 1:-0.14804966 2:1.1134747 
1 0 0 0 1:-0.14804966 2:0.92396535 
1 0 1 0 1:-0.14804966 2:-0.37079466 
1 0 0 0 1:-0.14804966 2:5.5623072 
1 0 1 0 1:-0.14804966 2:-0.30519525 
1 0 1 0 1:-0.14804966 2:-0.057375269 
1 0 1 0 1:-0.14804966 2:0.37862887 
1 0 0 0 1:-0.14804966 2:0.92396535 
1 0 0 0 1:-0.14804966 2:0.92396535 
1 0 0 0 1:-0.14804966 2:0.92396535 
1 0 0 0 1:-0.14804966 2:0.92396535 
1 0 0 0 1:-0.14804966 2:0.92396535 
1 0 1 0 1:-0.14804966 2:0.019488682 
1 0 0 0 1:-0.14804966 2:0.92396535 
1 0 1 0 1:-0.14804966 2:-0.38736016 
1 0 1 0 1:-0.14804966 2:-0.15146735 
1 0 0 0 1:-0.14804966 2:0.92396535 
1 0 1 0 1:-0.14804966 2:-0.36748155 
1 0 0 0 1:-0.14804966 2:0.92396535 
1 0 1 0 1:-0.14804966 2:1.2884065 
1 0 0 0 1:-0.14804966 2:0.92396535 
1 0 0 0 1:-0.14804966 2:1.2062416 
1 0 0 0 1:-0.14804966 2:0.92396535 
1 0 1 0 1:-0.14804966 2:-0.067314573 
1 0 1 0 1:-0.14804966 2:0.020151303 
1 0 0.1214284794304496 0 1:-0.14804966 2:0.90143626 
1 0 1 0 1:-0.14804966 2:0.53036891 
1 0 0 0 1:-0.14804966 2:1.4706271 
1 0 0 0 1:-0.14804966 2:0.92396535 
1 0 0 0 1:-0.14804966 2:0.92396535 
1 0 0 0 1:-0.14804966 2:0.92396535 
1 0 1 0 1:-0.14804966 2:-0.00038992581 
1 0.015672746370232252 0.00029910602375093882 0.0094470790006431198 1:-0.14804966 2:15.501611 
1 0 1 0 1:-0.14804966 2:-0.040147142 
1 0 0 0 1:-0.14804966 2:1.1757611 
1 0 0 0 1:-0.14804966 2:1.2393726 
1 0 0 0 1:-0.14804966 2:0.92396535 
1 0 0 0 1:-0.14804966 2:0.92396535 
1 0 0.013333548858440077 0 1:-0.14804966 2:6.2249275 
1 1 1 0 1:-0.14804966 2:-0.40657615 
1 0 0 0 1:-0.14804966 2:1.2672026 
1 1 1 0 1:-0.14804966 2:-0.41982856 
1 0 0 0 1:-0.14804966 2:0.92396535 
1 0 0 0 1:-0.14804966 2:0.92396535 
1 0 1 0 1:-0.14804966 2:-0.39464899 
1 0 1 0 1:-0.14804966 2:-0.35886749 
1 0 0.97603917360843051 0 1:-0.14804966 2:0.5562111 
1 0 0 0 1:-0.14804966 2:0.92396535 
1 0 0 0 1:-0.14804966 2:0.92396535 
1 0 1 0 1:-0.14804966 2:-0.39464899 
1 0 0 0 1:-0.14804966 2:0.92396535 
1 0 0 0 1:-0.14804966 2:0.92396535 
0 0 1 0 1:-0.14804966 2:1.6627869 
1 0 0 0 1:-0.14804966 2:0.92396535 
1 0 0 0 1:-0.14804966 2:0.92396535 
1 0 0 0 1:-0.14804966 2:0.92396535 
1 0 0 0 1:-0.14804966 2:0.92396535 
1 0 0 0 1:-0.14804966 2:0.92396535 
1 0 0 0 1:-0.14804966 2:0.26598342 
1 0 0 0 1:-0.14804966 2:0.92396535 
0.23843250862263987 0 0 0 1:-0.14804966 2:1.5865856 
1 0 1 0 1:-0.14804966 2:0.87029311 
1 0 0 0 1:-0.14804966 2:1.5865856 
1 0 0 0 1:-0.14804966 2:0.92396535 
1 0 0 0 1:-0.14804966 2:1.5865856 
1 0 0 0 1:-0.14804966 2:0.92396535 
1 0 0 0 1:-0.14804966 2:1.5865856 
1 0 0 0 1:-0.14804966 2:0.92396535 
1 1 1 0 1:-0.14804966 2:-0.40657615 
1 0 0 0 1:-0.14804966 2:0.92396535 
1 0 0 0 1:-0.14804966 2:1.5865856 
1 0 1 0 1:-0.14804966 2:-0.067314573 
0.33855121951096068 0 0 0 1:-0.14804966 2:-0.40127519 
1 0 0 0 1:-0.14804966 2:-0.40127519 
1 0 0 0 1:-0.14804966 2:-0.40127519 
1 0 0 0 1:-0.14804966 2:-0.40127519 
1 0 0 0 1:-0.14804966 2:-0.40127519 
1 0 0 0 1:-0.14804966 2:-0.40127519 
1 0 0 0 1:-0.14804966 2:-0.40127519 
1 0 0 0 1:-0.14804966 2:-0.40127519 
1 0 0 0 1:-0.14804966 2:-0.40127519 
1 0 0 0 1:-0.14804966 2:-0.40127519 
1 0 0 0 1:-0.14804966 2:-0.40127519 
1 0 0 0 1:-0.14804966 2:-0.40127519 
1 0 0 0 1:-0.14804966 2:-0.40127519 
1 0 0 0 1:-0.14804966 2:-0.40127519 
1 0 0 0 1:-0.14804966 2:1.5865856 
1 0 0 0 1:-0.14804966 2:1.5865856 
1 0 0 0 1:-0.14804966 2:1.5865856 
1 0 0 0 1:-0.14804966 2:-0.40127519 
1 0 0 0 1:-0.14804966 2:1.5865856 
1 0 0 0 1:-0.14804966 2:1.5865856 
1 0 0 0 1:-0.14804966 2:-0.40127519 
1 0 0 0 1:-0.14804966 2:-0.40127519 
1 0 0 0 1:-0.14804966 2:-0.40127519 
1 0 0 0 1:-0.14804966 2:-0.40127519 
1 0 0 0 1:-0.14804966 2:-0.40127519 
1 0 0 0 1:-0.14804966 2:-0.40127519 
1 0 0 0 1:-0.14804966 2:-0.40127519 
1 0 0 0 1:-0.14804966 2:-0.40127519 
1 0 0 0 1:-0.14804966 2:1.5865856 
1 0 0 0 1:-0.14804966 2:-0.40127519 
1 0 0 0 1:-0.14804966 2:-0.40127519 
1 0 0 0 1:-0.14804966 2:-0.40127519 
1 0 0 0 1:-0.14804966 2:-0.40127519 
1 0 0 0 1:-0.14804966 2:-0.40127519 
1 0 0 0 1:-0.14804966 2:0.92396535 
1 0 0 0 1:-0.14804966 2:-0.40127519 
1 0 0 0 1:-0.14804966 2:-0.40127519 
1 0 0 0 1:-0.14804966 2:-0.40127519 
1 0 0 0 1:-0.14804966 2:-0.40127519 
1 0 0 0 1:-0.14804966 2:-0.40127519 
1 0 0 0 1:-0.14804966 2:-0.40127519 
1 0 0 0 1:-0.14804966 2:-0.40127519 
1 0 0 0 1:-0.14804966 2:-0.40127519 
1 0 0 0 1:-0.14804966 2:-0.40127519 
1 0 0 0 1:-0.14804966 2:-0.40127519 
1 0 0 0 1:-0.14804966 2:-0.40127519 
1 0 0 0 1:-0.14804966 2:1.5865856 
1 0 0 0 1:-0.14804966 2:-0.40127519 
1 0 0 0 1:-0.14804966 2:-0.40127519 
1 0 0 0 1:-0.14804966 2:-0.40127519 
1 0 0 0 1:-0.14804966 2:-0.40127519 
1 0 0 0 1:-0.14804966 2:-0.40127519 
1 0 0 0 1:-0.14804966 2:-0.40127519 
1 0 0 0 1:-0.14804966 2:-0.40127519 
1 0 0 0 1:-0.14804966 2:-0.40127519 
1 0 0 0 1:-0.14804966 2:-0.40127519 
1 0 0 0 1:-0.14804966 2:-0.40127519 
1 0 0 0 1:-0.14804966 2:-0.40127519 
1 0 0 0 1:-0.14804966 2:1.5865856 
1 0 0 0 1:-0.14804966 2:-0.40127519 
1 0 0 0 1:-0.14804966 2:-0.40127519 
1 0 0 0 1:-0.14804966 2:-0.40127519 
1 0 0 0 1:-0.14804966 2:-0.40127519 
1 0 0 0 1:-0.14804966 2:-0.40127519 
1 0 0 0 1:-0.14804966 2:1.5865856 
1 0 0 0 1:-0.14804966 2:-0.40127519 
1 0 0 0 1:-0.14804966 2:-0.40127519 
1 0 0 0 1:-0.14804966 2:-0.40127519 
1 0 0 0 1:-0.14804966 2:-0.40127519 
1 0 0 0 1:-0.14804966 2:1.5865856 
1 0 1 0 1:-0.14804966 2:-0.37278252 
1 0 0 0 1:-0.14804966 2:-0.40127519 
1 0 0 0 1:-0.14804966 2:0.92396535 
1 0 0 0 1:-0.14804966 2:-0.40127519 
1 0 0 0 1:-0.14804966 2:-0.40127519 
1 0 0 0 1:-0.14804966 2:-0.40127519 
1 0 0 0 1:-0.14804966 2:-0.40127519 
1 0 0 0 1:-0.14804966 2:-0.40127519 
1 0 0 0 1:-0.14804966 2:-0.40127519 
1 0 0 0 1:-0.14804966 2:-0.40127519 
1 0 0 0 1:-0.14804966 2:-0.40127519 
1 0 0 0 1:-0.14804966 2:-0.40127519 
1 0 0 0 1:-0.14804966 2:-0.40127519 
1 0 0 0 1:-0.14804966 2:-0.40127519 
1 0 0 0 1:-0.14804966 2:0.92396535 
1 0 0 0 1:-0.14804966 2:-0.40127519 
1 0 0 0 1:-0.14804966 2:-0.40127519 
1 0 0 0 1:-0.14804966 2:-0.40127519 
1 0 0 0 1:-0.14804966 2:-0.40127519 
1 0 0 0 1:-0.14804966 2:-0.40127519 
1 0 0 0 1:-0.14804966 2:-0.40127519 
1 0 0 0 1:-0.14804966 2:-0.40127519 
1 0 0 0 1:-0.14804966 2:-0.40127519 
1 0 0 0 1:-0.14804966 2:-0.40127519 
1 0 0 0 1:-0.14804966 2:1.5865856 
1 0 0 0 1:-0.14804966 2:-0.40127519 
1 0 0 0 1:-0.14804966 2:-0.40127519 
1 0 0 0 1:-0.14804966 2:-0.40127519 
1 0 0 0 1:-0.14804966 2:-0.40127519 
1 0 0 0 1:-0.14804966 2:-0.40127519 
1 0 0 0 1:-0.14804966 2:-0.40127519 
1 0 0 0 1:-0.14804966 2:-0.40127519 
1 0 0 0 1:-0.14804966 2:-0.40127519 
1 0 0 0 1:-0.14804966 2:-0.40127519 
1 0 0 0 1:-0.14804966 2:-0.40127519 
1 0 0 0 1:-0.14804966 2:-0.40127519 
1 0 0 0 1:-0.14804966 2:-0.40127519 
1 0 0 0 1:-0.14804966 2:-0.40127519 
1 0 0 0 1:-0.14804966 2:-0.40127519 
1 0 0 0 1:-0.14804966 2:-0.40127519 
1 0 0 0 1:-0.14804966 2:-0.40127519 
1 0 0 0 1:-0.14804966 2:-0.40127519 
1 0 0 0 1:-0.14804966 2:-0.40127519 
1 0 0 0 1:-0.14804966 2:-0.40127519 
1 0 0 0 1:-0.14804966 2:-0.40127519 
1 0 0 0 1:-0.14804966 2:-0.40127519 
1 0 0 0 1:-0.14804966 2:-0.40127519 
1 0 0 0 1:-0.14804966 2:-0.40127519 
1 0 0 0 1:-0.14804966 2:-0.40127519 
1 0 0 0 1:-0.14804966 2:-0.40127519 
1 0 0 0 1:-0.14804966 2:-0.40127519 
1 0 0 0 1:-0.14804966 2:-0.40127519 
1 0 0 0 1:-0.14804966 2:-0.40127519 
1 0 0 0 1:-0.14804966 2:-0.40127519 
1 0 0 0 1:-0.14804966 2:1.5865856 
1 0 0 0 1:-0.14804966 2:-0.40127519 
1 0 0 0 1:-0.14804966 2:-0.40127519 
1 0 0 0 1:-0.14804966 2:-0.40127519 
1 0 0 0 1:-0.14804966 2:-0.40127519 
1 0 0 0 1:-0.14804966 2:-0.40127519 
1 0 0 0 1:-0.14804966 2:-0.40127519 
1 0 0 0 1:-0.14804966 2:-0.40127519 
1 0 0 0 1:-0.14804966 2:-0.40127519 
1 0 0 0 1:-0.14804966 2:-0.40127519 
1 0 0 0 1:-0.14804966 2:-0.40127519 
1 0 0 0 1:-0.14804966 2:-0.40127519 
1 0 0 0 1:-0.14804966 2:-0.40127519 
1 0 0 0 1:-0.14804966 2:-0.40127519 
1 0 0 0 1:-0.14804966 2:-0.40127519 
1 0 0 0 1:-0.14804966 2:1.2420231 
1 0 0 0 1:-0.14804966 2:-0.40127519 
1 0 0 0 1:-0.14804966 2:-0.40127519 
1 0 0 0 1:-0.14804966 2:-0.40127519 
1 0 0 0 1:-0.14804966 2:-0.40127519 
1 0 0 0 1:-0.14804966 2:-0.40127519 
1 0 0 0 1:-0.14804966 2:-0.40127519 
1 0 0 0 1:-0.14804966 2:-0.40127519 
1 0 0 0 1:-0.14804966 2:-0.40127519 
1 0 0 0 1:-0.14804966 2:-0.40127519 
1 0 0 0 1:-0.14804966 2:-0.40127519 
1 0 0 0 1:-0.14804966 2:-0.40127519 
1 0 0 0 1:-0.14804966 2:-0.40127519 
1 0 0 0 1:-0.14804966 2:-0.40127519 
1 0 0 0 1:-0.14804966 2:-0.40127519 
1 0 0 0 1:-0.14804966 2:-0.40127519 
1 0 0 0 1:-0.14804966 2:-0.40127519 
1 0 0 0 1:-0.14804966 2:-0.40127519 
1 0 0 0 1:-0.14804966 2:1.5865856 
1 0 0 0 1:-0.14804966 2:-0.40127519 
1 0 0 0 1:-0.14804966 2:-0.40127519 
1 0 0 0 1:-0.14804966 2:-0.40127519 
1 0 0 0 1:-0.14804966 2:-0.40127519 
1 0 0 0 1:-0.14804966 2:-0.40127519 
1 0 0 0 1:-0.14804966 2:-0.40127519 
1 0 0 0 1:-0.14804966 2:-0.40127519 
1 0 0 0 1:-0.14804966 2:-0.40127519 
1 0 0 0 1:-0.14804966 2:-0.40127519 
1 0 0 0 1:-0.14804966 2:-0.40127519 
1 0 0 0 1:-0.14804966 2:-0.40127519 
1 0 0 0 1:-0.14804966 2:-0.40127519 
1 0 0 0 1:-0.14804966 2:-0.40127519 
1 0 0 0 1:-0.14804966 2:-0.40127519 
1 0 0 0 1:-0.14804966 2:-0.40127519 
1 0 0 0 1:-0.14804966 2:-0.40127519 
1 0 0 0 1:-0.14804966 2:-0.40127519 
1 0 0 0 1:-0.14804966 2:-0.40127519 
1 0 0 0 1:-0.14804966 2:-0.40127519 
1 0 0 0 1:-0.14804966 2:-0.40127519 
1 0 0 0 1:-0.14804966 2:-0.40127519 
1 0 0 0 1:-0.14804966 2:-0.40127519 
1 0 0 0 1:-0.14804966 2:-0.40127519 
1 0 0 0 1:-0.14804966 2:-0.40127519 
1 0 0 0 1:-0.14804966 2:-0.40127519 
1 0 0 0 1:-0.14804966 2:-0.40127519 
1 0 0 0 1:-0.14804966 2:-0.40127519 
1 0 0 0 1:-0.14804966 2:-0.40127519 
1 0 0 0 1:-0.14804966 2:-0.40127519 
1 0 0 0 1:-0.14804966 2:-0.40127519 
1 0 0 0 1:-0.14804966 2:-0.40127519 
1 0 0 0 1:-0.14804966 2:-0.40127519 
1 0 0 0 1:-0.14804966 2:-0.40127519 
1 1 1 0 1:-0.14804966 2:-0.4344062 
1 0 0 0 1:-0.14804966 2:-0.40127519 
1 0 0 0 1:-0.14804966 2:-0.40127519 
1 0 0 0 1:-0.14804966 2:-0.40127519 
1 0 0 0 1:-0.14804966 2:-0.40127519 
1 0 0 0 1:-0.14804966 2:-0.40127519 
1 0 0 0 1:-0.14804966 2:-0.40127519 
1 0 0 0 1:-0.14804966 2:-0.40127519 
1 0 0 0 1:-0.14804966 2:-0.40127519 
1 0 0 0 1:-0.14804966 2:-0.40127519 
1 0 0 0 1:-0.14804966 2:-0.40127519 
1 0 0 0 1:-0.14804966 2:-0.40127519 
1 0 0 0 1:-0.14804966 2:-0.40127519 
1 0 0 0 1:-0.14804966 2:-0.40127519 
1 0 0 0 1:-0.14804966 2:-0.40127519 
1 0 0 0 1:-0.14804966 2:-0.40127519 
1 0 0 0 1:-0.14804966 2:-0.40127519 
1 0 0 0 1:-0.14804966 2:-0.40127519 
1 0 0 0 1:-0.14804966 2:-0.40127519 
1 0 0 0 1:-0.14804966 2:-0.40127519 
1 0 0 0 1:-0.14804966 2:-0.40127519 
1 0 0 0 1:-0.14804966 2:-0.40127519 
1 0 0 0 1:-0.14804966 2:-0.40127519 
1 0 0 0 1:-0.14804966 2:-0.40127519 
1 0 0 0 1:-0.14804966 2:-0.40127519 
1 0 0 0 1:-0.14804966 2:-0.40127519 
1 0 0 0 1:-0.14804966 2:-0.40127519 
1 0 0 0 1:-0.14804966 2:-0.40127519 
1 0 0 0 1:-0.14804966 2:-0.40127519 
1 0 0 0 1:-0.14804966 2:-0.40127519 
1 0 0 0 1:-0.14804966 2:-0.40127519 
1 0 0 0 1:-0.14804966 2:-0.40127519 
1 0 0 0 1:-0.14804966 2:-0.40127519 
1 0 0 0 1:-0.14804966 2:-0.40127519 
1 0 0 0 1:-0.14804966 2:-0.40127519 
1 0 0 0 1:-0.14804966 2:-0.40127519 
1 0 0 0 1:-0.14804966 2:-0.40127519 
1 0 0 0 1:-0.14804966 2:-0.40127519 
1 0 1 0 1:-0.14804966 2:-0.38139658 
1 0 0 0 1:-0.14804966 2:-0.40127519 
1 0 0 0 1:-0.14804966 2:-0.40127519 
1 0 0 0 1:-0.14804966 2:-0.40127519 
1 0 0 0 1:-0.14804966 2:-0.40127519 
1 0 0 0 1:-0.14804966 2:-0.40127519 
1 0 0 0 1:-0.14804966 2:-0.40127519 
1 0 0 0 1:-0.14804966 2:-0.40127519 
1 0 0 0 1:-0.14804966 2:-0.40127519 
1 0 0 0 1:-0.14804966 2:-0.40127519 
1 0 0 0 1:-0.14804966 2:-0.40127519 
1 0 0 0 1:-0.14804966 2:-0.40127519 
1 0 0 0 1:-0.14804966 2:1.5865856 
1 0 0 0 1:-0.14804966 2:-0.40127519 
1 0 0 0 1:-0.14804966 2:-0.40127519 
1 0 0 0 1:-0.14804966 2:-0.40127519 
1 0 0 0 1:-0.14804966 2:-0.40127519 
1 0 0 0 1:-0.14804966 2:-0.40127519 
1 0 0 0 1:-0.14804966 2:-0.40127519 
1 0 0 0 1:-0.14804966 2:-0.40127519 
1 0 0 0 1:-0.14804966 2:-0.40127519 
1 0 0 0 1:-0.14804966 2:-0.40127519 
1 0 0 0 1:-0.14804966 2:-0.40127519 
1 0 0 0 1:-0.14804966 2:-0.40127519 
1 0 0 0 1:-0.14804966 2:-0.40127519 
1 0 0 0 1:-0.14804966 2:-0.40127519 
1 0 0 0 1:-0.14804966 2:-0.40127519 
1 0 0 0 1:-0.14804966 2:0.92396535 
1 0 0 0 1:-0.14804966 2:-0.40127519 
1 0 0 0 1:-0.14804966 2:-0.40127519 
1 0 0 0 1:-0.14804966 2:-0.40127519 
1 0 0 0 1:-0.14804966 2:1.5865856 
1 0 0 0 1:-0.14804966 2:-0.40127519 
1 0 0 0 1:-0.14804966 2:-0.40127519 
1 0 0 0 1:-0.14804966 2:-0.40127519 
1 0 0 0 1:-0.14804966 2:-0.40127519 
1 0 0 0 1:-0.14804966 2:-0.40127519 
1 0 0 0 1:-0.14804966 2:-0.40127519 
1 0 0 0 1:-0.14804966 2:0.92396535 
1 0 0 0 1:-0.14804966 2:-0.40127519 
1 0 1 0 1:-0.14804966 2:0.018163442 
1 0 0 0 1:-0.14804966 2:-0.40127519 
1 0 0 0 1:-0.14804966 2:1.5865856 
1 0 0 0 1:-0.14804966 2:-0.40127519 
1 0 0 0 1:-0.14804966 2:-0.40127519 
1 0 0 0 1:-0.14804966 2:-0.40127519 
1 0 0 0 1:-0.14804966 2:-0.40127519 
1 0 0 0 1:-0.14804966 2:-0.40127519 
1 0 0 0 1:-0.14804966 2:-0.40127519 
1 0 0 0 1:-0.14804966 2:-0.40127519 
1 0 0 0 1:-0.14804966 2:-0.40127519 
1 0 0 0 1:-0.14804966 2:1.5865856 
1 0 0 0 1:-0.14804966 2:1.5865856 
1 0 0 0 1:-0.14804966 2:1.5865856 
1 0 0 0 1:-0.14804966 2:-0.40127519 
1 0 0 0 1:-0.14804966 2:-0.40127519 
1 0 0 0 1:-0.14804966 2:-0.40127519 
1 0 0 0 1:-0.14804966 2:-0.40127519 
1 0 0 0 1:-0.14804966 2:-0.40127519 
1 0 0 0 1:-0.14804966 2:1.5865856 
1 0 0 0 1:-0.14804966 2:-0.40127519 
1 0 0 0 1:-0.14804966 2:0.92396535 
1 0 0 0 1:-0.14804966 2:-0.40127519 
1 0 0 0 1:-0.14804966 2:-0.40127519 
1 0 0 0 1:-0.14804966 2:-0.40127519 
1 0 0 0 1:-0.14804966 2:-0.40127519 
1 0 0 0 1:-0.14804966 2:-0.40127519 
1 0 0 0 1:-0.14804966 2:-0.40127519 
1 0 0 0 1:-0.14804966 2:-0.40127519 
1 0 1 0 1:-0.14804966 2:1.0313098 
1 0 0 0 1:-0.14804966 2:-0.40127519 
1 0 0 0 1:-0.14804966 2:-0.40127519 
1 0 0 0 1:-0.14804966 2:-0.40127519 
1 0 0 0 1:-0.14804966 2:-0.40127519 
1 0 0 0 1:-0.14804966 2:-0.40127519 
1 0 0 0 1:-0.14804966 2:-0.40127519 
1 0 0 0 1:-0.14804966 2:-0.40127519 
1 0 0 0 1:-0.14804966 2:1.5865856 
1 0 0 0 1:-0.14804966 2:-0.40127519 
1 0 0 0 1:-0.14804966 2:-0.40127519 
1 0 0 0 1:-0.14804966 2:-0.40127519 
1 0 0 0 1:-0.14804966 2:-0.40127519 
1 0 0 0 1:-0.14804966 2:-0.40127519 
1 0 0 0 1:-0.14804966 2:-0.40127519 
1 0 0 0 1:-0.14804966 2:1.5865856 
1 0 0 0 1:-0.14804966 2:-0.40127519 
1 0 0 0 1:-0.14804966 2:-0.40127519 
1 0 0 0 1:-0.14804966 2:0.92396535 
1 0 0 0 1:-0.14804966 2:-0.40127519 
1 0 0 0 1:-0.14804966 2:-0.40127519 
1 0 0 0 1:-0.14804966 2:-0.40127519 
1 0 0 0 1:-0.14804966 2:-0.40127519 
1 0 0 0 1:-0.14804966 2:-0.40127519 
1 0 0 0 1:-0.14804966 2:-0.40127519 
1 0 0.54256741002257158 0 1:-0.14804966 2:-0.10442131 
1 0 0 0 1:-0.14804966 2:-0.40127519 
1 0 0 0 1:-0.14804966 2:-0.40127519 
1 0 0 0 1:-0.14804966 2:1.5865856 
1 0 0 0 1:-0.14804966 2:-0.40127519 
1 0 0 0 1:-0.14804966 2:-0.40127519 
1 0 0 0 1:-0.14804966 2:-0.40127519 
1 0 0 0 1:-0.14804966 2:-0.40127519 
1 0 0 0 1:-0.14804966 2:-0.40127519 
1 0 0 0 1:-0.14804966 2:1.5865856 
1 0 0 0 1:-0.14804966 2:-0.40127519 
1 0 0 0 1:-0.14804966 2:-0.40127519 
1 0 0 0 1:-0.14804966 2:-0.40127519 
1 0 0 0 1:-0.14804966 2:-0.40127519 
1 0 0 0 1:-0.14804966 2:-0.40127519 
1 0 0 0 1:-0.14804966 2:-0.40127519 
1 0 0 0 1:-0.14804966 2:1.1240767 
1 0 0 0 1:-0.14804966 2:0.92396535 
1 0 0 0 1:-0.14804966 2:-0.40127519 
1 0 0 0 1:-0.14804966 2:-0.40127519 
1 0 0 0 1:-0.14804966 2:-0.40127519 
1 0 0 0 1:-0.14804966 2:1.5865856 
1 0 1 0 1:-0.14804966 2:-0.033520939 
1 0 0 0 1:-0.14804966 2:-0.40127519 
1 0 0 0 1:-0.14804966 2:-0.40127519 
1 0 0 0 1:-0.14804966 2:-0.40127519 
1 0 0 0 1:-0.14804966 2:-0.40127519 
1 0 0 0 1:-0.14804966 2:-0.40127519 
1 0 0 0 1:-0.14804966 2:-0.40127519 
1 0 0 0 1:-0.14804966 2:-0.40127519 
1 0 0 0 1:-0.14804966 2:1.5865856 
1 0 0 0 1:-0.14804966 2:-0.40127519 
1 0 0 0 1:-0.14804966 2:-0.40127519 
1 0 0 0 1:-0.14804966 2:-0.40127519 
1 0 0 0 1:-0.14804966 2:-0.40127519 
1 0 0 0 1:-0.14804966 2:-0.40127519 
1 0 0 0 1:-0.14804966 2:-0.40127519 
1 0 0 0 1:-0.14804966 2:-0.40127519 
1 0 0 0 1:-0.14804966 2:-0.40127519 
1 0 0 0 1:-0.14804966 2:-0.40127519 
1 0 0 0 1:-0.14804966 2:-0.40127519 
1 0 0 0 1:-0.14804966 2:-0.40127519 
1 0 0 0 1:-0.14804966 2:-0.40127519 
1 0 0 0 1:-0.14804966 2:-0.40127519 
1 0 0 0 1:-0.14804966 2:-0.40127519 
1 0 0 0 1:-0.14804966 2:-0.40127519 
1 0 0 0 1:-0.14804966 2:-0.40127519 
1 0 0 0 1:-0.14804966 2:-0.40127519 
1 0 0 0 1:-0.14804966 2:-0.40127519 
1 0 0 0 1:-0.14804966 2:-0.40127519 
1 0 0 0 1:-0.14804966 2:-0.40127519 
1 0 0 0 1:-0.14804966 2:-0.40127519 
1 0 0 0 1:-0.14804966 2:-0.40127519 
1 0 0 0 1:-0.14804966 2:1.5865856 
1 0 0 0 1:-0.14804966 2:0.92396535 
1 0 0 0 1:-0.14804966 2:-0.40127519 
1 0 0 0 1:-0.14804966 2:-0.40127519 
1 0 0 0 1:-0.14804966 2:-0.40127519 
1 0 0 0 1:-0.14804966 2:-0.40127519 
1 0 0 0 1:-0.14804966 2:-0.40127519 
1 0 0 0 1:-0.14804966 2:-0.40127519 
1 0 0 0 1:-0.14804966 2:-0.40127519 
1 0 0 0 1:-0.14804966 2:-0.40127519 
1 0 0 0 1:-0.14804966 2:-0.40127519 
1 0 0 0 1:-0.14804966 2:-0.40127519 
1 0 0 0 1:-0.14804966 2:0.92396535 
1 0 0 0 1:-0.14804966 2:-0.40127519 
1 0 0 0 1:-0.14804966 2:-0.40127519 
1 0 0 0 1:-0.14804966 2:-0.40127519 
1 0 0 0 1:-0.14804966 2:-0.40127519 
1 0 1 0 1:-0.14804966 2:0.77686365 
1 0 0 0 1:-0.14804966 2:-0.40127519 
1 0 0 0 1:-0.14804966 2:1.5865856 
1 0 0 0 1:-0.14804966 2:-0.40127519 
1 0 0 0 1:-0.14804966 2:-0.40127519 
1 0 0 0 1:-0.14804966 2:-0.40127519 
1 0 0 0 1:-0.14804966 2:-0.40127519 
1 0 0 0 1:-0.14804966 2:-0.40127519 
1 0 0 0 1:-0.14804966 2:-0.40127519 
1 0 0 0 1:-0.14804966 2:-0.40127519 
1 0 0 0 1:-0.14804966 2:0.92396535 
1 0 0 0 1:-0.14804966 2:-0.40127519 
1 0 0 0 1:-0.14804966 2:-0.40127519 
1 0 0 0 1:-0.14804966 2:-0.40127519 
1 0 0 0 1:-0.14804966 2:1.5865856 
1 0 0 0 1:-0.14804966 2:-0.40127519 
1 0 0 0 1:-0.14804966 2:-0.40127519 
1 0 0 0 1:-0.14804966 2:-0.40127519 
1 0 0 0 1:-0.14804966 2:-0.40127519 
1 0 0 0 1:-0.14804966 2:-0.40127519 
1 0 0 0 1:-0.14804966 2:-0.40127519 
1 0 0 0 1:-0.14804966 2:-0.40127519 
1 0 0 0 1:-0.14804966 2:1.5865856 
1 0 0 0 1:-0.14804966 2:-0.40127519 
1 0 0 0 1:-0.14804966 2:-0.40127519 
1 0 1 0 1:-0.14804966 2:-0.2283313 
1 0 0 0 1:-0.14804966 2:-0.40127519 
1 0 0 0 1:-0.14804966 2:-0.40127519 
1 0 0 0 1:-0.14804966 2:-0.40127519 
1 0 0 0 1:-0.14804966 2:-0.40127519 
1 0 0 0 1:-0.14804966 2:-0.40127519 
1 0 0 0 1:-0.14804966 2:-0.40127519 
1 0 0 0 1:-0.14804966 2:-0.40127519 
1 0 0 0 1:-0.14804966 2:-0.40127519 
1 0 0 0 1:-0.14804966 2:-0.40127519 
1 0 0 0 1:-0.14804966 2:-0.40127519 
1 0 0 0 1:-0.14804966 2:-0.40127519 
1 0 0 0 1:-0.14804966 2:-0.40127519 
1 0 0 0 1:-0.14804966 2:-0.40127519 
1 0 0 0 1:-0.14804966 2:-0.40127519 
1 0 0 0 1:-0.14804966 2:-0.40127519 
1 0 0 0 1:-0.14804966 2:-0.40127519 
1 0 0 0 1:-0.14804966 2:1.5865856 
1 0 0 0 1:-0.14804966 2:-0.40127519 
1 0 0 0 1:-0.14804966 2:1.5865856 
1 0 0 0 1:-0.14804966 2:-0.40127519 
1 0 0 0 1:-0.14804966 2:-0.40127519 
1 0 0 0 1:-0.14804966 2:-0.40127519 
1 0 0 0 1:-0.14804966 2:-0.40127519 
1 0 0 0 1:-0.14804966 2:-0.40127519 
1 0 0 0 1:-0.14804966 2:-0.40127519 
1 0 0 0 1:-0.14804966 2:-0.40127519 
1 0 0 0 1:-0.14804966 2:-0.40127519 
1 0 0 0 1:-0.14804966 2:1.5865856 
1 0 0 0 1:-0.14804966 2:-0.40127519 
1 0 0 0 1:-0.14804966 2:-0.40127519 
1 0 0 0 1:-0.14804966 2:-0.40127519 
1 0 0 0 1:-0.14804966 2:-0.40127519 
1 0 0 0 1:-0.14804966 2:-0.40127519 
1 0 0 0 1:-0.14804966 2:-0.40127519 
1 0 0 0 1:-0.14804966 2:-0.40127519 
1 0 0 0 1:-0.14804966 2:-0.40127519 
1 0 0 0 1:-0.14804966 2:-0.40127519 
1 0 0 0 1:-0.14804966 2:-0.40127519 
1 0 0 0 1:-0.14804966 2:-0.40127519 
1 0 0 0 1:-0.14804966 2:-0.40127519 
1 0 0 0 1:-0.14804966 2:-0.40127519 
1 0 0 0 1:-0.14804966 2:-0.40127519 
1 0 0 0 1:-0.14804966 2:-0.40127519 
1 0 0 0 1:-0.14804966 2:-0.40127519 
1 0 0 0 1:-0.14804966 2:1.1578703 
1 0 0 0 1:-0.14804966 2:-0.40127519 
1 0 0 0 1:-0.14804966 2:-0.40127519 
1 0 0 0 1:-0.14804966 2:-0.40127519 
1 0 0 0 1:-0.14804966 2:-0.40127519 
1 0 0 0 1:-0.14804966 2:-0.40127519 
1 0 0 0 1:-0.14804966 2:-0.40127519 
1 0 0 0 1:-0.14804966 2:-0.40127519 
1 0 0 0 1:-0.14804966 2:-0.40127519 
1 0 0 0 1:-0.14804966 2:1.5865856 
1 0 0 0 1:-0.14804966 2:-0.40127519 
1 0 0 0 1:-0.14804966 2:-0.40127519 
1 0 0 0 1:-0.14804966 2:1.5865856 
1 0 0 0 1:-0.14804966 2:-0.40127519 
1 0 0 0 1:-0.14804966 2:-0.40127519 
1 0 0 0 1:-0.14804966 2:-0.40127519 
1 0 0 0 1:-0.14804966 2:-0.40127519 
1 0 0 0 1:-0.14804966 2:-0.40127519 
1 0 0 0 1:-0.14804966 2:-0.40127519 
1 0 0 0 1:-0.14804966 2:-0.40127519 
1 0 0 0 1:-0.14804966 2:-0.40127519 
1 0 0 0 1:-0.14804966 2:-0.40127519 
1 0 0 0 1:-0.14804966 2:-0.40127519 
1 0 0 0 1:-0.14804966 2:-0.40127519 
1 0 0 0 1:-0.14804966 2:-0.40127519 
1 0 0 0 1:-0.14804966 2:-0.40127519 
1 0 0 0 1:-0.14804966 2:1.5865856 
1 0 0 0 1:-0.14804966 2:-0.40127519 
1 0 0 0 1:-0.14804966 2:1.5865856 
1 0 0 0 1:-0.14804966 2:-0.40127519 
1 0 0 0 1:-0.14804966 2:-0.40127519 
1 0 0 0 1:-0.14804966 2:-0.40127519 
1 0 0 0 1:-0.14804966 2:-0.40127519 
1 0 0 0 1:-0.14804966 2:-0.40127519 
1 0 0 0 1:-0.14804966 2:-0.40127519 
1 0 0 0 1:-0.14804966 2:0.97432449 
1 0 0 0 1:-0.14804966 2:-0.40127519 
1 0 0 0 1:-0.14804966 2:-0.40127519 
1 0 0 0 1:-0.14804966 2:-0.40127519 
1 0 0 0 1:-0.14804966 2:-0.40127519 
1 0 0 0 1:-0.14804966 2:0.27592273 
1 0 0 0 1:-0.14804966 2:-0.40127519 
1 0 0 0 1:-0.14804966 2:-0.40127519 
1 0 0 0 1:-0.14804966 2:-0.40127519 
1 0 0 0 1:-0.14804966 2:-0.40127519 
1 0 0 0 1:-0.14804966 2:-0.40127519 
1 0 0 0 1:-0.14804966 2:-0.40127519 
1 0 0 0 1:-0.14804966 2:-0.40127519 
1 0 0 0 1:-0.14804966 2:-0.40127519 
1 0 0 0 1:-0.14804966 2:-0.40127519 
1 0 0 0 1:-0.14804966 2:-0.40127519 
1 0 0 0 1:-0.14804966 2:0.92396535 
1 0 0 0 1:-0.14804966 2:-0.40127519 
1 0 0 0 1:-0.14804966 2:0.92396535 
1 0 0 0 1:-0.14804966 2:-0.40127519 
1 0 0 0 1:-0.14804966 2:-0.40127519 
1 0 0 0 1:-0.14804966 2:-0.40127519 
1 0 0 0 1:-0.14804966 2:-0.40127519 
1 0 0 0 1:-0.14804966 2:-0.40127519 
1 0 0 0 1:-0.14804966 2:-0.40127519 
1 0 0 0 1:-0.14804966 2:-0.40127519 
1 0 0 0 1:-0.14804966 2:1.5865856 
1 0 0 0 1:-0.14804966 2:-0.40127519 
1 0 0 0 1:-0.14804966 2:1.5865856 
1 0 0 0 1:-0.14804966 2:-0.40127519 
1 0 0 0 1:-0.14804966 2:-0.40127519 
1 0 0 0 1:-0.14804966 2:-0.40127519 
1 0 0 0 1:-0.14804966 2:-0.40127519 
1 0 0 0 1:-0.14804966 2:-0.40127519 
1 0 0 0 1:-0.14804966 2:-0.40127519 
1 0 0 0 1:-0.14804966 2:-0.40127519 
1 0 0 0 1:-0.14804966 2:1.5865856 
1 0 0 0 1:-0.14804966 2:-0.40127519 
1 0 0 0 1:-0.14804966 2:-0.40127519 
1 0 0 0 1:-0.14804966 2:1.5865856 
1 0 0 0 1:-0.14804966 2:-0.40127519 
1 0 0 0 1:-0.14804966 2:-0.40127519 
1 0 0 0 1:-0.14804966 2:-0.40127519 
1 0 0 0 1:-0.14804966 2:-0.40127519 
1 0 0 0 1:-0.14804966 2:-0.40127519 
1 0 0 0 1:-0.14804966 2:-0.40127519 
1 0 0 0 1:-0.14804966 2:-0.40127519 
1 0 0 0 1:-0.14804966 2:-0.40127519 
1 0 0 0 1:-0.14804966 2:-0.40127519 
1 0 0 0 1:-0.14804966 2:-0.40127519 
1 0 0 0 1:-0.14804966 2:1.5865856 
1 0 0 0 1:-0.14804966 2:-0.40127519 
1 0 0 0 1:-0.14804966 2:-0.40127519 
1 0 0 0 1:-0.14804966 2:-0.40127519 
1 0 0 0 1:-0.14804966 2:-0.40127519 
1 0 0 0 1:-0.14804966 2:-0.40127519 
1 0 0 0 1:-0.14804966 2:0.92396535 
1 0 0 0 1:-0.14804966 2:1.5865856 
1 0 0 0 1:-0.14804966 2:-0.40127519 
1 0 0 0 1:-0.14804966 2:-0.40127519 
1 0 0 0 1:-0.14804966 2:-0.40127519 
1 0 0 0 1:-0.14804966 2:-0.40127519 
1 0 0 0 1:-0.14804966 2:-0.40127519 
1 0 0 0 1:-0.14804966 2:-0.40127519 
1 0 0 0 1:-0.14804966 2:-0.40127519 
1 0 0 0 1:-0.14804966 2:-0.40127519 
1 0 0 0 1:-0.14804966 2:1.5865856 
1 0 0 0 1:-0.14804966 2:-0.40127519 
1 0 0 0 1:-0.14804966 2:-0.40127519 
1 0 0 0 1:-0.14804966 2:-0.40127519 
1 0 0 0 1:-0.14804966 2:-0.40127519 
1 0 0 0 1:-0.14804966 2:-0.40127519 
1 0 0 0 1:-0.14804966 2:1.5865856 
1 0 0 0 1:-0.14804966 2:-0.40127519 
1 0 0 0 1:-0.14804966 2:-0.40127519 
1 0 0 0 1:-0.14804966 2:-0.40127519 
1 0 0 0 1:-0.14804966 2:-0.40127519 
1 0 0 0 1:-0.14804966 2:-0.40127519 
1 0 0 0 1:-0.14804966 2:-0.40127519 
1 0 0 0 1:-0.14804966 2:-0.40127519 
1 0 0 0 1:-0.14804966 2:-0.40127519 
1 0 0 0 1:-0.14804966 2:-0.40127519 
1 0 0 0 1:-0.14804966 2:-0.40127519 
1 0 0 0 1:-0.14804966 2:-0.40127519 
1 0 0 0 1:-0.14804966 2:-0.40127519 
1 0 1 0 1:-0.14804966 2:-0.33037482 
1 0 0 0 1:-0.14804966 2:-0.40127519 
1 0 0 0 1:-0.14804966 2:-0.40127519 
1 0 0 0 1:-0.14804966 2:-0.40127519 
1 0 0 0 1:-0.14804966 2:-0.40127519 
1 0 0 0 1:-0.14804966 2:-0.40127519 
1 0 0 0 1:-0.14804966 2:-0.40127519 
1 0 0 0 1:-0.14804966 2:-0.40127519 
1 0 0 0 1:-0.14804966 2:-0.40127519 
1 0 0 0 1:-0.14804966 2:-0.40127519 
1 0 0 0 1:-0.14804966 2:-0.40127519 
1 0 0 0 1:-0.14804966 2:-0.40127519 
1 0 0 0 1:-0.14804966 2:-0.40127519 
1 0 0 0 1:-0.14804966 2:-0.40127519 
1 0 0 0 1:-0.14804966 2:-0.40127519 
1 0 0 0 1:-0.14804966 2:1.5865856 
1 0 0 0 1:-0.14804966 2:-0.40127519 
1 0 0 0 1:-0.14804966 2:-0.40127519 
1 0 0 0 1:-0.14804966 2:-0.40127519 
1 0 0 0 1:-0.14804966 2:0.92396535 
1 0 0 0 1:-0.14804966 2:-0.40127519 
1 0 1 0 1:-0.14804966 2:-0.11966157 
1 0 1 0 1:-0.14804966 2:-0.050086446 
1 0 0.0002633084535812854 0 1:-0.14804966 2:0.45019186 
1 0 0 0 1:-0.14804966 2:-0.40127519 
1 0 0 0 1:-0.14804966 2:-0.40127519 
1 0 0 0 1:-0.14804966 2:-0.40127519 
1 0 0 0 1:-0.14804966 2:-0.40127519 
1 0 0 0 1:-0.14804966 2:-0.40127519 
1 0 0 0 1:-0.14804966 2:-0.40127519 
1 0 0 0 1:-0.14804966 2:-0.40127519 
1 0 0 0 1:-0.14804966 2:-0.40127519 
1 0 0 0 1:-0.14804966 2:-0.40127519 
1 0 0 0 1:-0.14804966 2:-0.40127519 
1 0 0 0 1:-0.14804966 2:-0.40127519 
1 1 1 0 1:-0.14804966 2:-0.40657615 
1 0 0 0 1:-0.14804966 2:-0.40127519 
1 0 0 0 1:-0.14804966 2:-0.40127519 
0.81230142606370237 0 0 0 1:-0.14804966 2:0.26134508 
1 0 0 0 1:-0.14804966 2:-0.40127519 
1 0 0 0 1:-0.14804966 2:0.26134508 
1 0 0 0 1:-0.14804966 2:-0.40127519 
1 0 0 0 1:-0.14804966 2:0.26134508 
1 0 0 0 1:-0.14804966 2:0.26134508 
1 0 0 0 1:-0.14804966 2:-0.40127519 
1 0 0 0 1:-0.14804966 2:0.26134508 
1 0 0 0 1:-0.14804966 2:-0.40127519 
1 0 0 0 1:-0.14804966 2:-0.40127519 
1 0 0 0 1:-0.14804966 2:0.26134508 
1 0 0 0 1:-0.14804966 2:1.5865856 
1 0 0 0 1:-0.14804966 2:-0.40127519 
1 0 0 0 1:-0.14804966 2:-0.40127519 
1 0 0 0 1:-0.14804966 2:-0.40127519 
1 0 0 0 1:-0.14804966 2:0.26134508 
1 0 0 0 1:-0.14804966 2:-0.40127519 
1 0 0 0 1:-0.14804966 2:-0.40127519 
1 0 0 0 1:-0.14804966 2:-0.40127519 
1 0 0 0 1:-0.14804966 2:0.26134508 
1 0 0 0 1:-0.14804966 2:-0.40127519 
1 0 0 0 1:-0.14804966 2:-0.40127519 
1 0 0 0 1:-0.14804966 2:0.26134508 
1 0 0 0 1:-0.14804966 2:0.26134508 
1 0 0 0 1:-0.14804966 2:-0.40127519 
1 0 0 0 1:-0.14804966 2:0.26134508 
1 0 0 0 1:-0.14804966 2:0.26134508 
1 0 0 0 1:-0.14804966 2:-0.40127519 
1 0 0 0 1:-0.14804966 2:-0.40127519 
1 0 0 0 1:-0.14804966 2:1.5865856 
1 0 0 0 1:-0.14804966 2:0.26134508 
1 0 0 0 1:-0.14804966 2:-0.40127519 
1 0 0 0 1:-0.14804966 2:0.26134508 
1 0 0 0 1:-0.14804966 2:-0.40127519 
1 0 0 0 1:-0.14804966 2:-0.40127519 
1 0 0 0 1:-0.14804966 2:-0.40127519 
1 0 0 0 1:-0.14804966 2:0.26134508 
1 0 0 0 1:-0.14804966 2:-0.40127519 
1 0 0 0 1:-0.14804966 2:0.26134508 
1 0 0 0 1:-0.14804966 2:-0.40127519 
1 0 0 0 1:-0.14804966 2:0.26134508 
1 0 0 0 1:-0.14804966 2:-0.40127519 
1 0 0 0 1:-0.14804966 2:-0.40127519 
1 0 0 0 1:-0.14804966 2:0.26134508 
1 0 0 0 1:-0.14804966 2:-0.40127519 
1 0 0 0 1:-0.14804966 2:-0.40127519 
1 0 0 0 1:-0.14804966 2:-0.40127519 
1 0 0 0 1:-0.14804966 2:0.26134508 
1 0 0 0 1:-0.14804966 2:1.5865856 
1 0 0 0 1:-0.14804966 2:0.26134508 
1 0 0 0 1:-0.14804966 2:-0.40127519 
1 0 0 0 1:-0.14804966 2:-0.40127519 
1 0 0 0 1:-0.14804966 2:-0.40127519 
1 0 0 0 1:-0.14804966 2:-0.40127519 
1 0 0 0 1:-0.14804966 2:-0.40127519 
1 0 0 0 1:-0.14804966 2:-0.40127519 
1 0 0 0 1:-0.14804966 2:-0.40127519 
1 0 0 0 1:-0.14804966 2:-0.40127519 
1 0 0 0 1:-0.14804966 2:-0.40127519 
1 0 0 0 1:-0.14804966 2:-0.40127519 
1 0 0 0 1:-0.14804966 2:-0.40127519 
1 0 0 0 1:-0.14804966 2:0.26134508 
1 0 0 0 1:-0.14804966 2:-0.40127519 
1 0 0 0 1:-0.14804966 2:-0.40127519 
1 0 0 0 1:-0.14804966 2:-0.40127519 
1 0 0 0 1:-0.14804966 2:0.26134508 
1 0 0 0 1:-0.14804966 2:-0.40127519 
1 0 0 0 1:-0.14804966 2:-0.40127519 
1 0 0 0 1:-0.14804966 2:-0.40127519 
1 0 0 0 1:-0.14804966 2:-0.40127519 
1 0 0 0 1:-0.14804966 2:-0.40127519 
1 0 0 0 1:-0.14804966 2:-0.40127519 
1 0 0 0 1:-0.14804966 2:-0.40127519 
1 0 0 0 1:-0.14804966 2:0.26134508 
1 0 0 0 1:-0.14804966 2:0.26134508 
1 0 0 0 1:-0.14804966 2:-0.40127519 
1 0 0 0 1:-0.14804966 2:-0.40127519 
1 0 0 0 1:-0.14804966 2:1.5865856 
1 0 0 0 1:-0.14804966 2:0.26134508 
1 0 0 0 1:-0.14804966 2:-0.40127519 
1 0 0 0 1:-0.14804966 2:0.26134508 
1 0 0 0 1:-0.14804966 2:0.26134508 
1 0 0 0 1:-0.14804966 2:-0.40127519 
1 0 0 0 1:-0.14804966 2:-0.40127519 
1 0 0 0 1:-0.14804966 2:-0.40127519 
1 0 0 0 1:-0.14804966 2:-0.40127519 
1 0 0 0 1:-0.14804966 2:0.26134508 
1 0 0 0 1:-0.14804966 2:-0.40127519 
1 0 0 0 1:-0.14804966 2:0.26134508 
1 0 0 0 1:-0.14804966 2:0.26134508 
1 0 0 0 1:-0.14804966 2:-0.40127519 
1 0 0 0 1:-0.14804966 2:0.26134508 
1 0 0 0 1:-0.14804966 2:-0.40127519 
1 0 0 0 1:-0.14804966 2:0.26134508 
1 0 0 0 1:-0.14804966 2:0.26134508 
1 0 0 0 1:-0.14804966 2:-0.40127519 
1 0 0 0 1:-0.14804966 2:-0.40127519 
1 0 0 0 1:-0.14804966 2:-0.40127519 
1 0 0 0 1:-0.14804966 2:-0.40127519 
1 0 0 0 1:-0.14804966 2:0.26134508 
1 0 0 0 1:-0.14804966 2:-0.40127519 
1 0 0 0 1:-0.14804966 2:1.5865856 
1 0 0 0 1:-0.14804966 2:0.26134508 
1 0 0 0 1:-0.14804966 2:0.26134508 
1 0 0 0 1:-0.14804966 2:-0.40127519 
1 0 0 0 1:-0.14804966 2:1.5865856 
1 0 0 0 1:-0.14804966 2:-0.40127519 
1 0 0 0 1:-0.14804966 2:-0.40127519 
1 0 0 0 1:-0.14804966 2:0.26134508 
1 0 0 0 1:-0.14804966 2:0.26134508 
1 0 0 0 1:-0.14804966 2:-0.40127519 
1 0 0 0 1:-0.14804966 2:-0.40127519 
1 0 0 0 1:-0.14804966 2:-0.40127519 
1 0 0 0 1:-0.14804966 2:-0.40127519 
1 0 0 0 1:-0.14804966 2:-0.40127519 
1 0 0 0 1:-0.14804966 2:-0.40127519 
1 0 0 0 1:-0.14804966 2:0.26134508 
1 0 0 0 1:-0.14804966 2:-0.40127519 
1 0 0 0 1:-0.14804966 2:0.26134508 
1 0 0 0 1:-0.14804966 2:0.26134508 
1 0 0 0 1:-0.14804966 2:-0.40127519 
1 0 0 0 1:-0.14804966 2:0.26134508 
1 0 0 0 1:-0.14804966 2:-0.40127519 
1 0 0 0 1:-0.14804966 2:-0.40127519 
1 0 0 0 1:-0.14804966 2:-0.40127519 
1 0 0 0 1:-0.14804966 2:0.26134508 
1 0 0 0 1:-0.14804966 2:-0.40127519 
1 0 0 0 1:-0.14804966 2:-0.40127519 
1 0 0 0 1:-0.14804966 2:0.26134508 
1 0 0 0 1:-0.14804966 2:-0.40127519 
1 0 0 0 1:-0.14804966 2:-0.40127519 
1 0 0 0 1:-0.14804966 2:0.26134508 
1 0 0 0 1:-0.14804966 2:-0.40127519 
1 0 0 0 1:-0.14804966 2:0.26134508 
1 0 0 0 1:-0.14804966 2:-0.40127519 
1 0 0 0 1:-0.14804966 2:-0.40127519 
1 0 0 0 1:-0.14804966 2:-0.40127519 
1 0 0 0 1:-0.14804966 2:0.26134508 
1 0 0 0 1:-0.14804966 2:0.26134508 
1 0 0 0 1:-0.14804966 2:-0.40127519 
1 0 0 0 1:-0.14804966 2:-0.40127519 
1 0 0 0 1:-0.14804966 2:0.26134508 
1 0 0 0 1:-0.14804966 2:-0.40127519 
1 0 0 0 1:-0.14804966 2:-0.40127519 
1 0 0 0 1:-0.14804966 2:0.26134508 
1 0 0 0 1:-0.14804966 2:0.26134508 
1 0 0 0 1:-0.14804966 2:0.26134508 
1 0 0 0 1:-0.14804966 2:-0.40127519 
1 0 0 0 1:-0.14804966 2:-0.40127519 
1 0 0 0 1:-0.14804966 2:-0.40127519 
1 0 0 0 1:-0.14804966 2:-0.40127519 
1 0 0 0 1:-0.14804966 2:0.26134508 
1 0 0 0 1:-0.14804966 2:0.26134508 
1 0 0 0 1:-0.14804966 2:0.26134508 
1 0 0 0 1:-0.14804966 2:0.26134508 
1 0 0 0 1:-0.14804966 2:-0.40127519 
1 0 0 0 1:-0.14804966 2:-0.40127519 
1 0 0 0 1:-0.14804966 2:-0.40127519 
1 0 0 0 1:-0.14804966 2:0.26134508 
1 0 0 0 1:-0.14804966 2:-0.40127519 
1 0 0 0 1:-0.14804966 2:-0.40127519 
1 0 0 0 1:-0.14804966 2:0.26134508 
1 0 0 0 1:-0.14804966 2:-0.40127519 
1 0 0 0 1:-0.14804966 2:-0.40127519 
1 0 0 0 1:-0.14804966 2:-0.40127519 
1 0 0 0 1:-0.14804966 2:-0.40127519 
1 0 0 0 1:-0.14804966 2:-0.40127519 
1 0 0 0 1:-0.14804966 2:-0.40127519 
1 0 0 0 1:-0.14804966 2:0.26134508 
1 0 0 0 1:-0.14804966 2:-0.40127519 
1 0 0 0 1:-0.14804966 2:-0.40127519 
1 0 0 0 1:-0.14804966 2:-0.40127519 
1 0 0 0 1:-0.14804966 2:0.26134508 
1 0 0 0 1:-0.14804966 2:0.26134508 
1 0 0 0 1:-0.14804966 2:-0.40127519 
1 0 0 0 1:-0.14804966 2:0.26134508 
1 0 0 0 1:-0.14804966 2:0.26134508 
1 0 0 0 1:-0.14804966 2:-0.40127519 
1 0 0 0 1:-0.14804966 2:-0.40127519 
1 0 0 0 1:-0.14804966 2:1.5865856 
1 0 0 0 1:-0.14804966 2:0.26134508 
1 0 0 0 1:-0.14804966 2:0.26134508 
1 0 0 0 1:-0.14804966 2:-0.40127519 
1 0 0 0 1:-0.14804966 2:0.26134508 
1 0 0 0 1:-0.14804966 2:-0.40127519 
1 0 0 0 1:-0.14804966 2:0.26134508 
1 0 0 0 1:-0.14804966 2:-0.40127519 
1 0 0 0 1:-0.14804966 2:1.5865856 
1 0 0 0 1:-0.14804966 2:-0.40127519 
1 0 0 0 1:-0.14804966 2:-0.40127519 
1 0 0 0 1:-0.14804966 2:-0.40127519 
1 0 0 0 1:-0.14804966 2:1.5865856 
1 0 0 0 1:-0.14804966 2:0.26134508 
1 0 0 0 1:-0.14804966 2:-0.40127519 
1 0 0 0 1:-0.14804966 2:-0.40127519 
1 0 0 0 1:-0.14804966 2:-0.40127519 
1 0 0 0 1:-0.14804966 2:-0.40127519 
1 0 0 0 1:-0.14804966 2:0.26134508 
1 0 0 0 1:-0.14804966 2:-0.40127519 
1 0 0 0 1:-0.14804966 2:0.26134508 
1 0 0 0 1:-0.14804966 2:-0.40127519 
1 0 0 0 1:-0.14804966 2:0.26134508 
1 0 0 0 1:-0.14804966 2:-0.40127519 
1 0 0 0 1:-0.14804966 2:0.26134508 
1 0 0 0 1:-0.14804966 2:-0.40127519 
1 0 0 0 1:-0.14804966 2:-0.40127519 
1 0 0 0 1:-0.14804966 2:-0.40127519 
1 0 0 0 1:-0.14804966 2:0.26134508 
1 0 0 0 1:-0.14804966 2:-0.40127519 
1 0 0 0 1:-0.14804966 2:-0.40127519 
1 0 0 0 1:-0.14804966 2:0.26134508 
1 0 0 0 1:-0.14804966 2:-0.40127519 
1 0 0 0 1:-0.14804966 2:0.26134508 
1 0 0 0 1:-0.14804966 2:0.26134508 
1 0 0 0 1:-0.14804966 2:-0.40127519 
1 0 0 0 1:-0.14804966 2:-0.40127519 
1 0 0 0 1:-0.14804966 2:0.26134508 
1 0 0 0 1:-0.14804966 2:0.26134508 
1 0 0 0 1:-0.14804966 2:0.26134508 
1 0 0 0 1:-0.14804966 2:0.26134508 
1 0 0 0 1:-0.14804966 2:0.26134508 
1 0 0 0 1:-0.14804966 2:1.5865856 
1 0 0 0 1:-0.14804966 2:0.26134508 
1 0 0 0 1:-0.14804966 2:-0.40127519 
1 0 0 0 1:-0.14804966 2:-0.40127519 
1 0 0 0 1:-0.14804966 2:-0.40127519 
1 0 0 0 1:-0.14804966 2:-0.40127519 
1 0 0 0 1:-0.14804966 2:-0.40127519 
1 0 0 0 1:-0.14804966 2:-0.40127519 
1 0 0 0 1:-0.14804966 2:0.26134508 
1 0 0 0 1:-0.14804966 2:-0.40127519 
1 0 0 0 1:-0.14804966 2:1.5865856 
1 0 0 0 1:-0.14804966 2:-0.40127519 
1 0 0 0 1:-0.14804966 2:-0.40127519 
1 0 0 0 1:-0.14804966 2:0.26134508 
1 0 0 0 1:-0.14804966 2:-0.40127519 
1 0 0 0 1:-0.14804966 2:0.26134508 
1 0 0 0 1:-0.14804966 2:1.5865856 
1 0 0 0 1:-0.14804966 2:-0.40127519 
1 0 0 0 1:-0.14804966 2:-0.40127519 
1 0 0 0 1:-0.14804966 2:-0.40127519 
1 0 0 0 1:-0.14804966 2:-0.40127519 
1 0 0 0 1:-0.14804966 2:0.26134508 
1 0 0 0 1:-0.14804966 2:0.26134508 
1 0 0 0 1:-0.14804966 2:0.26134508 
1 0 0 0 1:-0.14804966 2:0.26134508 
1 0 0 0 1:-0.14804966 2:0.26134508 
1 0 0 0 1:-0.14804966 2:0.26134508 
1 0 0 0 1:-0.14804966 2:-0.40127519 
1 0 0 0 1:-0.14804966 2:1.5865856 
1 0 0 0 1:-0.14804966 2:0.26134508 
1 0 0 0 1:-0.14804966 2:0.26134508 
1 0 0 0 1:-0.14804966 2:0.26134508 
1 0 0 0 1:-0.14804966 2:0.26134508 
1 0 0 0 1:-0.14804966 2:-0.40127519 
1 0 0 0 1:-0.14804966 2:1.5865856 
1 0 0 0 1:-0.14804966 2:-0.40127519 
1 0 0 0 1:-0.14804966 2:0.26134508 
1 0 1 0 1:-0.14804966 2:-0.34362722 
1 0 0 0 1:-0.14804966 2:0.92396535 
1 0 0 0 1:-0.14804966 2:-0.40127519 
1 0 0 0 1:-0.14804966 2:-0.40127519 
1 0 0 0 1:-0.14804966 2:0.26134508 
1 0 0 0 1:-0.14804966 2:-0.40127519 
1 0 0 0 1:-0.14804966 2:0.26134508 
1 0 0 0 1:-0.14804966 2:-0.40127519 
1 0 0 0 1:-0.14804966 2:-0.40127519 
1 0 0 0 1:-0.14804966 2:-0.40127519 
1 0 0 0 1:-0.14804966 2:-0.40127519 
1 0 0 0 1:-0.14804966 2:0.26134508 
1 0 0 0 1:-0.14804966 2:-0.40127519 
1 0 0 0 1:-0.14804966 2:-0.40127519 
1 0 0 0 1:-0.14804966 2:-0.40127519 
1 0 0 0 1:-0.14804966 2:0.26134508 
1 0 0 0 1:-0.14804966 2:-0.40127519 
1 0 0 0 1:-0.14804966 2:-0.40127519 
1 0 0 0 1:-0.14804966 2:-0.40127519 
1 0 0 0 1:-0.14804966 2:0.26134508 
1 0 0 0 1:-0.14804966 2:0.26134508 
1 0 0 0 1:-0.14804966 2:-0.40127519 
1 0 0 0 1:-0.14804966 2:0.26134508 
1 0 0 0 1:-0.14804966 2:0.26134508 
1 0 0 0 1:-0.14804966 2:-0.40127519 
1 0 0 0 1:-0.14804966 2:-0.40127519 
1 0 0 0 1:-0.14804966 2:-0.40127519 
1 0 0 0 1:-0.14804966 2:-0.40127519 
1 0 0 0 1:-0.14804966 2:-0.40127519 
1 0 0 0 1:-0.14804966 2:-0.40127519 
1 0 0 0 1:-0.14804966 2:-0.40127519 
1 0 0 0 1:-0.14804966 2:-0.40127519 
1 0 0 0 1:-0.14804966 2:0.26134508 
1 0 0 0 1:-0.14804966 2:-0.40127519 
1 0 0 0 1:-0.14804966 2:0.26134508 
1 0 0 0 1:-0.14804966 2:-0.40127519 
1 0 0 0 1:-0.14804966 2:-0.40127519 
1 0 0 0 1:-0.14804966 2:0.26134508 
1 0 0 0 1:-0.14804966 2:-0.40127519 
1 0 0 0 1:-0.14804966 2:-0.40127519 
1 0 0 0 1:-0.14804966 2:-0.40127519 
1 0 0 0 1:-0.14804966 2:-0.40127519 
1 0 0 0 1:-0.14804966 2:0.26134508 
1 0 0 0 1:-0.14804966 2:0.26134508 
1 0 0 0 1:-0.14804966 2:-0.40127519 
1 0 0 0 1:-0.14804966 2:-0.40127519 
1 0 0 0 1:-0.14804966 2:-0.40127519 
1 0 0 0 1:-0.14804966 2:0.26134508 
1 0 0 0 1:-0.14804966 2:-0.40127519 
1 0 0 0 1:-0.14804966 2:0.26134508 
1 0 0 0 1:-0.14804966 2:0.26134508 
1 0 0 0 1:-0.14804966 2:-0.40127519 
1 0 0 0 1:-0.14804966 2:-0.40127519 
1 0 0 0 1:-0.14804966 2:0.26134508 
1 0 0 0 1:-0.14804966 2:0.26134508 
1 0 0 0 1:-0.14804966 2:-0.40127519 
1 0 0 0 1:-0.14804966 2:0.26134508 
1 0 0 0 1:-0.14804966 2:-0.40127519 
1 0 0 0 1:-0.14804966 2:-0.40127519 
1 0 0 0 1:-0.14804966 2:0.26134508 
1 0 0 0 1:-0.14804966 2:0.26134508 
1 0 0 0 1:-0.14804966 2:0.26134508 
1 0 0 0 1:-0.14804966 2:-0.40127519 
1 0 0 0 1:-0.14804966 2:0.26134508 
1 0 0 0 1:-0.14804966 2:-0.40127519 
1 0 0 0 1:-0.14804966 2:0.26134508 
1 0 0 0 1:-0.14804966 2:-0.40127519 
1 0 0 0 1:-0.14804966 2:-0.40127519 
1 0 0 0 1:-0.14804966 2:-0.40127519 
1 0 0 0 1:-0.14804966 2:-0.40127519 
1 0 0 0 1:-0.14804966 2:-0.40127519 
1 0 0 0 1:-0.14804966 2:-0.40127519 
1 0 0 0 1:-0.14804966 2:-0.40127519 
1 0 0 0 1:-0.14804966 2:-0.40127519 
1 0 0 0 1:-0.14804966 2:-0.40127519 
1 0 0 0 1:-0.14804966 2:0.26134508 
1 0 0 0 1:-0.14804966 2:-0.40127519 
1 0 0 0 1:-0.14804966 2:0.26134508 
1 0 0 0 1:-0.14804966 2:0.26134508 
1 0 0 0 1:-0.14804966 2:-0.40127519 
1 0 0 0 1:-0.14804966 2:-0.40127519 
1 0 0 0 1:-0.14804966 2:-0.40127519 
1 0 0 0 1:-0.14804966 2:-0.40127519 
1 0 0 0 1:-0.14804966 2:-0.40127519 
1 0 0 0 1:-0.14804966 2:-0.40127519 
1 0 0 0 1:-0.14804966 2:-0.40127519 
1 0 0 0 1:-0.14804966 2:-0.40127519 
1 0 0 0 1:-0.14804966 2:0.26134508 
1 0 0 0 1:-0.14804966 2:-0.40127519 
1 0 0 0 1:-0.14804966 2:-0.40127519 
1 0 0 0 1:-0.14804966 2:1.5865856 
1 0 0 0 1:-0.14804966 2:-0.40127519 
1 0 0 0 1:-0.14804966 2:-0.40127519 
1 0 0 0 1:-0.14804966 2:-0.40127519 
1 0 0 0 1:-0.14804966 2:-0.40127519 
1 0 0 0 1:-0.14804966 2:-0.40127519 
1 0 0 0 1:-0.14804966 2:0.26134508 
1 0 0 0 1:-0.14804966 2:-0.40127519 
1 0 0 0 1:-0.14804966 2:0.26134508 
1 0 0 0 1:-0.14804966 2:0.26134508 
1 0 0 0 1:-0.14804966 2:-0.40127519 
1 0 0 0 1:-0.14804966 2:-0.40127519 
1 0 0 0 1:-0.14804966 2:0.26134508 
1 0 0 0 1:-0.14804966 2:-0.40127519 
1 0 0 0 1:-0.14804966 2:-0.40127519 
1 0 0 0 1:-0.14804966 2:0.26134508 
1 0 0 0 1:-0.14804966 2:-0.40127519 
1 0 0 0 1:-0.14804966 2:-0.40127519 
1 0 0 0 1:-0.14804966 2:-0.40127519 
1 0 0 0 1:-0.14804966 2:-0.40127519 
1 0 0 0 1:-0.14804966 2:-0.40127519 
1 0 0 0 1:-0.14804966 2:0.26134508 
1 0 0 0 1:-0.14804966 2:0.26134508 
1 0 0 0 1:-0.14804966 2:0.26134508 
1 0 0 0 1:-0.14804966 2:0.26134508 
1 0 0 0 1:-0.14804966 2:-0.40127519 
1 0 0 0 1:-0.14804966 2:0.26134508 
1 0 0 0 1:-0.14804966 2:0.26134508 
1 0 0 0 1:-0.14804966 2:0.26134508 
1 0 0 0 1:-0.14804966 2:-0.40127519 
1 0 0 0 1:-0.14804966 2:0.26134508 
1 0 0 0 1:-0.14804966 2:-0.40127519 
1 1 1 0 1:-0.14804966 2:-0.42976786 
1 0 0 0 1:-0.14804966 2:-0.40127519 
1 0 0 0 1:-0.14804966 2:-0.40127519 
1 0 0 0 1:-0.14804966 2:-0.40127519 
1 0 0 0 1:-0.14804966 2:-0.40127519 
1 0 0 0 1:-0.14804966 2:0.26134508 
1 0 0 0 1:-0.14804966 2:-0.40127519 
1 0 0 0 1:-0.14804966 2:-0.40127519 
1 0 0 0 1:-0.14804966 2:0.26134508 
1 0 0 0 1:-0.14804966 2:0.26134508 
1 0 0 0 1:-0.14804966 2:0.26134508 
1 0 0 0 1:-0.14804966 2:0.26134508 
1 0 0 0 1:-0.14804966 2:0.26134508 
1 0 0 0 1:-0.14804966 2:0.26134508 
1 0 0 0 1:-0.14804966 2:-0.40127519 
1 0 0 0 1:-0.14804966 2:0.26134508 
1 0 0 0 1:-0.14804966 2:-0.40127519 
1 0 0 0 1:-0.14804966 2:-0.40127519 
1 0 0 0 1:-0.14804966 2:0.26134508 
1 0 0 0 1:-0.14804966 2:-0.40127519 
1 0 0 0 1:-0.14804966 2:0.26134508 
1 0 0 0 1:-0.14804966 2:0.26134508 
1 0 1 0 1:-0.14804966 2:0.11689386 
1 0 0 0 1:-0.14804966 2:-0.40127519 
1 0 0 0 1:-0.14804966 2:-0.40127519 
1 0 0 0 1:-0.14804966 2:-0.40127519 
1 0 0 0 1:-0.14804966 2:0.26134508 
1 0 0 0 1:-0.14804966 2:0.26134508 
1 0 0 0 1:-0.14804966 2:-0.40127519 
1 0 0 0 1:-0.14804966 2:-0.40127519 
1 0 0 0 1:-0.14804966 2:0.26134508 
1 0 0 0 1:-0.14804966 2:-0.40127519 
1 0 0 0 1:-0.14804966 2:-0.40127519 
1 0 0 0 1:-0.14804966 2:-0.40127519 
1 0 0 0 1:-0.14804966 2:-0.40127519 
1 0 0 0 1:-0.14804966 2:-0.40127519 
1 0 0 0 1:-0.14804966 2:-0.40127519 
1 0 0 0 1:-0.14804966 2:0.26134508 
1 0 0 0 1:-0.14804966 2:-0.40127519 
1 0 0 0 1:-0.14804966 2:1.5865856 
1 0 0 0 1:-0.14804966 2:0.26134508 
1 0 0 0 1:-0.14804966 2:-0.40127519 
1 0 0 0 1:-0.14804966 2:0.26134508 
1 0 0 0 1:-0.14804966 2:1.5865856 
1 0 0 0 1:-0.14804966 2:-0.40127519 
1 0 0 0 1:-0.14804966 2:-0.40127519 
1 0 0 0 1:-0.14804966 2:0.92396535 
1 0 0 0 1:-0.14804966 2:-0.40127519 
1 0 0 0 1:-0.14804966 2:0.26134508 
1 0 0 0 1:-0.14804966 2:-0.40127519 
1 0 0 0 1:-0.14804966 2:-0.40127519 
1 0 0 0 1:-0.14804966 2:-0.40127519 
1 0 0 0 1:-0.14804966 2:0.26134508 
1 0 0 0 1:-0.14804966 2:0.26134508 
1 0 0 0 1:-0.14804966 2:0.26134508 
1 0 0 0 1:-0.14804966 2:-0.40127519 
1 0 0 0 1:-0.14804966 2:-0.40127519 
1 0 0 0 1:-0.14804966 2:-0.40127519 
1 0 0 0 1:-0.14804966 2:0.26134508 
1 0 0 0 1:-0.14804966 2:-0.40127519 
1 0 0 0 1:-0.14804966 2:0.26134508 
1 0 0 0 1:-0.14804966 2:-0.40127519 
1 0 0 0 1:-0.14804966 2:-0.40127519 
1 0 0 0 1:-0.14804966 2:-0.40127519 
1 0 0 0 1:-0.14804966 2:-0.40127519 
1 0 0 0 1:-0.14804966 2:-0.40127519 
1 0 0 0 1:-0.14804966 2:-0.40127519 
1 0 0 0 1:-0.14804966 2:-0.40127519 
1 0 0 0 1:-0.14804966 2:-0.40127519 
1 0 0 0 1:-0.14804966 2:0.26134508 
1 0 0 0 1:-0.14804966 2:0.26134508 
1 0 0 0 1:-0.14804966 2:-0.40127519 
1 0 0 0 1:-0.14804966 2:0.26134508 
1 0 0 0 1:-0.14804966 2:-0.40127519 
1 0 0 0 1:-0.14804966 2:0.26134508 
1 0 0 0 1:-0.14804966 2:0.26134508 
1 0 0 0 1:-0.14804966 2:0.26134508 
1 0 0 0 1:-0.14804966 2:-0.40127519 
0.4818171373285709 0 0 0 1:-0.14804966 2:2.023915 
1 0 0 0 1:-0.14804966 2:0.26134508 
1 0 0 0 1:-0.14804966 2:-0.40127519 
1 0 0 0 1:-0.14804966 2:-0.40127519 
1 0 0 0 1:-0.14804966 2:0.26134508 
1 0 0 0 1:-0.14804966 2:0.26134508 
1 0 0 0 1:-0.14804966 2:-0.40127519 
1 0 0 0 1:-0.14804966 2:-0.40127519 
1 0 0 0 1:-0.14804966 2:-0.40127519 
1 0 0 0 1:-0.14804966 2:0.26134508 
1 0 0 0 1:-0.14804966 2:0.26134508 
1 0 0 0 1:-0.14804966 2:-0.40127519 
1 0 0 0 1:-0.14804966 2:0.26134508 
1 0 0 0 1:-0.14804966 2:-0.40127519 
1 0 0 0 1:-0.14804966 2:-0.40127519 
1 0 0 0 1:-0.14804966 2:-0.40127519 
1 0 0 0 1:-0.14804966 2:0.26134508 
1 0 0 0 1:-0.14804966 2:-0.40127519 
1 0 0 0 1:-0.14804966 2:-0.40127519 
1 0 0 0 1:-0.14804966 2:-0.40127519 
1 0 0 0 1:-0.14804966 2:-0.40127519 
1 0 0 0 1:-0.14804966 2:0.26134508 
1 0 0 0 1:-0.14804966 2:-0.40127519 
1 0 0 0 1:-0.14804966 2:0.26134508 
1 0 0 0 1:-0.14804966 2:-0.40127519 
1 0 0 0 1:-0.14804966 2:0.26134508 
1 0 0 0 1:-0.14804966 2:0.26134508 
1 0 0 0 1:-0.14804966 2:0.26134508 
1 0 0 0 1:-0.14804966 2:-0.40127519 
1 0 0 0 1:-0.14804966 2:-0.40127519 
1 0 0 0 1:-0.14804966 2:-0.40127519 
1 0 0 0 1:-0.14804966 2:-0.40127519 
1 0 0 0 1:-0.14804966 2:0.26134508 
1 0 0 0 1:-0.14804966 2:0.26134508 
1 0 0 0 1:-0.14804966 2:0.26134508 
1 0 0 0 1:-0.14804966 2:0.26134508 
1 0 0 0 1:-0.14804966 2:1.5865856 
1 0 0 0 1:-0.14804966 2:-0.40127519 
1 0 0 0 1:-0.14804966 2:-0.40127519 
1 0 0 0 1:-0.14804966 2:-0.40127519 
1 0 0 0 1:-0.14804966 2:-0.40127519 
1 0 0 0 1:-0.14804966 2:-0.40127519 
1 0 0 0 1:-0.14804966 2:-0.40127519 
1 0 0 0 1:-0.14804966 2:-0.40127519 
1 0 0 0 1:-0.14804966 2:-0.40127519 
1 0 0 0 1:-0.14804966 2:-0.40127519 
1 0 0 0 1:-0.14804966 2:0.26134508 
1 0 0 0 1:-0.14804966 2:0.26134508 
1 0 0 0 1:-0.14804966 2:0.92396535 
1 0 0 0 1:-0.14804966 2:0.26134508 
1 0 0 0 1:-0.14804966 2:-0.40127519 
1 0 0 0 1:-0.14804966 2:-0.40127519 
1 0 0 0 1:-0.14804966 2:-0.40127519 
1 0 0 0 1:-0.14804966 2:-0.40127519 
1 0 0 0 1:-0.14804966 2:0.26134508 
1 0 0 0 1:-0.14804966 2:0.26134508 
1 0 0 0 1:-0.14804966 2:-0.40127519 
1 0 0 0 1:-0.14804966 2:0.26134508 
1 0 0 0 1:-0.14804966 2:-0.40127519 
1 0 0 0 1:-0.14804966 2:0.26134508 
1 0 0 0 1:-0.14804966 2:-0.40127519 
1 0 0 0 1:-0.14804966 2:-0.40127519 
1 0 0 0 1:-0.14804966 2:1.5865856 
1 0 0 0 1:-0.14804966 2:-0.40127519 
1 0 0 0 1:-0.14804966 2:-0.40127519 
1 0 0 0 1:-0.14804966 2:-0.40127519 
1 0 0 0 1:-0.14804966 2:0.26134508 
1 0 0 0 1:-0.14804966 2:-0.40127519 
1 0 0 0 1:-0.14804966 2:-0.40127519 
1 0 0 0 1:-0.14804966 2:-0.40127519 
1 0 0 0 1:-0.14804966 2:-0.40127519 
1 0 0 0 1:-0.14804966 2:-0.40127519 
1 0 0 0 1:-0.14804966 2:0.92396535 
1 0 0 0 1:-0.14804966 2:0.26134508 
1 0 0 0 1:-0.14804966 2:0.26134508 
1 0 0 0 1:-0.14804966 2:-0.40127519 
1 0 0 0 1:-0.14804966 2:0.26134508 
1 0 0 0 1:-0.14804966 2:-0.40127519 
1 0 0 0 1:-0.14804966 2:-0.40127519 
1 0 0 0 1:-0.14804966 2:0.26134508 
1 0 0 0 1:-0.14804966 2:0.26134508 
1 0 0 0 1:-0.14804966 2:0.26134508 
1 0 0 0 1:-0.14804966 2:1.5865856 
1 0 0 0 1:-0.14804966 2:-0.40127519 
1 0 0 0 1:-0.14804966 2:0.26134508 
1 0 0 0 1:-0.14804966 2:0.26134508 
1 0 0 0 1:-0.14804966 2:0.26134508 
1 0 0 0 1:-0.14804966 2:-0.40127519 
1 0 0 0 1:-0.14804966 2:0.26134508 
1 0 0 0 1:-0.14804966 2:0.26134508 
1 0 0 0 1:-0.14804966 2:-0.40127519 
1 0 0 0 1:-0.14804966 2:-0.40127519 
1 0 0 0 1:-0.14804966 2:-0.40127519 
1 0 0 0 1:-0.14804966 2:0.26134508 
1 0 0 0 1:-0.14804966 2:-0.40127519 
1 0 0 0 1:-0.14804966 2:-0.40127519 
1 0 0 0 1:-0.14804966 2:-0.40127519 
1 0 0 0 1:-0.14804966 2:-0.40127519 
1 0 0 0 1:-0.14804966 2:-0.40127519 
1 0 0 0 1:-0.14804966 2:0.26134508 
1 0 0 0 1:-0.14804966 2:0.26134508 
1 0 0 0 1:-0.14804966 2:-0.40127519 
1 0 0 0 1:-0.14804966 2:-0.40127519 
1 0 0 0 1:-0.14804966 2:0.26134508 
1 0 0 0 1:-0.14804966 2:-0.40127519 
1 0 0 0 1:-0.14804966 2:-0.40127519 
1 0 0 0 1:-0.14804966 2:-0.40127519 
1 0 0 0 1:-0.14804966 2:-0.40127519 
1 0 0 0 1:-0.14804966 2:-0.40127519 
1 0 0 0 1:-0.14804966 2:-0.40127519 
1 0 0 0 1:-0.14804966 2:0.26134508 
1 0 0 0 1:-0.14804966 2:-0.40127519 
1 0 0 0 1:-0.14804966 2:-0.40127519 
1 0 0 0 1:-0.14804966 2:-0.40127519 
1 0 0 0 1:-0.14804966 2:-0.40127519 
1 0 0 0 1:-0.14804966 2:-0.40127519 
1 0 0 0 1:-0.14804966 2:-0.40127519 
1 0 0 0 1:-0.14804966 2:-0.40127519 
1 0 0 0 1:-0.14804966 2:-0.40127519 
1 0 0 0 1:-0.14804966 2:-0.40127519 
1 0 0 0 1:-0.14804966 2:-0.40127519 
1 0 0 0 1:-0.14804966 2:0.26134508 
1 0 0 0 1:-0.14804966 2:0.26134508 
1 0 0 0 1:-0.14804966 2:-0.40127519 
1 0 0 0 1:-0.14804966 2:0.26134508 
1 0 0 0 1:-0.14804966 2:-0.40127519 
1 0 0 0 1:-0.14804966 2:0.26134508 
1 0 0 0 1:-0.14804966 2:-0.40127519 
1 0 0 0 1:-0.14804966 2:1.5865856 
1 0 0 0 1:-0.14804966 2:-0.40127519 
1 0 0 0 1:-0.14804966 2:0.26134508 
1 0 0 0 1:-0.14804966 2:0.26134508 
1 0 0 0 1:-0.14804966 2:-0.40127519 
1 0 0 0 1:-0.14804966 2:0.26134508 
1 0 0 0 1:-0.14804966 2:1.5865856 
1 0 0 0 1:-0.14804966 2:-0.40127519 
1 0 0 0 1:-0.14804966 2:-0.40127519 
1 0 0 0 1:-0.14804966 2:-0.40127519 
1 1 1 0 1:-0.14804966 2:-0.40723877 
1 0 0 0 1:-0.14804966 2:1.5865856 
1 0 0 0 1:-0.14804966 2:-0.40127519 
1 0 0 0 1:-0.14804966 2:0.26134508 
1 0 0 0 1:-0.14804966 2:0.26134508 
1 0 0 0 1:-0.14804966 2:0.26134508 
1 0 0 0 1:-0.14804966 2:-0.40127519 
1 0 0 0 1:-0.14804966 2:-0.40127519 
1 0 1 0 1:-0.14804966 2:-0.38736016 
1 0 0 0 1:-0.14804966 2:0.26134508 
1 0 0 0 1:-0.14804966 2:-0.40127519 
1 0 0 0 1:-0.14804966 2:-0.40127519 
1 0 0 0 1:-0.14804966 2:-0.40127519 
1 0 0 0 1:-0.14804966 2:0.26134508 
1 0 0 0 1:-0.14804966 2:-0.40127519 
1 0 0 0 1:-0.14804966 2:-0.40127519 
1 0 0 0 1:-0.14804966 2:0.26134508 
1 0 0 0 1:-0.14804966 2:-0.40127519 
1 0 0 0 1:-0.14804966 2:0.26134508 
1 0 0 0 1:-0.14804966 2:-0.40127519 
1 0 0 0 1:-0.14804966 2:0.26134508 
1 0 0 0 1:-0.14804966 2:-0.40127519 
1 0 0 0 1:-0.14804966 2:0.26134508 
1 0 0 0 1:-0.14804966 2:-0.40127519 
1 0 0 0 1:-0.14804966 2:0.26134508 
1 0 0 0 1:-0.14804966 2:0.26134508 
1 0 0 0 1:-0.14804966 2:-0.40127519 
1 0 0 0 1:-0.14804966 2:0.26134508 
1 0 0 0 1:-0.14804966 2:-0.40127519 
1 0 0 0 1:-0.14804966 2:-0.40127519 
1 0 0 0 1:-0.14804966 2:-0.40127519 
0.72058838900618372 0 3.6876548077343293e-05 0 1:-0.14804966 2:2.1464997 
1 0 0 0 1:-0.14804966 2:-0.40127519 
1 0 0 0 1:-0.14804966 2:-0.40127519 
1 0 0 0 1:-0.14804966 2:0.26134508 
1 0 0 0 1:-0.14804966 2:-0.40127519 
1 0 0 0 1:-0.14804966 2:-0.40127519 
1 0 0 0 1:-0.14804966 2:0.26134508 
1 0 0 0 1:-0.14804966 2:0.26134508 
1 0 0 0 1:-0.14804966 2:-0.40127519 
1 0 0 0 1:-0.14804966 2:-0.40127519 
1 0 0 0 1:-0.14804966 2:-0.40127519 
1 0 0 0 1:-0.14804966 2:1.5865856 
1 0 0 0 1:-0.14804966 2:-0.40127519 
1 0 0 0 1:-0.14804966 2:-0.40127519 
1 0 0 0 1:-0.14804966 2:-0.40127519 
1 0 0 0 1:-0.14804966 2:-0.40127519 
1 0 0 0 1:-0.14804966 2:0.26134508 
1 0 0 0 1:-0.14804966 2:-0.40127519 
1 0 0 0 1:-0.14804966 2:-0.40127519 
1 0 0 0 1:-0.14804966 2:-0.40127519 
1 0 0 0 1:-0.14804966 2:-0.40127519 
1 0 0 0 1:-0.14804966 2:-0.40127519 
1 0 0 0 1:-0.14804966 2:-0.40127519 
1 0 0 0 1:-0.14804966 2:-0.40127519 
1 0 0 0 1:-0.14804966 2:-0.40127519 
1 0 0 0 1:-0.14804966 2:-0.40127519 
1 0 0 0 1:-0.14804966 2:1.5865856 
1 0 0 0 1:-0.14804966 2:-0.40127519 
1 0 0 0 1:-0.14804966 2:-0.40127519 
1 0 0 0 1:-0.14804966 2:-0.40127519 
1 0 0 0 1:-0.14804966 2:-0.40127519 
1 0 0 0 1:-0.14804966 2:0.26134508 
1 0 0 0 1:-0.14804966 2:0.26134508 
1 0 0 0 1:-0.14804966 2:-0.40127519 
1 0 0 0 1:-0.14804966 2:0.26134508 
1 0 0 0 1:-0.14804966 2:0.26134508 
1 0 0 0 1:-0.14804966 2:0.26134508 
1 0 0 0 1:-0.14804966 2:-0.40127519 
1 0 0 0 1:-0.14804966 2:-0.40127519 
1 0 0 0 1:-0.14804966 2:0.26134508 
1 0 0 0 1:-0.14804966 2:-0.40127519 
1 0 0 0 1:-0.14804966 2:-0.40127519 
1 0 0 0 1:-0.14804966 2:0.26134508 
1 0 0 0 1:-0.14804966 2:-0.40127519 
1 0 0 0 1:-0.14804966 2:-0.40127519 
1 0 0 0 1:-0.14804966 2:1.5865856 
1 0 0 0 1:-0.14804966 2:-0.40127519 
1 0 0 0 1:-0.14804966 2:1.5865856 
1 0 0 0 1:-0.14804966 2:0.26134508 
1 0 0 0 1:-0.14804966 2:0.26134508 
1 0 0 0 1:-0.14804966 2:-0.40127519 
1 0 0 0 1:-0.14804966 2:0.26134508 
1 0 0 0 1:-0.14804966 2:0.26134508 
1 0 0 0 1:-0.14804966 2:0.26134508 
1 0 0 0 1:-0.14804966 2:-0.40127519 
1 0 0 0 1:-0.14804966 2:-0.40127519 
1 0 0 0 1:-0.14804966 2:0.26134508 
1 0 0 0 1:-0.14804966 2:-0.40127519 
1 0 0 0 1:-0.14804966 2:-0.40127519 
1 0 0 0 1:-0.14804966 2:-0.40127519 
1 0 0 0 1:-0.14804966 2:1.5865856 
1 0 0 0 1:-0.14804966 2:0.26134508 
1 0 0 0 1:-0.14804966 2:-0.40127519 
1 0 0 0 1:-0.14804966 2:-0.40127519 
1 0 0 0 1:-0.14804966 2:1.5865856 
1 0 0 0 1:-0.14804966 2:-0.40127519 
1 0 0 0 1:-0.14804966 2:-0.40127519 
1 0 0 0 1:-0.14804966 2:-0.40127519 
1 0 0 0 1:-0.14804966 2:-0.40127519 
1 0 0 0 1:-0.14804966 2:-0.40127519 
1 0 0 0 1:-0.14804966 2:-0.40127519 
1 0 0 0 1:-0.14804966 2:-0.40127519 
0 0 1 0 1:-0.14804966 2:0.29248823 
1 0 0 0 1:-0.14804966 2:0.26134508 
1 0 0 0 1:-0.14804966 2:0.26134508 
1 0 0 0 1:-0.14804966 2:-0.40127519 
1 0 0 0 1:-0.14804966 2:0.26134508 
1 0 0 0 1:-0.14804966 2:-0.40127519 
1 0 0 0 1:-0.14804966 2:-0.40127519 
1 0 0 0 1:-0.14804966 2:-0.40127519 
1 0 0 0 1:-0.14804966 2:-0.40127519 
1 0 0 0 1:-0.14804966 2:-0.40127519 
1 0 0 0 1:-0.14804966 2:-0.40127519 
1 0 0 0 1:-0.14804966 2:-0.40127519 
1 0 0 0 1:-0.14804966 2:0.92396535 
1 0 0 0 1:-0.14804966 2:-0.40127519 
1 0 0 0 1:-0.14804966 2:-0.40127519 
1 0 0 0 1:-0.14804966 2:-0.40127519 
1 0 0 0 1:-0.14804966 2:-0.40127519 
1 0 0 0 1:-0.14804966 2:-0.40127519 
1 0 0 0 1:-0.14804966 2:-0.40127519 
1 0 0 0 1:-0.14804966 2:-0.40127519 
1 0 0 0 1:-0.14804966 2:-0.40127519 
1 0 0 0 1:-0.14804966 2:-0.40127519 
1 0 0 0 1:-0.14804966 2:1.5865856 
1 0 0 0 1:-0.14804966 2:1.5865856 
1 0 0 0 1:-0.14804966 2:-0.40127519 
1 0 0 0 1:-0.14804966 2:-0.40127519 
1 0 0 0 1:-0.14804966 2:-0.40127519 
1 0 0 0 1:-0.14804966 2:0.26134508 
1 0 0 0 1:-0.14804966 2:-0.40127519 
1 0 0 0 1:-0.14804966 2:-0.40127519 
1 0 0 0 1:-0.14804966 2:0.26134508 
1 0 0 0 1:-0.14804966 2:-0.40127519 
1 0 0 0 1:-0.14804966 2:-0.40127519 
1 0 0 0 1:-0.14804966 2:-0.40127519 
1 0 0 0 1:-0.14804966 2:-0.40127519 
1 0 0 0 1:-0.14804966 2:0.26134508 
1 0 0 0 1:-0.14804966 2:-0.40127519 
1 0 0 0 1:-0.14804966 2:-0.40127519 
1 0 1 0 1:-0.14804966 2:-0.33435054 
1 0 0 0 1:-0.14804966 2:0.26134508 
1 0 0 0 1:-0.14804966 2:-0.40127519 
1 0 0 0 1:-0.14804966 2:-0.40127519 
1 0 0 0 1:-0.14804966 2:-0.40127519 
1 0 0 0 1:-0.14804966 2:0.26134508 
1 0 0 0 1:-0.14804966 2:0.26134508 
1 0 0 0 1:-0.14804966 2:1.23871 
1 0 0 0 1:-0.14804966 2:-0.40127519 
1 0 0 0 1:-0.14804966 2:-0.40127519 
1 0 0 0 1:-0.14804966 2:0.26134508 
1 0 0 0 1:-0.14804966 2:0.26134508 
1 0 0 0 1:-0.14804966 2:0.26134508 
1 0 0 0 1:-0.14804966 2:1.5865856 
1 0 0 0 1:-0.14804966 2:-0.40127519 
1 0 0 0 1:-0.14804966 2:0.26134508 
1 0 0 0 1:-0.14804966 2:-0.40127519 
1 0 0 0 1:-0.14804966 2:-0.40127519 
1 0 0 0 1:-0.14804966 2:0.26134508 
1 0 0 0 1:-0.14804966 2:-0.40127519 
1 0 0 0 1:-0.14804966 2:1.5865856 
1 0 0 0 1:-0.14804966 2:0.26134508 
1 0 0 0 1:-0.14804966 2:-0.40127519 
1 0 0 0 1:-0.14804966 2:-0.40127519 
1 0 0 0 1:-0.14804966 2:0.26134508 
1 0 0 0 1:-0.14804966 2:0.26134508 
1 0 0 0 1:-0.14804966 2:0.26134508 
1 0 0 0 1:-0.14804966 2:0.26134508 
1 0 0 0 1:-0.14804966 2:1.5865856 
1 0 0 0 1:-0.14804966 2:-0.40127519 
1 0 0 0 1:-0.14804966 2:-0.40127519 
1 0 0 0 1:-0.14804966 2:0.26134508 
1 0 0 0 1:-0.14804966 2:0.26134508 
1 0 0 0 1:-0.14804966 2:-0.40127519 
1 0 0 0 1:-0.14804966 2:-0.40127519 
1 0 0 0 1:-0.14804966 2:-0.40127519 
1 0 0 0 1:-0.14804966 2:-0.40127519 
1 0 0 0 1:-0.14804966 2:0.26134508 
1 0 0 0 1:-0.14804966 2:0.26134508 
1 0 0 0 1:-0.14804966 2:0.26134508 
1 0 0 0 1:-0.14804966 2:-0.40127519 
1 0 0 0 1:-0.14804966 2:-0.40127519 
1 0 0 0 1:-0.14804966 2:-0.40127519 
1 0 0 0 1:-0.14804966 2:-0.40127519 
1 0 0 0 1:-0.14804966 2:-0.40127519 
1 0 0 0 1:-0.14804966 2:-0.40127519 
1 0 0 0 1:-0.14804966 2:-0.40127519 
1 0 0 0 1:-0.14804966 2:0.26134508 
1 0 0 0 1:-0.14804966 2:-0.40127519 
1 0 0 0 1:-0.14804966 2:-0.40127519 
1 0 0 0 1:-0.14804966 2:-0.40127519 
1 0 0 0 1:-0.14804966 2:0.26134508 
1 0 0 0 1:-0.14804966 2:0.26134508 
1 0 0 0 1:-0.14804966 2:-0.40127519 
1 0 0 0 1:-0.14804966 2:0.26134508 
1 0 0 0 1:-0.14804966 2:0.26134508 
1 0 0 0 1:-0.14804966 2:0.26134508 
1 0 0 0 1:-0.14804966 2:-0.40127519 
1 0 0 0 1:-0.14804966 2:-0.40127519 
1 0 0 0 1:-0.14804966 2:0.26134508 
1 0 0 0 1:-0.14804966 2:1.5865856 
1 0 0 0 1:-0.14804966 2:0.26134508 
1 0 0 0 1:-0.14804966 2:-0.40127519 
1 0 0 0 1:-0.14804966 2:-0.40127519 
1 0 0 0 1:-0.14804966 2:-0.40127519 
1 0 0 0 1:-0.14804966 2:0.26134508 
1 0 0 0 1:-0.14804966 2:-0.40127519 
1 0 0 0 1:-0.14804966 2:0.26134508 
1 0 0 0 1:-0.14804966 2:1.5865856 
1 0 0 0 1:-0.14804966 2:-0.40127519 
1 0 0 0 1:-0.14804966 2:1.5865856 
1 0 0 0 1:-0.14804966 2:0.26134508 
1 0 0 0 1:-0.14804966 2:1.5865856 
1 0 0 0 1:-0.14804966 2:0.26134508 
1 0 0 0 1:-0.14804966 2:1.5865856 
1 0 0 0 1:-0.14804966 2:-0.40127519 
1 0 0 0 1:-0.14804966 2:-0.40127519 
1 0 0 0 1:-0.14804966 2:-0.40127519 
1 0 0 0 1:-0.14804966 2:0.26134508 
1 0 0 0 1:-0.14804966 2:-0.40127519 
1 0 0 0 1:-0.14804966 2:-0.40127519 
1 0 0 0 1:-0.14804966 2:-0.40127519 
1 0 0 0 1:-0.14804966 2:0.26134508 
1 0 0 0 1:-0.14804966 2:1.5865856 
1 0 0 0 1:-0.14804966 2:-0.40127519 
1 0 0 0 1:-0.14804966 2:0.26134508 
1 0 0 0 1:-0.14804966 2:-0.40127519 
1 0 0 0 1:-0.14804966 2:-0.40127519 
1 0 0 0 1:-0.14804966 2:0.26134508 
1 0 0 0 1:-0.14804966 2:-0.40127519 
1 0 0 0 1:-0.14804966 2:-0.40127519 
1 0 0 0 1:-0.14804966 2:-0.40127519 
1 0 0 0 1:-0.14804966 2:0.26134508 
1 0 0 0 1:-0.14804966 2:-0.40127519 
1 0 0 0 1:-0.14804966 2:-0.40127519 
1 0 0 0 1:-0.14804966 2:0.26134508 
1 0 0 0 1:-0.14804966 2:-0.40127519 
1 0 0 0 1:-0.14804966 2:0.26134508 
1 0 0 0 1:-0.14804966 2:0.26134508 
1 0 0 0 1:-0.14804966 2:-0.40127519 
1 0 0 0 1:-0.14804966 2:0.26134508 
1 0 0 0 1:-0.14804966 2:0.26134508 
1 0 0 0 1:-0.14804966 2:0.26134508 
1 0 0 0 1:-0.14804966 2:0.26134508 
1 0 0 0 1:-0.14804966 2:-0.40127519 
1 0 0 0 1:-0.14804966 2:-0.40127519 
1 0 0 0 1:-0.14804966 2:-0.40127519 
1 0 0 0 1:-0.14804966 2:-0.40127519 
1 0 0 0 1:-0.14804966 2:-0.40127519 
1 0 0 0 1:-0.14804966 2:0.26134508 
1 0 0 0 1:-0.14804966 2:1.5865856 
1 0 0 0 1:-0.14804966 2:-0.40127519 
1 0 0 0 1:-0.14804966 2:-0.40127519 
1 0 0 0 1:-0.14804966 2:-0.40127519 
1 0 0 0 1:-0.14804966 2:0.26134508 
1 0 0 0 1:-0.14804966 2:-0.40127519 
1 0 0 0 1:-0.14804966 2:-0.40127519 
1 0 0 0 1:-0.14804966 2:-0.40127519 
1 0 0 0 1:-0.14804966 2:0.26134508 
1 0 0 0 1:-0.14804966 2:-0.40127519 
1 0 0 0 1:-0.14804966 2:0.26134508 
1 0 0 0 1:-0.14804966 2:0.26134508 
1 0 0 0 1:-0.14804966 2:0.26134508 
1 0 0 0 1:-0.14804966 2:-0.40127519 
1 0 0 0 1:-0.14804966 2:-0.40127519 
1 0 0 0 1:-0.14804966 2:-0.40127519 
1 0 0 0 1:-0.14804966 2:0.26134508 
1 0 0 0 1:-0.14804966 2:0.26134508 
1 0 0 0 1:-0.14804966 2:-0.40127519 
1 0 0 0 1:-0.14804966 2:-0.40127519 
1 0 0 0 1:-0.14804966 2:-0.40127519 
1 0 0 0 1:-0.14804966 2:0.26134508 
1 0 0 0 1:-0.14804966 2:-0.40127519 
1 0 0 0 1:-0.14804966 2:0.26134508 
1 0 0 0 1:-0.14804966 2:-0.40127519 
1 0 0 0 1:-0.14804966 2:-0.40127519 
1 0 0 0 1:-0.14804966 2:0.26134508 
1 0 0 0 1:-0.14804966 2:0.26134508 
1 0 0 0 1:-0.14804966 2:0.26134508 
1 0 0 0 1:-0.14804966 2:0.26134508 
1 0 0 0 1:-0.14804966 2:-0.40127519 
1 0 0 0 1:-0.14804966 2:-0.40127519 
1 0 0 0 1:-0.14804966 2:-0.40127519 
1 0 0 0 1:-0.14804966 2:-0.40127519 
1 0 1 0 1:-0.14804966 2:-0.34428985 
1 0 0 0 1:-0.14804966 2:0.26134508 
1 0 0 0 1:-0.14804966 2:0.26134508 
1 0 0 0 1:-0.14804966 2:-0.40127519 
1 0 0 0 1:-0.14804966 2:0.26134508 
1 0 0 0 1:-0.14804966 2:-0.40127519 
1 0 0 0 1:-0.14804966 2:-0.40127519 
1 0 0 0 1:-0.14804966 2:0.26134508 
1 0 0 0 1:-0.14804966 2:-0.40127519 
1 0 0 0 1:-0.14804966 2:-0.40127519 
1 0 0 0 1:-0.14804966 2:-0.40127519 
1 0 0 0 1:-0.14804966 2:-0.40127519 
1 0 0 0 1:-0.14804966 2:-0.40127519 
1 0 0 0 1:-0.14804966 2:-0.40127519 
1 0 0 0 1:-0.14804966 2:-0.40127519 
1 0 0 0 1:-0.14804966 2:-0.40127519 
1 0 0 0 1:-0.14804966 2:0.26134508 
1 0 0 0 1:-0.14804966 2:0.26134508 
1 0 0 0 1:-0.14804966 2:0.26134508 
1 0 0 0 1:-0.14804966 2:0.26134508 
1 0 0 0 1:-0.14804966 2:-0.40127519 
1 0 0 0 1:-0.14804966 2:-0.40127519 
1 0 0 0 1:-0.14804966 2:0.26134508 
1 0 0 0 1:-0.14804966 2:0.26134508 
1 0 0 0 1:-0.14804966 2:-0.40127519 
1 0 0 0 1:-0.14804966 2:0.26134508 
1 0 0 0 1:-0.14804966 2:0.26134508 
1 0 0 0 1:-0.14804966 2:0.26134508 
1 0 0 0 1:-0.14804966 2:-0.40127519 
1 0 0 0 1:-0.14804966 2:-0.40127519 
1 0 0 0 1:-0.14804966 2:-0.40127519 
1 0 0 0 1:-0.14804966 2:-0.40127519 
1 0 0 0 1:-0.14804966 2:0.26134508 
1 0 0 0 1:-0.14804966 2:-0.40127519 
1 0 0 0 1:-0.14804966 2:-0.40127519 
1 0 0 0 1:-0.14804966 2:0.92396535 
1 0 0 0 1:-0.14804966 2:0.26134508 
1 0 0 0 1:-0.14804966 2:-0.40127519 
1 0 0 0 1:-0.14804966 2:-0.40127519 
1 0 0 0 1:-0.14804966 2:0.26134508 
1 0 0 0 1:-0.14804966 2:0.26134508 
1 0 0 0 1:-0.14804966 2:0.26134508 
1 0 0 0 1:-0.14804966 2:-0.40127519 
1 0 0 0 1:-0.14804966 2:0.26134508 
1 0 0 0 1:-0.14804966 2:-0.40127519 
1 0 0 0 1:-0.14804966 2:0.26134508 
1 0 0 0 1:-0.14804966 2:1.5865856 
1 0 0 0 1:-0.14804966 2:0.26134508 
1 0 0 0 1:-0.14804966 2:-0.40127519 
1 0 0 0 1:-0.14804966 2:-0.40127519 
1 0 0 0 1:-0.14804966 2:-0.40127519 
1 0 0 0 1:-0.14804966 2:-0.40127519 
1 0 0 0 1:-0.14804966 2:0.26134508 
1 0 0 0 1:-0.14804966 2:-0.40127519 
1 0 0 0 1:-0.14804966 2:-0.40127519 
1 0 0 0 1:-0.14804966 2:0.26134508 
1 0 0 0 1:-0.14804966 2:-0.40127519 
1 0 0 0 1:-0.14804966 2:0.26134508 
1 0 0 0 1:-0.14804966 2:-0.40127519 
1 0 1 0 1:-0.14804966 2:0.071835683 
1 0 0 0 1:-0.14804966 2:-0.40127519 
1 0 0 0 1:-0.14804966 2:0.26134508 
1 0 0 0 1:-0.14804966 2:0.26134508 
1 0 0 0 1:-0.14804966 2:0.26134508 
1 0 0 0 1:-0.14804966 2:0.26134508 
1 0 0 0 1:-0.14804966 2:-0.40127519 
1 0 0 0 1:-0.14804966 2:0.26134508 
1 0 0 0 1:-0.14804966 2:1.5865856 
1 0 0 0 1:-0.14804966 2:-0.40127519 
1 0 0 0 1:-0.14804966 2:-0.40127519 
1 0 0 0 1:-0.14804966 2:0.26134508 
1 0 0 0 1:-0.14804966 2:0.26134508 
1 0 0 0 1:-0.14804966 2:-0.40127519 
1 0 0 0 1:-0.14804966 2:0.26134508 
1 0 0 0 1:-0.14804966 2:-0.40127519 
1 0 0 0 1:-0.14804966 2:-0.40127519 
1 0 0 0 1:-0.14804966 2:-0.40127519 
1 0 0 0 1:-0.14804966 2:-0.40127519 
1 0 0 0 1:-0.14804966 2:-0.40127519 
1 0 0 0 1:-0.14804966 2:0.26134508 
1 0 0 0 1:-0.14804966 2:0.26134508 
1 0 0 0 1:-0.14804966 2:-0.40127519 
1 0 0 0 1:-0.14804966 2:-0.40127519 
1 0 0 0 1:-0.14804966 2:1.5865856 
1 0 0 0 1:-0.14804966 2:0.26134508 
1 0 0 0 1:-0.14804966 2:0.26134508 
1 0 0 0 1:-0.14804966 2:-0.40127519 
1 0 0 0 1:-0.14804966 2:-0.40127519 
1 0 0 0 1:-0.14804966 2:-0.40127519 
1 0 0 0 1:-0.14804966 2:-0.40127519 
1 0 0 0 1:-0.14804966 2:-0.40127519 
1 0 0 0 1:-0.14804966 2:0.26134508 
1 0 0 0 1:-0.14804966 2:0.26134508 
1 0 0 0 1:-0.14804966 2:0.26134508 
1 0 0 0 1:-0.14804966 2:-0.40127519 
1 0 0 0 1:-0.14804966 2:-0.40127519 
1 0 0 0 1:-0.14804966 2:-0.40127519 
1 0 0 0 1:-0.14804966 2:-0.40127519 
1 0 0 0 1:-0.14804966 2:-0.40127519 
1 0 0 0 1:-0.14804966 2:-0.40127519 
1 0 0 0 1:-0.14804966 2:-0.40127519 
1 0 0 0 1:-0.14804966 2:-0.40127519 
1 0 0 0 1:-0.14804966 2:-0.40127519 
1 0 0 0 1:-0.14804966 2:-0.40127519 
1 0 0 0 1:-0.14804966 2:0.26134508 
1 0 0 0 1:-0.14804966 2:0.26134508 
1 0 0 0 1:-0.14804966 2:-0.40127519 
1 0 0 0 1:-0.14804966 2:0.26134508 
1 0 0 0 1:-0.14804966 2:0.26134508 
1 0 0 0 1:-0.14804966 2:0.26134508 
1 0 0 0 1:-0.14804966 2:-0.40127519 
1 0 0 0 1:-0.14804966 2:0.26134508 
1 0 0 0 1:-0.14804966 2:0.26134508 
1 0 0 0 1:-0.14804966 2:0.26134508 
1 0 0 0 1:-0.14804966 2:-0.40127519 
1 0 0 0 1:-0.14804966 2:-0.40127519 
1 0 0 0 1:-0.14804966 2:0.26134508 
1 0 0 0 1:-0.14804966 2:0.26134508 
1 0 0 0 1:-0.14804966 2:-0.40127519 
1 0 0 0 1:-0.14804966 2:0.92396535 
1 0 0 0 1:-0.14804966 2:0.26134508 
1 0 0 0 1:-0.14804966 2:0.92396535 
1 0 0 0 1:-0.14804966 2:-0.40127519 
1 0 0 0 1:-0.14804966 2:-0.40127519 
1 0 0 0 1:-0.14804966 2:0.26134508 
1 0 0 0 1:-0.14804966 2:0.26134508 
1 0 0 0 1:-0.14804966 2:0.26134508 
1 0 0 0 1:-0.14804966 2:0.26134508 
1 0 0 0 1:-0.14804966 2:-0.40127519 
1 0 0 0 1:-0.14804966 2:0.26134508 
1 0 0 0 1:-0.14804966 2:-0.40127519 
1 0 0 0 1:-0.14804966 2:0.26134508 
1 0 0 0 1:-0.14804966 2:0.26134508 
1 0 0 0 1:-0.14804966 2:0.26134508 
1 0 0 0 1:-0.14804966 2:-0.40127519 
1 0 0 0 1:-0.14804966 2:-0.40127519 
1 0 0 0 1:-0.14804966 2:-0.40127519 
1 0 0 0 1:-0.14804966 2:-0.40127519 
1 0 0 0 1:-0.14804966 2:-0.40127519 
1 0 0 0 1:-0.14804966 2:0.26134508 
1 0 0 0 1:-0.14804966 2:-0.40127519 
1 0 0 0 1:-0.14804966 2:0.26134508 
1 0 0 0 1:-0.14804966 2:-0.40127519 
1 0 0 0 1:-0.14804966 2:0.26134508 
1 0 0 0 1:-0.14804966 2:-0.40127519 
1 0 0 0 1:-0.14804966 2:0.26134508 
1 0 0 0 1:-0.14804966 2:-0.40127519 
1 0 0 0 1:-0.14804966 2:-0.40127519 
1 0 0 0 1:-0.14804966 2:-0.40127519 
1 0 0 0 1:-0.14804966 2:0.26134508 
1 0 0 0 1:-0.14804966 2:1.5865856 
1 0 0 0 1:-0.14804966 2:-0.40127519 
1 0 0 0 1:-0.14804966 2:0.26134508 
1 0 0 0 1:-0.14804966 2:-0.40127519 
1 0 0 0 1:-0.14804966 2:0.26134508 
1 0 0 0 1:-0.14804966 2:-0.40127519 
1 0 0 0 1:-0.14804966 2:-0.40127519 
1 0 0 0 1:-0.14804966 2:0.26134508 
1 0 0 0 1:-0.14804966 2:0.26134508 
1 0 0 0 1:-0.14804966 2:-0.40127519 
1 0 0 0 1:-0.14804966 2:0.26134508 
1 0 0 0 1:-0.14804966 2:0.26134508 
1 0 0 0 1:-0.14804966 2:-0.40127519 
1 0 0 0 1:-0.14804966 2:-0.40127519 
1 0 0 0 1:-0.14804966 2:-0.40127519 
1 0 0 0 1:-0.14804966 2:-0.40127519 
1 0 0 0 1:-0.14804966 2:-0.40127519 
1 0 0 0 1:-0.14804966 2:-0.40127519 
1 0 0 0 1:-0.14804966 2:-0.40127519 
1 0 0 0 1:-0.14804966 2:0.26134508 
1 0 0 0 1:-0.14804966 2:-0.40127519 
1 0 0 0 1:-0.14804966 2:0.26134508 
1 0 0 0 1:-0.14804966 2:0.26134508 
1 0 0 0 1:-0.14804966 2:-0.40127519 
1 0 0 0 1:-0.14804966 2:-0.40127519 
1 0 0 0 1:-0.14804966 2:-0.40127519 
1 0 0 0 1:-0.14804966 2:-0.40127519 
1 0 0 0 1:-0.14804966 2:-0.40127519 
1 0 0 0 1:-0.14804966 2:-0.40127519 
1 0 0 0 1:-0.14804966 2:0.26134508 
1 0 0 0 1:-0.14804966 2:-0.40127519 
1 0 0 0 1:-0.14804966 2:0.26134508 
1 0 0 0 1:-0.14804966 2:0.26134508 
1 0 0 0 1:-0.14804966 2:0.26134508 
1 0 0 0 1:-0.14804966 2:0.26134508 
1 0 0 0 1:-0.14804966 2:0.26134508 
1 0 0 0 1:-0.14804966 2:0.26134508 
1 0 0 0 1:-0.14804966 2:0.92396535 
1 0 0 0 1:-0.14804966 2:-0.40127519 
1 0 0 0 1:-0.14804966 2:0.26134508 
1 0 0 0 1:-0.14804966 2:0.26134508 
1 0 0 0 1:-0.14804966 2:-0.40127519 
1 0 0 0 1:-0.14804966 2:-0.40127519 
1 0 0 0 1:-0.14804966 2:-0.40127519 
1 0 0 0 1:-0.14804966 2:-0.40127519 
1 0 0 0 1:-0.14804966 2:-0.40127519 
1 0 0 0 1:-0.14804966 2:0.26134508 
1 0 0 0 1:-0.14804966 2:-0.40127519 
1 0 0.040508882088148269 0 1:-0.14804966 2:4.2370667 
1 0 0 0 1:-0.14804966 2:0.26134508 
1 0 0 0 1:-0.14804966 2:0.26134508 
1 0 0 0 1:-0.14804966 2:-0.40127519 
1 0 0 0 1:-0.14804966 2:-0.40127519 
1 0 0 0 1:-0.14804966 2:-0.40127519 
1 0 0 0 1:-0.14804966 2:-0.40127519 
1 0 0 0 1:-0.14804966 2:1.5865856 
1 0 0 0 1:-0.14804966 2:-0.40127519 
1 0 0 0 1:-0.14804966 2:0.26134508 
1 0 0 0 1:-0.14804966 2:0.26134508 
1 0 0 0 1:-0.14804966 2:0.26134508 
1 0 0 0 1:-0.14804966 2:-0.40127519 
1 0 0 0 1:-0.14804966 2:0.26134508 
1 0 0 0 1:-0.14804966 2:0.26134508 
1 0 0 0 1:-0.14804966 2:-0.40127519 
1 0 0 0 1:-0.14804966 2:0.26134508 
1 0 0 0 1:-0.14804966 2:-0.40127519 
1 0 0 0 1:-0.14804966 2:-0.40127519 
1 0 0 0 1:-0.14804966 2:-0.40127519 
1 0 0 0 1:-0.14804966 2:0.26134508 
1 0 0 0 1:-0.14804966 2:0.26134508 
1 0 0 0 1:-0.14804966 2:-0.40127519 
1 0 0 0 1:-0.14804966 2:0.26134508 
1 0 0 0 1:-0.14804966 2:-0.40127519 
1 0 0 0 1:-0.14804966 2:0.26134508 
1 0 0 0 1:-0.14804966 2:1.5865856 
1 0 0 0 1:-0.14804966 2:0.26134508 
1 0 0 0 1:-0.14804966 2:-0.40127519 
1 0 0 0 1:-0.14804966 2:0.26134508 
1 0 0 0 1:-0.14804966 2:-0.40127519 
1 0 0 0 1:-0.14804966 2:0.26134508 
1 0 0 0 1:-0.14804966 2:0.26134508 
1 0 0 0 1:-0.14804966 2:-0.40127519 
1 0 0 0 1:-0.14804966 2:-0.40127519 
1 0 0 0 1:-0.14804966 2:-0.40127519 
1 0 0 0 1:-0.14804966 2:-0.40127519 
1 0 0 0 1:-0.14804966 2:-0.40127519 
1 0 0 0 1:-0.14804966 2:-0.40127519 
1 0 0 0 1:-0.14804966 2:-0.40127519 
1 0 0 0 1:-0.14804966 2:0.26134508 
1 0 0 0 1:-0.14804966 2:0.26134508 
1 0 0 0 1:-0.14804966 2:0.26134508 
1 0 0 0 1:-0.14804966 2:0.26134508 
1 0 0 0 1:-0.14804966 2:-0.40127519 
1 0 0 0 1:-0.14804966 2:-0.40127519 
1 0 0 0 1:-0.14804966 2:-0.40127519 
1 0 0 0 1:-0.14804966 2:-0.40127519 
1 0 0 0 1:-0.14804966 2:-0.40127519 
1 0 0 0 1:-0.14804966 2:-0.40127519 
1 0 0 0 1:-0.14804966 2:-0.40127519 
1 0 0 0 1:-0.14804966 2:-0.40127519 
1 0 0 0 1:-0.14804966 2:-0.40127519 
1 0 0 0 1:-0.14804966 2:0.26134508 
1 0 0 0 1:-0.14804966 2:0.26134508 
1 0 0 0 1:-0.14804966 2:0.26134508 
1 0 0 0 1:-0.14804966 2:-0.40127519 
1 0 0 0 1:-0.14804966 2:0.26134508 
1 0 0 0 1:-0.14804966 2:-0.40127519 
1 0 0 0 1:-0.14804966 2:-0.40127519 
1 0 0 0 1:-0.14804966 2:-0.40127519 
1 0 0.0014570709943026452 0 1:-0.14804966 2:1.6508598 
1 0 0 0 1:-0.14804966 2:-0.40127519 
1 0 0 0 1:-0.14804966 2:0.92396535 
1 0 0 0 1:-0.14804966 2:-0.40127519 
1 0 0 0 1:-0.14804966 2:0.26134508 
1 0 0 0 1:-0.14804966 2:-0.40127519 
1 0 0 0 1:-0.14804966 2:-0.40127519 
1 0 0 0 1:-0.14804966 2:0.26134508 
1 0 0 0 1:-0.14804966 2:0.26134508 
1 0 0 0 1:-0.14804966 2:-0.40127519 
1 0 0 0 1:-0.14804966 2:1.5865856 
1 0 0 0 1:-0.14804966 2:-0.40127519 
1 0 0 0 1:-0.14804966 2:0.26134508 
1 0 0 0 1:-0.14804966 2:-0.40127519 
1 0 0 0 1:-0.14804966 2:-0.40127519 
1 0 0 0 1:-0.14804966 2:-0.40127519 
1 0 0 0 1:-0.14804966 2:0.26134508 
1 0 0 0 1:-0.14804966 2:0.26134508 
1 0 0 0 1:-0.14804966 2:-0.40127519 
1 0 0 0 1:-0.14804966 2:0.26134508 
1 0 0 0 1:-0.14804966 2:-0.40127519 
1 0 0 0 1:-0.14804966 2:-0.40127519 
1 0 0 0 1:-0.14804966 2:0.26134508 
1 0 0 0 1:-0.14804966 2:-0.40127519 
1 0 0 0 1:-0.14804966 2:-0.40127519 
1 0 0 0 1:-0.14804966 2:-0.40127519 
1 0 0 0 1:-0.14804966 2:-0.40127519 
1 0 0 0 1:-0.14804966 2:0.26134508 
1 0 0 0 1:-0.14804966 2:-0.40127519 
1 0 0 0 1:-0.14804966 2:-0.40127519 
1 0 0 0 1:-0.14804966 2:-0.40127519 
1 0 0 0 1:-0.14804966 2:-0.40127519 
1 0 0 0 1:-0.14804966 2:-0.40127519 
1 0 0 0 1:-0.14804966 2:0.26134508 
1 0 0 0 1:-0.14804966 2:-0.40127519 
1 0 0 0 1:-0.14804966 2:-0.40127519 
1 0 0 0 1:-0.14804966 2:0.92396535 
1 0 0 0 1:-0.14804966 2:-0.40127519 
1 0 0 0 1:-0.14804966 2:-0.40127519 
1 0 0 0 1:-0.14804966 2:0.26134508 
1 0 0 0 1:-0.14804966 2:0.26134508 
1 0 0 0 1:-0.14804966 2:-0.40127519 
1 0 0 0 1:-0.14804966 2:0.26134508 
1 0 0 0 1:-0.14804966 2:1.5865856 
1 0 0 0 1:-0.14804966 2:-0.40127519 
1 0 0 0 1:-0.14804966 2:-0.40127519 
1 0 0 0 1:-0.14804966 2:0.26134508 
1 0 0 0 1:-0.14804966 2:0.26134508 
1 0 0 0 1:-0.14804966 2:-0.40127519 
1 0 0 0 1:-0.14804966 2:-0.40127519 
1 0 0 0 1:-0.14804966 2:0.26134508 
1 0 0 0 1:-0.14804966 2:0.26134508 
1 0 0 0 1:-0.14804966 2:-0.40127519 
1 0 0 0 1:-0.14804966 2:-0.40127519 
1 0 0 0 1:-0.14804966 2:-0.40127519 
1 0 0 0 1:-0.14804966 2:-0.40127519 
1 0 0 0 1:-0.14804966 2:-0.40127519 
1 0 0 0 1:-0.14804966 2:0.26134508 
1 0 0 0 1:-0.14804966 2:1.5865856 
1 0 0 0 1:-0.14804966 2:1.5865856 
1 0 0 0 1:-0.14804966 2:0.26134508 
1 0 0 0 1:-0.14804966 2:0.26134508 
1 0 0 0 1:-0.14804966 2:0.26134508 
1 0 0 0 1:-0.14804966 2:-0.40127519 
1 0 0 0 1:-0.14804966 2:-0.40127519 
1 0 0 0 1:-0.14804966 2:0.26134508 
1 0 0 0 1:-0.14804966 2:-0.40127519 
1 0 0 0 1:-0.14804966 2:-0.40127519 
1 0 0 0 1:-0.14804966 2:-0.40127519 
1 0 0 0 1:-0.14804966 2:-0.40127519 
1 0 0 0 1:-0.14804966 2:0.26134508 
1 0 0 0 1:-0.14804966 2:-0.40127519 
1 0 0 0 1:-0.14804966 2:-0.40127519 
1 0 0 0 1:-0.14804966 2:-0.40127519 
1 0 0 0 1:-0.14804966 2:-0.40127519 
1 0 0 0 1:-0.14804966 2:-0.40127519 
1 0 0 0 1:-0.14804966 2:0.26134508 
1 0 0 0 1:-0.14804966 2:-0.40127519 
1 0 0 0 1:-0.14804966 2:-0.40127519 
1 0 0 0 1:-0.14804966 2:-0.40127519 
1 0 0 0 1:-0.14804966 2:0.26134508 
1 0 0 0 1:-0.14804966 2:0.26134508 
1 0 0 0 1:-0.14804966 2:0.26134508 
1 0 0 0 1:-0.14804966 2:-0.40127519 
1 0 0 0 1:-0.14804966 2:0.26134508 
1 0 0 0 1:-0.14804966 2:-0.40127519 
1 0 0 0 1:-0.14804966 2:0.26134508 
1 0 0 0 1:-0.14804966 2:1.5865856 
1 0 0 0 1:-0.14804966 2:0.26134508 
1 0 0 0 1:-0.14804966 2:-0.40127519 
1 0 0 0 1:-0.14804966 2:-0.40127519 
1 0 1 0 1:-0.14804966 2:-0.26808851 
1 0 0 0 1:-0.14804966 2:-0.40127519 
1 0 0 0 1:-0.14804966 2:0.26134508 
1 0 0 0 1:-0.14804966 2:-0.40127519 
1 0 0 0 1:-0.14804966 2:0.26134508 
1 0 0 0 1:-0.14804966 2:0.26134508 
1 0 0 0 1:-0.14804966 2:-0.40127519 
1 0 0 0 1:-0.14804966 2:-0.40127519 
1 0 0 0 1:-0.14804966 2:-0.40127519 
1 0 0 0 1:-0.14804966 2:-0.40127519 
1 0 0 0 1:-0.14804966 2:0.26134508 
1 0 0 0 1:-0.14804966 2:-0.40127519 
1 0 0 0 1:-0.14804966 2:0.26134508 
1 0 0 0 1:-0.14804966 2:-0.40127519 
1 0 0 0 1:-0.14804966 2:-0.40127519 
1 0 0 0 1:-0.14804966 2:0.26134508 
1 0 0 0 1:-0.14804966 2:-0.40127519 
1 0 0 0 1:-0.14804966 2:0.26134508 
1 0 0 0 1:-0.14804966 2:-0.40127519 
1 0 0 0 1:-0.14804966 2:0.26134508 
1 0 0 0 1:-0.14804966 2:0.26134508 
1 0 0 0 1:-0.14804966 2:-0.40127519 
1 0 0 0 1:-0.14804966 2:-0.40127519 
1 0 0 0 1:-0.14804966 2:-0.40127519 
1 0 0 0 1:-0.14804966 2:-0.40127519 
1 0 0 0 1:-0.14804966 2:-0.40127519 
1 0 0 0 1:-0.14804966 2:-0.40127519 
1 0 0 0 1:-0.14804966 2:-0.40127519 
1 0 0 0 1:-0.14804966 2:0.26134508 
1 0 0 0 1:-0.14804966 2:0.26134508 
1 0 0 0 1:-0.14804966 2:-0.40127519 
1 0 0 0 1:-0.14804966 2:-0.40127519 
1 0 0 0 1:-0.14804966 2:0.26134508 
1 0 0 0 1:-0.14804966 2:0.26134508 
1 0 0 0 1:-0.14804966 2:0.26134508 
1 0 0 0 1:-0.14804966 2:0.26134508 
1 0 0 0 1:-0.14804966 2:0.26134508 
1 0 0 0 1:-0.14804966 2:-0.40127519 
1 0 0 0 1:-0.14804966 2:-0.40127519 
1 0 0 0 1:-0.14804966 2:-0.40127519 
1 0 0 0 1:-0.14804966 2:0.26134508 
1 0 0 0 1:-0.14804966 2:-0.40127519 
1 0 0 0 1:-0.14804966 2:0.26134508 
1 0 0 0 1:-0.14804966 2:1.5865856 
1 0 0 0 1:-0.14804966 2:1.5865856 
1 0 0 0 1:-0.14804966 2:-0.40127519 
1 0 0 0 1:-0.14804966 2:0.26134508 
1 0 0 0 1:-0.14804966 2:-0.40127519 
1 0 0 0 1:-0.14804966 2:0.26134508 
1 0 0 0 1:-0.14804966 2:-0.40127519 
1 0 0 0 1:-0.14804966 2:-0.40127519 
1 0 0 0 1:-0.14804966 2:-0.40127519 
1 0 0 0 1:-0.14804966 2:0.26134508 
1 0 0 0 1:-0.14804966 2:0.26134508 
1 0 0 0 1:-0.14804966 2:0.26134508 
1 0 0 0 1:-0.14804966 2:0.26134508 
1 0 0 0 1:-0.14804966 2:-0.40127519 
1 0 0 0 1:-0.14804966 2:-0.40127519 
1 0 0 0 1:-0.14804966 2:0.26134508 
1 0 0 0 1:-0.14804966 2:-0.40127519 
1 0 0 0 1:-0.14804966 2:-0.40127519 
1 0 0 0 1:-0.14804966 2:-0.40127519 
1 0 0 0 1:-0.14804966 2:-0.40127519 
1 0 0 0 1:-0.14804966 2:-0.40127519 
1 0 0 0 1:-0.14804966 2:-0.40127519 
1 0 0 0 1:-0.14804966 2:-0.40127519 
1 0 0 0 1:-0.14804966 2:0.26134508 
1 0 0 0 1:-0.14804966 2:0.92396535 
1 0 0 0 1:-0.14804966 2:-0.40127519 
1 0 0 0 1:-0.14804966 2:0.26134508 
1 0 0 0 1:-0.14804966 2:0.26134508 
1 0 0 0 1:-0.14804966 2:0.26134508 
1 0 0 0 1:-0.14804966 2:-0.40127519 
1 0 0 0 1:-0.14804966 2:-0.40127519 
1 0 0 0 1:-0.14804966 2:0.26134508 
1 0 0 0 1:-0.14804966 2:-0.40127519 
1 0 0 0 1:-0.14804966 2:-0.40127519 
1 0 0 0 1:-0.14804966 2:0.26134508 
1 0 0 0 1:-0.14804966 2:0.26134508 
1 0 0 0 1:-0.14804966 2:-0.40127519 
1 0 0 0 1:-0.14804966 2:-0.40127519 
1 0 0 0 1:-0.14804966 2:0.26134508 
1 0 0 0 1:-0.14804966 2:1.5865856 
1 0 0 0 1:-0.14804966 2:-0.40127519 
1 0 0 0 1:-0.14804966 2:-0.40127519 
1 0 0 0 1:-0.14804966 2:-0.40127519 
1 0 0 0 1:-0.14804966 2:-0.40127519 
1 0 0 0 1:-0.14804966 2:0.26134508 
1 0 0 0 1:-0.14804966 2:0.26134508 
1 0 0 0 1:-0.14804966 2:-0.40127519 
1 0 0 0 1:-0.14804966 2:0.26134508 
1 0 0 0 1:-0.14804966 2:-0.40127519 
1 0 0 0 1:-0.14804966 2:0.26134508 
1 0 0 0 1:-0.14804966 2:0.26134508 
1 0 0 0 1:-0.14804966 2:-0.40127519 
1 0 0 0 1:-0.14804966 2:0.26134508 
1 0 0 0 1:-0.14804966 2:0.26134508 
1 0 0 0 1:-0.14804966 2:0.26134508 
1 0 0 0 1:-0.14804966 2:-0.40127519 
1 0 0 0 1:-0.14804966 2:0.26134508 
1 0 0 0 1:-0.14804966 2:-0.40127519 
1 0 0 0 1:-0.14804966 2:-0.40127519 
1 0 0 0 1:-0.14804966 2:-0.40127519 
1 0 0 0 1:-0.14804966 2:-0.40127519 
1 0 0 0 1:-0.14804966 2:-0.40127519 
1 0 0 0 1:-0.14804966 2:0.26134508 
1 0 0 0 1:-0.14804966 2:-0.40127519 
1 0 0 0 1:-0.14804966 2:-0.40127519 
1 0 0 0 1:-0.14804966 2:-0.40127519 
1 0 0 0 1:-0.14804966 2:0.26134508 
1 0 0 0 1:-0.14804966 2:-0.40127519 
1 0 0 0 1:-0.14804966 2:0.26134508 
1 0 0 0 1:-0.14804966 2:0.26134508 
1 0 0 0 1:-0.14804966 2:-0.40127519 
1 0 0 0 1:-0.14804966 2:0.92396535 
1 0 0 0 1:-0.14804966 2:0.26134508 
1 0 0 0 1:-0.14804966 2:1.5865856 
1 0 0 0 1:-0.14804966 2:0.26134508 
1 0 0 0 1:-0.14804966 2:0.26134508 
1 0 0 0 1:-0.14804966 2:0.26134508 
1 0 0 0 1:-0.14804966 2:-0.40127519 
1 0 0 0 1:-0.14804966 2:0.26134508 
1 0 0 0 1:-0.14804966 2:0.26134508 
1 0 0 0 1:-0.14804966 2:-0.40127519 
1 0 0 0 1:-0.14804966 2:0.26134508 
1 0 0 0 1:-0.14804966 2:-0.40127519 
1 0 0 0 1:-0.14804966 2:-0.40127519 
1 0 0 0 1:-0.14804966 2:-0.40127519 
1 0 0 0 1:-0.14804966 2:0.26134508 
1 0 0 0 1:-0.14804966 2:-0.40127519 
1 0 0 0 1:-0.14804966 2:0.26134508 
1 0 0 0 1:-0.14804966 2:1.5865856 
1 0 0 0 1:-0.14804966 2:-0.40127519 
1 0 0 0 1:-0.14804966 2:-0.40127519 
1 0 0 0 1:-0.14804966 2:-0.40127519 
1 0 0 0 1:-0.14804966 2:-0.40127519 
1 0 0 0 1:-0.14804966 2:0.26134508 
1 0 0 0 1:-0.14804966 2:1.5865856 
1 0 0 0 1:-0.14804966 2:-0.40127519 
1 0 0 0 1:-0.14804966 2:-0.40127519 
1 0 0 0 1:-0.14804966 2:-0.40127519 
1 0 0 0 1:-0.14804966 2:0.26134508 
1 0 0 0 1:-0.14804966 2:0.26134508 
1 0 0 0 1:-0.14804966 2:-0.40127519 
1 0 0 0 1:-0.14804966 2:-0.40127519 
1 0 0 0 1:-0.14804966 2:-0.40127519 
1 0 0 0 1:-0.14804966 2:1.5865856 
1 0 0 0 1:-0.14804966 2:-0.40127519 
1 0 0 0 1:-0.14804966 2:0.26134508 
1 0 0 0 1:-0.14804966 2:0.26134508 
1 0 0 0 1:-0.14804966 2:-0.40127519 
1 0 0 0 1:-0.14804966 2:-0.40127519 
1 0 0 0 1:-0.14804966 2:-0.40127519 
1 0 0 0 1:-0.14804966 2:-0.40127519 
1 0 0 0 1:-0.14804966 2:-0.40127519 
1 0 0 0 1:-0.14804966 2:0.26134508 
1 0 0 0 1:-0.14804966 2:0.26134508 
1 0 0 0 1:-0.14804966 2:-0.40127519 
1 0 0 0 1:-0.14804966 2:0.26134508 
1 0 0 0 1:-0.14804966 2:0.26134508 
1 0 0 0 1:-0.14804966 2:-0.40127519 
1 0 0 0 1:-0.14804966 2:-0.40127519 
1 0 0 0 1:-0.14804966 2:0.26134508 
1 0 0 0 1:-0.14804966 2:-0.40127519 
1 0 0 0 1:-0.14804966 2:-0.40127519 
1 0 0 0 1:-0.14804966 2:-0.40127519 
1 0 0 0 1:-0.14804966 2:0.26134508 
1 0 0 0 1:-0.14804966 2:-0.40127519 
1 0 0 0 1:-0.14804966 2:0.26134508 
1 0 0 0 1:-0.14804966 2:-0.40127519 
1 0 0 0 1:-0.14804966 2:-0.40127519 
1 0 0 0 1:-0.14804966 2:0.26134508 
1 0 0 0 1:-0.14804966 2:-0.40127519 
1 0 0 0 1:-0.14804966 2:0.26134508 
1 0 0 0 1:-0.14804966 2:-0.40127519 
1 0 0 0 1:-0.14804966 2:-0.40127519 
1 0 0 0 1:-0.14804966 2:-0.40127519 
1 0 0 0 1:-0.14804966 2:0.26134508 
1 0 0 0 1:-0.14804966 2:0.26134508 
1 0 0 0 1:-0.14804966 2:-0.40127519 
1 0 0 0 1:-0.14804966 2:-0.40127519 
1 0 0 0 1:-0.14804966 2:-0.40127519 
1 0 0 0 1:-0.14804966 2:0.26134508 
1 0 0 0 1:-0.14804966 2:-0.40127519 
1 0 0 0 1:-0.14804966 2:0.26134508 
1 0 0 0 1:-0.14804966 2:-0.40127519 
1 0 0 0 1:-0.14804966 2:-0.40127519 
1 0 0 0 1:-0.14804966 2:-0.40127519 
1 0 0 0 1:-0.14804966 2:-0.40127519 
1 0 0 0 1:-0.14804966 2:-0.40127519 
1 0 0 0 1:-0.14804966 2:-0.40127519 
1 0 0 0 1:-0.14804966 2:-0.40127519 
1 0 0 0 1:-0.14804966 2:0.26134508 
1 0 0 0 1:-0.14804966 2:-0.40127519 
1 0 0 0 1:-0.14804966 2:0.26134508 
1 0 0 0 1:-0.14804966 2:0.26134508 
1 0 0 0 1:-0.14804966 2:0.26134508 
1 0 0 0 1:-0.14804966 2:1.5865856 
1 0 0 0 1:-0.14804966 2:-0.40127519 
1 1 1 1 1:-0.14804966 2:-0.45097171 
1 0 0 0 1:-0.14804966 2:1.1929892 
1 0 0 0 1:-0.14804966 2:0.26134508 
1 0 0 0 1:-0.14804966 2:-0.40127519 
1 0 0 0 1:-0.14804966 2:-0.40127519 
1 0 0 0 1:-0.14804966 2:-0.40127519 
1 0 0 0 1:-0.14804966 2:-0.40127519 
1 0 0 0 1:-0.14804966 2:0.26134508 
1 0 0 0 1:-0.14804966 2:0.26134508 
1 0 0 0 1:-0.14804966 2:-0.40127519 
1 0 0 0 1:-0.14804966 2:-0.40127519 
1 0 0 0 1:-0.14804966 2:-0.40127519 
1 0 0 0 1:-0.14804966 2:-0.40127519 
1 0 0 0 1:-0.14804966 2:-0.40127519 
1 0 0 0 1:-0.14804966 2:-0.40127519 
1 0 0 0 1:-0.14804966 2:-0.40127519 
1 0 0 0 1:-0.14804966 2:-0.40127519 
1 0 0 0 1:-0.14804966 2:-0.40127519 
1 0 0 0 1:-0.14804966 2:-0.40127519 
1 0 0 0 1:-0.14804966 2:-0.40127519 
1 0 0 0 1:-0.14804966 2:-0.40127519 
1 0 0 0 1:-0.14804966 2:0.26134508 
1 0 0 0 1:-0.14804966 2:1.5865856 
1 0 0 0 1:-0.14804966 2:0.26134508 
1 0 0 0 1:-0.14804966 2:-0.40127519 
1 0 0 0 1:-0.14804966 2:0.26134508 
1 0 0 0 1:-0.14804966 2:0.26134508 
1 0 0 0 1:-0.14804966 2:1.5865856 
1 0 0 0 1:-0.14804966 2:-0.40127519 
1 0 0 0 1:-0.14804966 2:0.26134508 
1 0 0 0 1:-0.14804966 2:-0.40127519 
1 0 0 0 1:-0.14804966 2:-0.40127519 
1 0 0 0 1:-0.14804966 2:0.26134508 
1 0 0 0 1:-0.14804966 2:0.26134508 
1 0 0 0 1:-0.14804966 2:0.26134508 
1 0 0 0 1:-0.14804966 2:0.26134508 
1 0 0 0 1:-0.14804966 2:-0.40127519 
1 0 0 0 1:-0.14804966 2:0.26134508 
1 0 0 0 1:-0.14804966 2:-0.40127519 
1 0 0 0 1:-0.14804966 2:0.26134508 
1 0 0 0 1:-0.14804966 2:0.26134508 
1 0 0 0 1:-0.14804966 2:0.26134508 
1 0 0 0 1:-0.14804966 2:0.92396535 
1 0 0 0 1:-0.14804966 2:-0.40127519 
1 0 0 0 1:-0.14804966 2:-0.40127519 
1 0 0 0 1:-0.14804966 2:-0.40127519 
1 0 0 0 1:-0.14804966 2:-0.40127519 
1 0 0 0 1:-0.14804966 2:0.26134508 
1 0 0 0 1:-0.14804966 2:-0.40127519 
1 0 0 0 1:-0.14804966 2:0.26134508 
1 0 0 0 1:-0.14804966 2:-0.40127519 
1 0 0 0 1:-0.14804966 2:-0.40127519 
1 0 0 0 1:-0.14804966 2:0.26134508 
1 0 0 0 1:-0.14804966 2:-0.40127519 
1 0 0 0 1:-0.14804966 2:-0.40127519 
1 0 0 0 1:-0.14804966 2:-0.40127519 
1 0 0 0 1:-0.14804966 2:-0.40127519 
1 0 0 0 1:-0.14804966 2:-0.40127519 
1 0 0 0 1:-0.14804966 2:-0.40127519 
1 0 0 0 1:-0.14804966 2:0.26134508 
1 0 0 0 1:-0.14804966 2:-0.40127519 
1 0 0 0 1:-0.14804966 2:-0.40127519 
1 0 0 0 1:-0.14804966 2:-0.40127519 
1 0 0 0 1:-0.14804966 2:-0.40127519 
1 0 0 0 1:-0.14804966 2:1.5865856 
1 0 0 0 1:-0.14804966 2:0.26134508 
1 0 0 0 1:-0.14804966 2:1.5865856 
1 0 0 0 1:-0.14804966 2:-0.40127519 
1 0 0 0 1:-0.14804966 2:0.26134508 
1 0 0 0 1:-0.14804966 2:0.26134508 
1 0 0 0 1:-0.14804966 2:0.26134508 
1 0 0 0 1:-0.14804966 2:-0.40127519 
1 0 0 0 1:-0.14804966 2:0.26134508 
1 0 0 0 1:-0.14804966 2:0.26134508 
1 0 0 0 1:-0.14804966 2:0.26134508 
1 0 0 0 1:-0.14804966 2:-0.40127519 
1 0 0 0 1:-0.14804966 2:-0.40127519 
1 0 0 0 1:-0.14804966 2:-0.40127519 
1 0 0 0 1:-0.14804966 2:-0.40127519 
1 0 0 0 1:-0.14804966 2:-0.40127519 
1 0 0 0 1:-0.14804966 2:0.26134508 
1 0 0 0 1:-0.14804966 2:0.26134508 
1 0 0 0 1:-0.14804966 2:0.26134508 
1 0 0 0 1:-0.14804966 2:-0.40127519 
1 0 0 0 1:-0.14804966 2:1.5865856 
1 0 0 0 1:-0.14804966 2:-0.40127519 
1 0 0 0 1:-0.14804966 2:-0.40127519 
1 0 0 0 1:-0.14804966 2:0.26134508 
1 0 0 0 1:-0.14804966 2:0.26134508 
1 0 0 0 1:-0.14804966 2:-0.40127519 
1 0 0 0 1:-0.14804966 2:-0.40127519 
1 0 0 0 1:-0.14804966 2:-0.40127519 
1 0 0 0 1:-0.14804966 2:0.26134508 
1 0 0 0 1:-0.14804966 2:-0.40127519 
1 0 0 0 1:-0.14804966 2:0.26134508 
1 0 0 0 1:-0.14804966 2:-0.40127519 
1 0 0 0 1:-0.14804966 2:-0.40127519 
1 0 0 0 1:-0.14804966 2:0.26134508 
1 1 1 1 1:-0.14804966 2:-0.4377193 
1 0 0 0 1:-0.14804966 2:1.5865856 
1 0 0 0 1:-0.14804966 2:0.26134508 
1 0 0 0 1:-0.14804966 2:-0.40127519 
1 0 0 0 1:-0.14804966 2:-0.40127519 
1 0 0 0 1:-0.14804966 2:0.26134508 
1 0 0 0 1:-0.14804966 2:0.26134508 
1 0 0 0 1:-0.14804966 2:-0.40127519 
1 0 0 0 1:-0.14804966 2:-0.40127519 
1 0 0 0 1:-0.14804966 2:-0.40127519 
1 0 0 0 1:-0.14804966 2:1.5865856 
1 0 0 0 1:-0.14804966 2:1.5865856 
1 0 0 0 1:-0.14804966 2:0.26134508 
1 0 0 0 1:-0.14804966 2:-0.40127519 
1 0 0 0 1:-0.14804966 2:0.26134508 
1 0 0 0 1:-0.14804966 2:0.26134508 
1 0 0 0 1:-0.14804966 2:-0.40127519 
1 0 0 0 1:-0.14804966 2:0.26134508 
1 0 0 0 1:-0.14804966 2:-0.40127519 
1 0 0 0 1:-0.14804966 2:-0.40127519 
1 0 0 0 1:-0.14804966 2:0.26134508 
1 0 0 0 1:-0.14804966 2:0.26134508 
1 0 0 0 1:-0.14804966 2:-0.40127519 
1 0 0 0 1:-0.14804966 2:-0.40127519 
1 0 0 0 1:-0.14804966 2:0.26134508 
1 0 0 0 1:-0.14804966 2:-0.40127519 
1 0 0 0 1:-0.14804966 2:0.26134508 
1 0 0 0 1:-0.14804966 2:0.26134508 
1 0 0 0 1:-0.14804966 2:-0.40127519 
1 0 0 0 1:-0.14804966 2:-0.40127519 
1 0 0 0 1:-0.14804966 2:0.26134508 
1 0 0 0 1:-0.14804966 2:-0.40127519 
1 0 0 0 1:-0.14804966 2:0.26134508 
1 0 0 0 1:-0.14804966 2:-0.40127519 
1 0 0 0 1:-0.14804966 2:-0.40127519 
1 0 0 0 1:-0.14804966 2:-0.40127519 
1 0 0 0 1:-0.14804966 2:-0.40127519 
1 0 0 0 1:-0.14804966 2:-0.40127519 
1 0 0 0 1:-0.14804966 2:0.26134508 
1 0 0 0 1:-0.14804966 2:-0.40127519 
1 0 0 0 1:-0.14804966 2:-0.40127519 
1 0 0 0 1:-0.14804966 2:0.26134508 
1 0 0 0 1:-0.14804966 2:0.26134508 
1 0 0 0 1:-0.14804966 2:-0.40127519 
1 0 0 0 1:-0.14804966 2:-0.40127519 
1 0 0 0 1:-0.14804966 2:-0.40127519 
1 0 0 0 1:-0.14804966 2:-0.40127519 
1 0 0 0 1:-0.14804966 2:-0.40127519 
1 0 0 0 1:-0.14804966 2:-0.40127519 
1 0 0 0 1:-0.14804966 2:0.26134508 
1 0 0 0 1:-0.14804966 2:-0.40127519 
1 0 0 0 1:-0.14804966 2:0.26134508 
1 0 0 0 1:-0.14804966 2:0.26134508 
1 0 0 0 1:-0.14804966 2:0.26134508 
1 0 0 0 1:-0.14804966 2:0.26134508 
1 0 0 0 1:-0.14804966 2:0.26134508 
1 0 0 0 1:-0.14804966 2:-0.40127519 
1 0 0 0 1:-0.14804966 2:-0.40127519 
1 0 0 0 1:-0.14804966 2:1.5865856 
1 0 0 0 1:-0.14804966 2:-0.40127519 
1 0 0 0 1:-0.14804966 2:-0.40127519 
1 0 0 0 1:-0.14804966 2:0.26134508 
1 0 0 0 1:-0.14804966 2:0.26134508 
1 1 1 0 1:-0.14804966 2:-0.43241834 
1 0 0 0 1:-0.14804966 2:-0.40127519 
1 0 0 0 1:-0.14804966 2:-0.40127519 
1 0 0 0 1:-0.14804966 2:0.26134508 
1 0 0 0 1:-0.14804966 2:0.26134508 
1 0 0 0 1:-0.14804966 2:-0.40127519 
1 0 0 0 1:-0.14804966 2:0.26134508 
1 0 0 0 1:-0.14804966 2:0.26134508 
1 0 0 0 1:-0.14804966 2:0.92396535 
1 0 0 0 1:-0.14804966 2:-0.40127519 
1 0 0 0 1:-0.14804966 2:0.26134508 
1 0 0 0 1:-0.14804966 2:1.5865856 
1 0 0 0 1:-0.14804966 2:0.26134508 
1 0 0 0 1:-0.14804966 2:0.26134508 
1 0 0 0 1:-0.14804966 2:-0.40127519 
1 0 0 0 1:-0.14804966 2:-0.40127519 
1 0 0 0 1:-0.14804966 2:-0.40127519 
1 0 0 0 1:-0.14804966 2:0.26134508 
1 0 0 0 1:-0.14804966 2:0.26134508 
1 0 0 0 1:-0.14804966 2:0.26134508 
1 0 0 0 1:-0.14804966 2:0.26134508 
1 0 0 0 1:-0.14804966 2:0.26134508 
1 0 0 0 1:-0.14804966 2:0.26134508 
1 0 0 0 1:-0.14804966 2:-0.40127519 
1 0 0 0 1:-0.14804966 2:0.26134508 
1 0 0 0 1:-0.14804966 2:-0.40127519 
1 0 0 0 1:-0.14804966 2:-0.40127519 
1 0 0 0 1:-0.14804966 2:0.26134508 
1 0 0 0 1:-0.14804966 2:0.26134508 
1 0 0 0 1:-0.14804966 2:0.26134508 
1 0 0 0 1:-0.14804966 2:-0.40127519 
1 0 0 0 1:-0.14804966 2:-0.40127519 
1 0 0 0 1:-0.14804966 2:0.26134508 
1 0 0 0 1:-0.14804966 2:-0.40127519 
1 0 0 0 1:-0.14804966 2:0.26134508 
1 0 0 0 1:-0.14804966 2:-0.40127519 
1 0 0.11694996230852303 0 1:-0.14804966 2:0.92396535 
1 0 0 0 1:-0.14804966 2:-0.40127519 
1 0 0 0 1:-0.14804966 2:-0.40127519 
1 0 0 0 1:-0.14804966 2:0.26134508 
1 0 0 0 1:-0.14804966 2:-0.40127519 
1 0 0 0 1:-0.14804966 2:-0.40127519 
1 0 0 0 1:-0.14804966 2:-0.40127519 
1 0 0 0 1:-0.14804966 2:0.26134508 
1 0 0 0 1:-0.14804966 2:0.26134508 
1 0 0 0 1:-0.14804966 2:0.26134508 
1 0 0 0 1:-0.14804966 2:-0.40127519 
1 0 0 0 1:-0.14804966 2:0.26134508 
1 0 0 0 1:-0.14804966 2:0.26134508 
1 0 0 0 1:-0.14804966 2:-0.40127519 
1 0 0 0 1:-0.14804966 2:0.26134508 
1 0 0 0 1:-0.14804966 2:0.26134508 
1 0 0 0 1:-0.14804966 2:-0.40127519 
1 0 0 0 1:-0.14804966 2:0.26134508 
1 0 0 0 1:-0.14804966 2:-0.40127519 
1 0 0 0 1:-0.14804966 2:0.26134508 
1 0 0 0 1:-0.14804966 2:-0.40127519 
1 0 0 0 1:-0.14804966 2:0.26134508 
1 0 0 0 1:-0.14804966 2:-0.40127519 
1 0 0 0 1:-0.14804966 2:-0.40127519 
1 0 0 0 1:-0.14804966 2:-0.40127519 
1 0 0 0 1:-0.14804966 2:0.26134508 
1 0 0 0 1:-0.14804966 2:-0.40127519 
1 0 0 0 1:-0.14804966 2:0.26134508 
1 0 0 0 1:-0.14804966 2:-0.40127519 
1 0 0 0 1:-0.14804966 2:-0.40127519 
1 0 0 0 1:-0.14804966 2:0.26134508 
1 0 0 0 1:-0.14804966 2:-0.40127519 
1 0 0 0 1:-0.14804966 2:0.26134508 
1 0 0 0 1:-0.14804966 2:-0.40127519 
1 0 0 0 1:-0.14804966 2:0.26134508 
1 0 0 0 1:-0.14804966 2:0.26134508 
1 0 0 0 1:-0.14804966 2:-0.40127519 
1 0 0 0 1:-0.14804966 2:0.26134508 
1 0 0 0 1:-0.14804966 2:-0.40127519 
1 0 0 0 1:-0.14804966 2:0.26134508 
1 0 0 0 1:-0.14804966 2:-0.40127519 
1 0 0 0 1:-0.14804966 2:-0.40127519 
1 0 0 0 1:-0.14804966 2:-0.40127519 
1 0 0 0 1:-0.14804966 2:0.26134508 
1 0 0 0 1:-0.14804966 2:-0.40127519 
1 0 0 0 1:-0.14804966 2:0.26134508 
1 0 0 0 1:-0.14804966 2:-0.40127519 
1 0 0 0 1:-0.14804966 2:-0.40127519 
1 0 0 0 1:-0.14804966 2:-0.40127519 
1 0 0 0 1:-0.14804966 2:-0.40127519 
1 0 0 0 1:-0.14804966 2:-0.40127519 
1 0 0 0 1:-0.14804966 2:-0.40127519 
1 0 0 0 1:-0.14804966 2:1.5865856 
1 0 0 0 1:-0.14804966 2:0.26134508 
1 0 0 0 1:-0.14804966 2:-0.40127519 
1 0 0 0 1:-0.14804966 2:1.5865856 
1 0 0 0 1:-0.14804966 2:-0.40127519 
1 0 0 0 1:-0.14804966 2:0.26134508 
1 0 0 0 1:-0.14804966 2:0.26134508 
1 0 0 0 1:-0.14804966 2:1.5865856 
1 0 0 0 1:-0.14804966 2:0.26134508 
1 0 0 0 1:-0.14804966 2:1.5865856 
1 0 0 0 1:-0.14804966 2:-0.40127519 
1 0 0 0 1:-0.14804966 2:0.26134508 
1 0 0 0 1:-0.14804966 2:0.26134508 
1 0 0 0 1:-0.14804966 2:-0.40127519 
1 0 0 0 1:-0.14804966 2:1.5865856 
1 0 0 0 1:-0.14804966 2:-0.40127519 
1 0 0 0 1:-0.14804966 2:-0.40127519 
1 0 0 0 1:-0.14804966 2:0.26134508 
1 0 0 0 1:-0.14804966 2:-0.40127519 
1 0 0 0 1:-0.14804966 2:-0.40127519 
1 0 0 0 1:-0.14804966 2:0.26134508 
1 0 0 0 1:-0.14804966 2:-0.40127519 
1 0 0 0 1:-0.14804966 2:-0.40127519 
1 0 0 0 1:-0.14804966 2:0.26134508 
1 0 0 0 1:-0.14804966 2:-0.40127519 
1 0 0 0 1:-0.14804966 2:-0.40127519 
1 0 0 0 1:-0.14804966 2:-0.40127519 
1 0 0 0 1:-0.14804966 2:0.26134508 
1 0 0 0 1:-0.14804966 2:0.26134508 
1 0 0 0 1:-0.14804966 2:0.26134508 
1 0 0 0 1:-0.14804966 2:0.26134508 
1 0 0 0 1:-0.14804966 2:-0.40127519 
1 0 0 0 1:-0.14804966 2:0.26134508 
1 0 0 0 1:-0.14804966 2:-0.40127519 
1 0 0 0 1:-0.14804966 2:-0.40127519 
1 0 0 0 1:-0.14804966 2:-0.40127519 
1 0 0 0 1:-0.14804966 2:-0.40127519 
1 0 0 0 1:-0.14804966 2:1.5865856 
1 0 0 0 1:-0.14804966 2:0.26134508 
1 0 0 0 1:-0.14804966 2:1.5865856 
1 0 0 0 1:-0.14804966 2:-0.40127519 
1 0 0 0 1:-0.14804966 2:0.26134508 
1 0 0 0 1:-0.14804966 2:1.5865856 
1 0 0 0 1:-0.14804966 2:0.26134508 
1 0 0 0 1:-0.14804966 2:-0.40127519 
1 0 0 0 1:-0.14804966 2:0.26134508 
1 0 0 0 1:-0.14804966 2:-0.40127519 
1 0 0 0 1:-0.14804966 2:0.26134508 
1 0 0 0 1:-0.14804966 2:-0.40127519 
1 0 0 0 1:-0.14804966 2:-0.40127519 
1 0 0 0 1:-0.14804966 2:-0.40127519 
1 0 0 0 1:-0.14804966 2:0.26134508 
1 0 0 0 1:-0.14804966 2:-0.40127519 
1 0 0 0 1:-0.14804966 2:-0.40127519 
1 0 0 0 1:-0.14804966 2:0.26134508 
1 0 0 0 1:-0.14804966 2:-0.40127519 
1 0 0 0 1:-0.14804966 2:0.26134508 
1 0 0 0 1:-0.14804966 2:0.26134508 
1 0 0 0 1:-0.14804966 2:0.26134508 
1 0 0 0 1:-0.14804966 2:0.26134508 
1 0 0 0 1:-0.14804966 2:-0.40127519 
1 0 0 0 1:-0.14804966 2:0.26134508 
1 0 0 0 1:-0.14804966 2:-0.40127519 
1 0 0 0 1:-0.14804966 2:-0.40127519 
1 0 0 0 1:-0.14804966 2:-0.40127519 
1 0 0 0 1:-0.14804966 2:-0.40127519 
1 0 0 0 1:-0.14804966 2:-0.40127519 
1 0 0 0 1:-0.14804966 2:0.26134508 
1 0 0 0 1:-0.14804966 2:-0.40127519 
1 0 0 0 1:-0.14804966 2:-0.40127519 
1 0 0 0 1:-0.14804966 2:0.26134508 
1 0 0 0 1:-0.14804966 2:-0.40127519 
1 0 0 0 1:-0.14804966 2:0.26134508 
1 0 0 0 1:-0.14804966 2:-0.40127519 
1 0 0 0 1:-0.14804966 2:-0.40127519 
1 0 0 0 1:-0.14804966 2:-0.40127519 
1 0 0 0 1:-0.14804966 2:0.26134508 
1 0 0 0 1:-0.14804966 2:-0.40127519 
1 0 0 0 1:-0.14804966 2:0.26134508 
1 0 0 0 1:-0.14804966 2:-0.40127519 
1 0 0 0 1:-0.14804966 2:-0.40127519 
1 0 0 0 1:-0.14804966 2:-0.40127519 
1 0 0 0 1:-0.14804966 2:-0.40127519 
1 0 0 0 1:-0.14804966 2:0.26134508 
1 0 0 0 1:-0.14804966 2:-0.40127519 
1 0 1 0 1:-0.14804966 2:-0.39994995 
1 0 0 0 1:-0.14804966 2:-0.40127519 
1 0 0 0 1:-0.14804966 2:-0.40127519 
1 0 0 0 1:-0.14804966 2:0.26134508 
1 0 0 0 1:-0.14804966 2:-0.40127519 
1 0 0 0 1:-0.14804966 2:-0.40127519 
1 0 0 0 1:-0.14804966 2:-0.40127519 
1 0 0 0 1:-0.14804966 2:-0.40127519 
1 0 0 0 1:-0.14804966 2:-0.40127519 
1 0 0 0 1:-0.14804966 2:0.26134508 
1 0 0 0 1:-0.14804966 2:0.26134508 
1 0 0 0 1:-0.14804966 2:0.26134508 
1 0 0 0 1:-0.14804966 2:-0.40127519 
1 0 0 0 1:-0.14804966 2:0.26134508 
0.34934455911668116 0 0 0 1:-0.14804966 2:3.5744464 
1 0 0 0 1:-0.14804966 2:-0.40127519 
1 0 0 0 1:-0.14804966 2:0.26134508 
1 0 0 0 1:-0.14804966 2:-0.40127519 
1 0 0 0 1:-0.14804966 2:0.26134508 
1 0 0 0 1:-0.14804966 2:1.5865856 
1 0 0 0 1:-0.14804966 2:-0.40127519 
1 0 0 0 1:-0.14804966 2:1.1280524 
1 0 0 0 1:-0.14804966 2:-0.40127519 
1 0 0 0 1:-0.14804966 2:-0.40127519 
1 0 0 0 1:-0.14804966 2:-0.40127519 
1 0 0 0 1:-0.14804966 2:-0.40127519 
1 0 0 0 1:-0.14804966 2:-0.40127519 
1 0 0 0 1:-0.14804966 2:-0.40127519 
1 0 0 0 1:-0.14804966 2:-0.40127519 
1 0 0 0 1:-0.14804966 2:0.26134508 
1 0 0 0 1:-0.14804966 2:0.26134508 
1 0 0 0 1:-0.14804966 2:0.26134508 
1 0 0 0 1:-0.14804966 2:0.26134508 
1 0 0 0 1:-0.14804966 2:0.26134508 
1 0 0 0 1:-0.14804966 2:0.26134508 
1 0 0 0 1:-0.14804966 2:0.26134508 
1 0 0 0 1:-0.14804966 2:0.26134508 
1 0 0 0 1:-0.14804966 2:-0.40127519 
1 0 0 0 1:-0.14804966 2:0.26134508 
1 0 0 0 1:-0.14804966 2:0.26134508 
1 0 0 0 1:-0.14804966 2:-0.40127519 
1 0 0 0 1:-0.14804966 2:0.26134508 
1 0 0 0 1:-0.14804966 2:-0.40127519 
1 0 0 0 1:-0.14804966 2:0.26134508 
1 0 0 0 1:-0.14804966 2:-0.40127519 
1 0 0 0 1:-0.14804966 2:-0.40127519 
1 0 0 0 1:-0.14804966 2:1.5865856 
1 0 0 0 1:-0.14804966 2:0.26134508 
1 0 0 0 1:-0.14804966 2:-0.40127519 
1 0 0 0 1:-0.14804966 2:0.26134508 
1 0 0 0 1:-0.14804966 2:-0.40127519 
1 0 0 0 1:-0.14804966 2:-0.40127519 
1 0 0 0 1:-0.14804966 2:-0.40127519 
1 0 0 0 1:-0.14804966 2:-0.40127519 
1 0 0 0 1:-0.14804966 2:-0.40127519 
1 0 0 0 1:-0.14804966 2:1.5865856 
1 0 0 0 1:-0.14804966 2:-0.40127519 
1 0 0 0 1:-0.14804966 2:-0.40127519 
1 0 0 0 1:-0.14804966 2:1.5865856 
1 0 0 0 1:-0.14804966 2:0.26134508 
1 0 0 0 1:-0.14804966 2:1.2353969 
1 0 0 0 1:-0.14804966 2:0.26134508 
1 0 0 0 1:-0.14804966 2:-0.40127519 
1 0 0 0 1:-0.14804966 2:-0.40127519 
1 0 0 0 1:-0.14804966 2:-0.40127519 
1 0 0 0 1:-0.14804966 2:-0.40127519 
1 0 0 0 1:-0.14804966 2:1.5865856 
1 0 0 0 1:-0.14804966 2:0.26134508 
1 0 0 0 1:-0.14804966 2:0.26134508 
1 0 0 0 1:-0.14804966 2:-0.40127519 
1 0 0 0 1:-0.14804966 2:-0.40127519 
1 0 0 0 1:-0.14804966 2:-0.40127519 
1 0 0 0 1:-0.14804966 2:-0.40127519 
1 0 0 0 1:-0.14804966 2:0.26134508 
1 0 0 0 1:-0.14804966 2:0.26134508 
1 0 0 0 1:-0.14804966 2:-0.40127519 
1 0 0 0 1:-0.14804966 2:-0.40127519 
1 0 0 0 1:-0.14804966 2:-0.40127519 
1 0 0 0 1:-0.14804966 2:-0.40127519 
1 0 0 0 1:-0.14804966 2:0.26134508 
1 0 0 0 1:-0.14804966 2:-0.40127519 
1 0 0 0 1:-0.14804966 2:-0.40127519 
1 0 0 0 1:-0.14804966 2:-0.40127519 
1 0 0 0 1:-0.14804966 2:0.26134508 
1 0 0 0 1:-0.14804966 2:0.26134508 
1 0 0 0 1:-0.14804966 2:-0.40127519 
1 0 0 0 1:-0.14804966 2:0.26134508 
1 0 0 0 1:-0.14804966 2:-0.40127519 
1 0 0 0 1:-0.14804966 2:-0.40127519 
1 0 0 0 1:-0.14804966 2:0.26134508 
1 0 0 0 1:-0.14804966 2:0.26134508 
1 0 0 0 1:-0.14804966 2:-0.40127519 
1 0 0 0 1:-0.14804966 2:-0.40127519 
1 0 0 0 1:-0.14804966 2:-0.40127519 
1 0 0 0 1:-0.14804966 2:0.26134508 
1 0 1 0 1:-0.14804966 2:-0.37079466 
1 0 0 0 1:-0.14804966 2:-0.40127519 
1 0 0 0 1:-0.14804966 2:-0.40127519 
1 0 0 0 1:-0.14804966 2:-0.40127519 
1 0 0 0 1:-0.14804966 2:-0.40127519 
1 0 0 0 1:-0.14804966 2:0.26134508 
1 0 0 0 1:-0.14804966 2:-0.40127519 
1 0 0 0 1:-0.14804966 2:-0.40127519 
1 0 0 0 1:-0.14804966 2:0.26134508 
1 0 0 0 1:-0.14804966 2:-0.40127519 
1 0 0 0 1:-0.14804966 2:0.26134508 
1 0 0 0 1:-0.14804966 2:-0.40127519 
1 0 0 0 1:-0.14804966 2:-0.40127519 
1 0 0 0 1:-0.14804966 2:0.26134508 
1 0 1 0 1:-0.14804966 2:0.0029231755 
1 0 0 0 1:-0.14804966 2:0.26134508 
1 0 0 0 1:-0.14804966 2:-0.40127519 
1 0 0 0 1:-0.14804966 2:-0.40127519 
1 0 0 0 1:-0.14804966 2:-0.40127519 
1 0 0 0 1:-0.14804966 2:-0.40127519 
1 0 0 0 1:-0.14804966 2:-0.40127519 
1 0 0 0 1:-0.14804966 2:-0.40127519 
1 0 0 0 1:-0.14804966 2:-0.40127519 
1 0 0 0 1:-0.14804966 2:-0.40127519 
1 0 0 0 1:-0.14804966 2:0.26134508 
1 0 0 0 1:-0.14804966 2:-0.40127519 
1 0 0 0 1:-0.14804966 2:0.26134508 
1 0 0 0 1:-0.14804966 2:1.5865856 
1 0 0 0 1:-0.14804966 2:-0.40127519 
1 0 0 0 1:-0.14804966 2:-0.40127519 
1 0 0 0 1:-0.14804966 2:-0.40127519 
1 0 0 0 1:-0.14804966 2:-0.40127519 
1 0 0 0 1:-0.14804966 2:-0.40127519 
1 0 0 0 1:-0.14804966 2:-0.40127519 
1 0 0 0 1:-0.14804966 2:0.26134508 
1 0 0 0 1:-0.14804966 2:0.26134508 
1 0 0 0 1:-0.14804966 2:1.5865856 
1 0 0 0 1:-0.14804966 2:-0.40127519 
1 0 0 0 1:-0.14804966 2:-0.40127519 
1 0 0 0 1:-0.14804966 2:3.5744464 
